21,22 0.11459093 0.054477744 -0.2241296 0.26546818 -0.13384497 0.03890373 0.09823237 -0.0444754 0.113392204 -0.09955858 0.2200903 -0.019917056 -0.094425485 -0.18010852 -0.028884208 0.0912356 -0.25516298 0.047448754 0.18227158 0.062542275 -0.10175737 -0.034659196 -0.19199505 -0.14389247 -0.04110899 -0.032383613 0.005079409 0.20098707 0.16305476 0.037700925 0.09130141 -0.09659651 -0.0077442005 -0.06391093 0.07370913 -0.043381933 -0.2667949 -0.2238719 0.024656009 0.18388595 0.28072268 0.10983954 -0.1346387 0.09349926 -0.06535095 -0.081441194 -0.030727303 0.09421104 -0.06473194 0.14179546 0.12004124 -0.083300255 -0.09852272 -0.236071 0.14075243 0.6818906 0.11757089 0.0172958 -0.4099077 -0.37778562 -0.050502807 -0.15323249 -0.042043164 -0.14399706 -0.3414293 0.042498834 -0.3037285 -0.23828532 -0.067847766 -0.057454437 0.131124 0.23412895 0.02265454 0.3954937 -0.18082702 -0.051176086 0.12280967 0.030834552 0.36437842 0.02573663 -0.3637911 -0.14749303 0.2604766 -0.099764645 0.3693102 0.20452935 0.08685801 0.13927843 -0.20663393 0.3668409 -0.15792882 0.28018722 0.14371276 -0.3598945 0.17222533 -0.14334154 0.1853843 0.44920903 -0.24096778 -0.11668334
buehlermet 0.12706076 -0.0928464 -0.11876569 0.15718041 -0.033058483 -0.025532998 0.01869616 -0.08450012 0.13563496 -0.0024731942 -0.100024246 0.035230175 -0.08994871 -0.080860086 -0.14532195 0.12999448 -0.16198021 0.03750831 0.25308406 -0.08080402 -0.23629645 -0.016354024 -0.22309294 -0.13296753 -0.18251911 -0.010106847 0.04042165 0.21463293 -0.067143604 -0.011351738 0.036693487 -0.21569921 0.04949247 -0.055386636 0.05018215 -0.13048324 -0.009843755 -0.19369085 0.11363566 -0.034490608 0.17626172 0.22789378 -0.05992319 0.10667898 -0.078528 0.05014601 0.07013808 0.22285604 0.03700417 0.2743234 -0.033004712 0.11290469 -0.17026676 -0.34241292 0.15151158 0.58630645 0.05064762 0.020510271 -0.34536058 -0.2594856 0.009586833 -0.21615137 0.13295624 -0.06893173 -0.19704619 0.11161935 -0.26503614 -0.2196317 -0.13468766 -0.07323213 0.08285175 0.10947685 0.076883115 0.255111 -0.13430238 0.029292032 0.14141726 -0.02250009 0.3604516 0.040547572 -0.2795465 -0.011010841 0.18482606 -0.022157572 0.3141514 0.07084769 -0.044294372 0.084372364 0.01079531 0.20917918 0.051537555 0.072847694 0.08004603 -0.092608154 0.21994112 -0.07656582 0.11241331 0.14629374 -0.1778411 0.01890014
c-quarks 0.038720947 0.06542409 -0.105323 0.089549005 -0.061362173 -0.0042192535 0.02649223 -0.14971633 0.14389122 -0.025521472 0.028101392 0.009733684 0.015723415 -0.022336923 -0.08844507 0.05351325 -0.23010492 0.124219805 0.2047703 -0.11302292 -0.19612712 0.023137093 -0.19807863 -0.13530055 -0.12847589 -0.0725439 0.02091226 0.22703403 -0.07869206 0.0015854798 0.20631532 -0.17389402 -0.10016701 -0.10976432 0.11914159 -0.07669979 -0.045478497 -0.2907158 0.0697378 0.007877924 0.21425395 0.15242064 -0.1306257 0.1261759 -0.08198109 0.030491006 0.043266043 0.25512502 0.090148635 0.23476976 -0.18823448 0.12904772 -0.20753613 -0.27837905 0.13858211 0.7297386 0.05981974 0.049515843 -0.3087927 -0.21842887 -0.08201341 -0.054864123 0.11065747 -0.03245169 -0.2143297 0.09201652 -0.27451417 -0.22522327 -0.15932438 -0.14799438 0.038046625 0.009558126 0.096017465 0.29660517 -0.21151552 0.030961279 0.16662866 -0.008234128 0.42609715 -0.055568837 -0.25607136 -0.02463933 0.2257123 -0.017246868 0.22427517 0.021216653 0.009430489 0.073038526 -0.065871395 0.31446475 -0.119304314 0.10816855 0.028243542 -0.1514083 0.090362936 -0.106260166 0.034716386 0.21997498 -0.12301144 0.06383931
ppls 0.21053031 0.114825584 0.057554796 -0.07389557 -0.21524182 -0.015896533 -0.05260111 0.12505075 0.14524189 -0.27524066 0.32788897 -0.14194268 0.11870012 0.16759273 -0.16795096 0.25156337 -0.096852586 -0.014634699 0.31802118 0.02588107 -0.17195556 -0.12357948 -0.31285748 0.040285267 -0.17601815 -0.16017261 0.11001292 0.25771138 -0.07580591 -0.04262784 0.0043007806 0.08240728 -0.12939855 -0.077243716 0.11755523 -0.13741113 0.013377584 -0.009588838 0.09361817 0.1253224 0.1366113 0.124022454 -0.2027303 0.029906452 0.10591001 -0.23948571 -0.08046123 0.16887474 -0.12684418 0.16893436 0.025735576 0.13614298 -0.08964584 -0.1702225 0.1646094 0.6979312 0.27961078 0.10395014 -0.221932 -0.26870963 -0.043126166 -0.07589832 0.005451046 0.101225525 -0.1371127 0.21523511 -0.42507935 -0.2642303 0.0874881 -0.07888579 0.18554223 0.08556944 -0.015993096 0.18392347 -0.2266706 -0.1792105 0.068031654 0.07619339 0.1557525 -0.09657567 -0.37235966 -0.3409965 0.20302507 0.098058894 0.1064201 0.26932505 0.1150122 0.116817944 0.05206664 0.36492586 -0.032343626 0.23195139 -0.021002106 -0.28096664 0.20318711 -0.21105202 0.0639448 0.09118709 -0.02331394 -0.043808743
state/output/action 0.07754241 0.033748038 -0.19431315 0.30444664 -0.02116259 0.096160635 0.055970576 -0.10944793 0.09468189 0.090010375 -0.070925385 0.04687916 -0.02709411 -0.15008423 -0.08784854 0.19831151 -0.15951411 0.01721409 0.30040187 -0.10311891 -0.19756666 -0.05628878 -0.29213932 -0.18001556 -0.14183696 -0.10035509 0.07513633 0.31399217 -0.016096683 0.07155205 0.0075017754 -0.09701814 0.0028342456 -0.1450139 0.086597905 -0.084358744 -0.18484795 -0.29880863 0.06682925 0.10216922 0.29776168 0.2258683 -0.03154874 0.1975994 0.04799328 -0.017336886 -0.00056628697 0.2369059 -0.06613223 0.15565564 0.021769121 0.12529764 -0.10673747 -0.2957563 0.2774794 0.50269586 0.09296696 0.016544145 -0.20523177 -0.37464425 -0.06439167 -0.17743324 -0.021440044 -0.066245876 -0.14002438 0.06972997 -0.3712303 -0.25272122 -0.08443727 -0.11477555 0.019358438 0.16202575 0.17212957 0.35800725 -0.17744002 0.011989455 0.09980014 -0.05525297 0.39739263 -0.027331851 -0.37439078 -0.011947166 0.27026257 0.024886798 0.23630163 0.13311267 0.08951883 0.04646516 -0.061632268 0.18422873 -0.0977785 0.15706071 -0.00432764 -0.19751832 0.31430373 -0.14328599 0.14290595 0.23080939 -0.124412745 -0.028436802
×su 0.022512637 -0.086307615 -0.086353436 0.06299728 -0.034980424 -0.041118953 0.033163093 0.0036391243 0.20643108 -0.07038233 0.15313998 0.13238622 -0.080027565 -0.04254666 0.0010640249 0.025728729 -0.14886653 -0.0096839 0.090320155 0.027355965 -0.08576438 0.022278499 -0.16092128 0.15369308 -0.15426774 0.14622976 0.05445967 0.16253972 -0.004484958 -0.0060463045 -0.07437721 -0.019169345 0.10718698 0.0393304 -0.009051248 -0.054693 0.12532252 -0.061698683 0.041105054 -0.030567631 0.105083756 0.092355326 -0.0626705 0.116131276 -0.12336811 -0.03971561 -0.084357806 0.12013888 0.06103404 0.21581303 -0.05072222 -0.006381534 -0.04689391 -0.18264239 -0.076218225 0.42944646 -0.00061522797 0.19170964 -0.4693746 -0.20215018 0.08039513 -0.2317246 0.009679377 0.023557879 -0.2618452 0.077455536 -0.040550128 -0.06139119 -0.036272623 0.16861503 0.0878226 0.11283299 0.063592546 0.15940753 0.012424894 -0.002188244 0.027032733 0.007845681 0.1868063 -0.031610973 -0.2300589 -0.21530004 0.018796653 -0.11358002 0.32580897 0.103549466 -0.10138571 0.026043337 0.032409057 0.16267739 0.14725967 0.08288943 0.14037853 -0.037347242 0.18808664 -0.0045564324 0.11499908 0.05185754 -0.30513814 -0.11116237
photophysics 0.06090098 -0.00044684857 -0.16471846 0.092672944 -0.067628756 -0.03009506 -0.059166875 -0.1532473 0.13233674 -0.07017403 -0.11012907 -0.0061425865 0.052005783 0.023241244 -0.04791957 0.15704986 -0.23489985 0.19733807 0.23758034 -0.004586734 -0.27402455 -0.111955784 -0.23569901 -0.13756256 -0.17429827 0.025472144 0.13656701 0.25728875 -0.09143307 -0.06307086 0.09005524 -0.24109253 -0.10156465 -0.11154137 0.108559564 -0.09719318 -0.016910955 -0.19216496 0.022944443 -0.043465942 0.13761368 0.242343 -0.10192363 0.14222308 -0.10878139 -0.06684916 0.09158942 0.19418457 -0.021622567 0.26865312 0.041357882 0.08765732 -0.17034546 -0.24401526 0.28709894 0.6877561 0.20332491 -0.0033929572 -0.37817636 -0.18547693 -0.039197743 -0.116226986 0.14549445 -0.035644136 -0.06452486 0.08554722 -0.1496399 -0.27926648 0.017546639 -0.2630534 -0.018389441 0.027694859 0.16286018 0.26969296 -0.15543312 0.010629267 0.11982655 0.033771735 0.3148453 -0.016723357 -0.2703118 -0.04863163 0.11651572 0.052564528 0.14860612 0.12265529 -0.009405984 0.026906665 -0.11710381 0.14332667 -0.07213862 0.07822587 0.03306544 -0.16136384 0.25935608 -0.12960239 0.04137758 0.09738824 -0.167428 0.105499096
3.5ev 0.19527158 0.084027536 -0.090848655 0.34811005 -0.030129613 0.026412692 0.059941497 0.104329474 0.20016605 0.029462997 0.07843023 0.11347303 -0.05471645 -0.1620813 -0.20757963 0.25224245 -0.28007472 0.048055325 0.3968345 -0.037394084 -0.20155671 -0.06812524 -0.37645924 -0.106764585 -0.21402915 -0.074324995 0.037355922 0.35262167 -0.02269939 0.0088626975 0.022410356 -0.18470852 0.06687708 -0.1747195 0.13184546 -0.117916845 -0.03263348 -0.32149222 0.005808279 0.2148677 0.27357256 0.17734948 -0.027046986 0.2388344 0.0062007904 -0.051284228 -0.0118692275 0.27806133 -0.018944772 0.1512184 0.15849343 0.08022563 -0.16986308 -0.40288877 0.2809363 0.69488776 0.12150292 0.09062676 -0.23931353 -0.4027391 0.098565124 -0.14802536 -0.0476615 -0.16574949 -0.16794178 0.15175542 -0.46965593 -0.35933912 -0.022201866 -0.02601173 0.17530712 0.24682114 0.07982611 0.49625403 -0.10474571 0.014804182 0.085694596 -0.030596875 0.43944824 0.035481848 -0.5422574 -0.11196579 0.18631496 0.009714957 0.3778671 0.15741774 0.009611674 0.13979405 0.020161457 0.2575341 0.0035749655 0.25980762 0.049619857 -0.34560496 0.3407919 -0.15324399 0.17396386 0.28688762 -0.19607885 0.0011738297
u¯′ 0.03141155 -0.053948894 -0.13643071 0.12195644 -0.078522146 -0.04263266 0.09321934 -0.01493841 0.2512597 -0.12667973 0.08802337 0.066782266 -0.079924196 -0.013041161 -0.17464173 0.11988419 -0.19700159 0.07987566 0.22101066 -0.023735238 -0.19027777 -0.0057487004 -0.27727884 -0.038556732 -0.17759189 0.1559227 0.030935138 0.2600087 -0.04097894 0.07150604 0.012489739 -0.13005784 0.12737408 -0.075290866 0.14181857 -0.11611569 0.027472883 -0.1700197 0.10861024 0.074360184 0.2313755 0.1532327 -0.031206165 0.14326994 -0.093532115 -0.03536888 -0.11087824 0.22114456 0.07229933 0.2970344 -0.097294345 0.096982054 -0.15632848 -0.3142532 0.026262969 0.5606399 0.081827015 0.17533854 -0.4469479 -0.327137 0.052072395 -0.21248499 0.022411734 -0.16710989 -0.19524345 0.16297507 -0.2666974 -0.20338094 -0.18440032 0.05405425 0.121394485 0.20370466 0.10893756 0.29511756 -0.07342351 -0.014284692 0.16484588 -0.020125676 0.3590919 -0.0029165596 -0.32969487 -0.1754448 0.13373752 -0.11958063 0.40301305 0.103933096 -0.04501331 -0.04636886 0.03250633 0.31743252 0.030971462 0.13234523 0.13472936 -0.14727953 0.27960446 -0.061900936 0.19246188 0.14765966 -0.28478244 -0.07441716
piecewise-linear 0.081046574 -0.0842559 -0.28602934 0.26399872 0.004037313 0.049196113 0.07155082 -0.12695105 0.08626361 0.118320286 -0.16117686 0.027841076 -0.033758633 -0.19558647 -0.0573166 0.22026291 -0.18430339 -0.0047085583 0.2888146 -0.15290543 -0.23213133 -0.0057174275 -0.21901536 -0.17570156 -0.13360573 -0.119232304 0.027341496 0.27528432 -0.057398975 0.12284531 -0.035104167 -0.17921412 0.018836226 -0.14639574 0.04586651 -0.11316277 -0.1404268 -0.26367918 0.13104258 0.0829564 0.27045494 0.28060728 0.03591133 0.2780127 0.061270185 0.027265172 0.0707765 0.24014823 -0.043453157 0.20899685 0.024924597 0.09634474 -0.07728645 -0.37719852 0.3288287 0.52133167 0.08015174 0.06807285 -0.27322522 -0.30080166 -0.03131219 -0.24140355 0.046775468 -0.042431835 -0.123669714 -0.008577175 -0.33734286 -0.21105665 -0.14574474 -0.087053835 0.04448711 0.19313796 0.16486156 0.34847677 -0.16653997 0.074610494 0.011685466 -0.08437256 0.39847335 -0.041509554 -0.344399 0.035222206 0.28058326 -0.020253137 0.27761644 0.057254173 0.054945983 0.07356549 -0.100493595 0.10273045 -0.030132081 0.096678056 0.035949796 -0.11885012 0.30994478 -0.117337495 0.09507606 0.18136553 -0.25327894 -0.013279903
quasi-stationary 0.08986522 0.017451487 -0.23415652 0.3652351 0.07343081 0.13361843 0.020935655 -0.12277964 0.08261336 0.20558262 -0.25180012 0.00086369365 0.015074745 -0.17321461 -0.08587149 0.24419743 -0.20693398 0.05304619 0.39947814 -0.15051873 -0.23941234 -0.04226834 -0.27392498 -0.23396942 -0.20265165 -0.18129447 0.11013958 0.34164366 -0.11168807 0.08147876 0.0025399067 -0.2489321 -0.036330417 -0.21796489 0.09419033 -0.13973346 -0.16923612 -0.33725485 0.103304155 0.05536731 0.2995935 0.27680993 0.057813145 0.22023931 0.06441512 0.030047802 0.13745435 0.2709813 -0.11501063 0.22492284 0.0060514314 0.16194722 -0.14095342 -0.35417408 0.39753786 0.5341307 0.11179403 -0.019915462 -0.1461949 -0.30739856 -0.08051856 -0.18624002 0.070704795 -0.06353504 -0.048145726 0.07676105 -0.3699727 -0.28583795 -0.059317358 -0.20131424 -0.0015086979 0.14043272 0.23489535 0.41486895 -0.19261874 0.10386052 0.07641742 -0.071252525 0.43543732 -0.0013780743 -0.35027194 0.090433404 0.25562304 0.07388292 0.19027826 0.116402335 0.087640345 0.07311599 -0.06276876 0.08668115 -0.06803718 0.1110936 -0.058749482 -0.17177913 0.31051862 -0.1000629 0.08831123 0.19006667 -0.10148302 0.058948465
k∗ 0.027390543 -0.04367418 -0.0735485 0.060927287 -0.21154895 -0.10132032 0.08767927 -0.036944963 0.2968878 -0.1247278 0.20057653 0.012643345 -0.08310346 0.05640108 -0.10805291 0.13549945 -0.121344924 0.011221014 0.25999525 0.04453921 -0.16656375 0.0031379843 -0.36255974 0.024088204 -0.18641524 0.27427217 0.07317492 0.21181312 -0.07760809 0.11491096 0.0030908193 -0.056604005 0.1067139 -0.08228467 0.1709244 -0.10783063 0.11255604 -0.089421116 0.16035187 0.011090176 0.18984301 0.16410497 -0.113916025 0.09002818 -0.06830406 -0.13964647 -0.1554422 0.24789287 0.05194947 0.3552947 -0.14241928 0.12182117 -0.09399644 -0.3989992 -0.03186614 0.62448 0.09122905 0.20883267 -0.45451248 -0.32334578 0.10895456 -0.16827886 -0.108690664 -0.09985176 -0.17664249 0.10392733 -0.2520882 -0.35295886 -0.10992814 0.07059951 0.13442047 0.11273577 0.08772931 0.24892461 -0.025772803 -0.103116736 0.21522209 0.055870015 0.331752 -0.10885451 -0.38112673 -0.25987172 0.1711672 -0.1656774 0.39749542 0.21877071 -0.124462724 -0.032580175 0.21508686 0.31009215 0.003436491 0.17533103 0.17283934 -0.07767844 0.3592776 -0.07976263 0.14759727 0.023756042 -0.24775122 -0.1154257
ωtot≈1 0.2053935 0.149302 -0.07631616 0.181775 -0.12833397 -0.015165535 0.022924019 0.096990906 0.03172192 -0.24596336 0.75403744 -0.12392899 -0.050220206 -0.06029062 -0.055658855 0.14069892 -0.09800281 -0.25994682 -0.001191467 -0.037367605 0.07500753 -0.025801409 -0.1973955 0.0045411214 -0.25553805 -0.05066046 0.23607087 0.21451366 0.30050746 0.15042022 -0.20246564 0.12724511 -0.021913722 -0.23488352 0.086543426 -0.08767992 -0.10324206 0.030998185 0.10095179 0.39060086 0.06840582 0.0029283613 -0.10734518 0.12277158 0.19762361 -0.40644285 -0.39734587 0.21024148 -0.15379791 0.12016549 0.1816228 0.042546343 0.07538589 -0.33443043 -0.16275126 0.5127705 0.04284355 0.12280324 -0.28566295 -0.5278686 0.031534813 0.034293175 -0.31781065 0.13726424 -0.26191053 -0.06276102 -0.56519127 -0.22643535 0.2183585 0.16764598 0.14954668 0.23224936 0.06255087 0.26490116 -0.10503679 -0.25952956 0.16799256 0.17719206 0.085197225 -0.3808923 -0.5269988 -0.52254504 0.2617652 -0.20533435 0.12007859 0.4144607 0.056026913 -0.11297455 0.46588343 0.34123346 -0.09465112 0.29829255 0.20143145 -0.057025343 0.20831272 -0.06592112 0.37521213 0.18238969 -0.26950523 -0.4948351
s4g 0.10153754 -0.06739488 -0.15393715 0.05950501 -0.09544754 -0.13351814 0.10197349 -0.037130997 0.21266098 -0.10651171 0.090531655 0.003964536 -0.13193747 -0.029299267 -0.15080275 0.2624647 -0.21660456 0.055667378 0.27732176 -0.09359498 -0.28870726 -0.05943845 -0.31570345 -0.035781115 -0.12922893 0.056486264 0.0007483121 0.2926388 -0.046598352 0.08508305 0.01751056 -0.030449733 -0.00044338033 -0.07630828 0.15476866 -0.12100013 0.050767098 -0.19095676 0.151445 0.114520825 0.25392017 0.2189308 -0.05877278 0.21894468 -0.03596127 -0.044024754 -0.094402105 0.25617033 0.044195853 0.24797069 -0.0056572203 0.15200478 -0.14450622 -0.37815946 0.2868328 0.62611383 0.07174438 0.20176223 -0.31958959 -0.26694483 0.011695795 -0.29641896 0.049008213 -0.059113353 -0.17135224 0.122695684 -0.41051984 -0.23671788 -0.19247457 0.041420814 0.10893151 0.1496598 0.16942993 0.32681566 -0.16670114 -0.03623274 0.077481754 -0.034901395 0.46755907 -0.046837993 -0.36696315 -0.12832221 0.26856142 -0.11908378 0.41106102 0.100141525 0.0190546 0.10149014 0.022093289 0.40084153 0.011365554 0.14774185 0.08760733 -0.15338218 0.31390762 -0.13772285 0.16459423 0.17672578 -0.25030294 -0.030356778
14at. 0.070424795 -0.03744463 -0.037829965 0.23040776 -0.056957707 0.13584742 -0.0023645721 -0.0663839 0.08031872 0.019767623 0.080113776 -0.0052822903 -0.11543122 -0.108038455 0.07279338 0.10109389 -0.14975175 -0.084452905 0.13755804 -0.13958308 -0.16382387 0.019186951 -0.06896503 -0.03458029 -0.028012283 0.041741535 0.049155526 0.26700553 -0.019423291 0.0019106809 -0.12462959 -0.12976675 0.07215021 -0.1830449 -0.17263296 -0.13965318 -0.11925988 -0.1766029 0.10086423 0.08116841 0.24249971 0.07701589 -0.15014714 0.08679213 -0.17691284 -0.08150177 0.11339985 0.17237055 0.01206255 0.11542359 0.09946813 0.01090325 -0.010555118 -0.30480963 0.10484393 0.3633661 -0.062499758 -0.00783138 -0.4071708 -0.29389378 -0.08461349 -0.13395432 0.14124736 0.0012352243 -0.25072342 -0.15364125 -0.23056339 -0.2008093 -0.050423913 -0.017993748 -0.10292489 0.14420964 0.1150432 0.14785194 -0.11795706 -0.084860176 0.096910246 -0.03189312 0.27823383 -0.03048098 -0.3202482 -0.0361383 0.15870073 -0.006086085 0.36776328 0.22132367 0.09898816 0.0818836 -0.06379846 0.12453602 -0.009931482 0.113605686 0.11101875 -0.018948272 0.13838613 -0.06312634 0.20623556 0.18816549 -0.18259278 -0.08984745
beta-equilibrated 0.0271081 0.04973685 -0.24511681 0.2958983 0.03860976 0.15651962 0.012765758 -0.10214024 0.15671739 0.1266965 -0.2023868 0.071616955 0.06886752 -0.1802971 -0.09126374 0.19661461 -0.23644939 0.07542325 0.3827101 -0.15177545 -0.19404645 -0.00586976 -0.24425063 -0.19910458 -0.16031462 -0.13198023 0.029380936 0.33429107 -0.133858 0.10446851 0.056438457 -0.21828279 -0.02865269 -0.18610878 0.1366442 -0.10306574 -0.17402995 -0.33154744 0.09489327 0.0752842 0.30868042 0.2660194 0.034585692 0.24093129 0.028857552 0.043315776 0.12366973 0.32068658 -0.046438426 0.21297146 -0.049830638 0.10176527 -0.08973415 -0.3558305 0.31154263 0.6201929 0.1471997 0.05395382 -0.29295143 -0.3713038 -0.011502679 -0.13510895 0.05130917 -0.070241764 -0.120766774 0.03975066 -0.28483155 -0.22444303 -0.104052275 -0.19889301 0.056366764 0.12734151 0.21670839 0.40360242 -0.17890078 0.07583572 0.051817566 -0.08889118 0.4645408 0.0036174841 -0.3570756 0.03101715 0.21371455 0.053838957 0.2122334 0.07679975 0.1191821 0.05570547 -0.16189513 0.10245934 -0.09444016 0.10684684 -0.036371037 -0.23007627 0.32885808 -0.12247072 0.072321415 0.21259727 -0.19256262 0.060738295
ultra-fine 0.04374084 0.0023039654 -0.17194144 0.23024188 -0.0033264514 0.06239852 0.022525217 -0.12573636 0.18807043 0.116452634 -0.020908272 0.013948455 -0.023194447 -0.18480101 0.0016501043 0.18010792 -0.19853923 0.058702458 0.2739988 -0.09117808 -0.22335325 -0.011040829 -0.20232321 -0.13915798 -0.15195313 -0.056885652 0.110169604 0.3231705 -0.12229267 0.08419599 0.00021553412 -0.16793525 -0.0071248896 -0.12804152 0.077859044 -0.1747974 -0.03720001 -0.18141373 0.11951238 0.07622929 0.25832728 0.28044623 -0.054152794 0.17009704 -0.02532383 -0.03102278 0.04698666 0.2489424 -0.054990105 0.2368375 0.014410454 0.09982071 -0.06561826 -0.40938586 0.25436223 0.64084905 0.08842441 0.049238864 -0.34949917 -0.2768142 0.03755787 -0.22818618 0.13025104 -0.03217498 -0.20431422 -0.03956787 -0.22769229 -0.29213807 -0.108873025 -0.100864485 0.0011551529 0.052039698 0.192397 0.2727722 -0.071546376 0.041012082 0.048363753 -0.0323006 0.43664145 -0.09119124 -0.29065108 0.020008419 0.24229118 -0.0138495155 0.33135742 0.097730815 0.08461958 0.15320322 -0.06584665 0.11773192 -0.030228388 0.12667121 0.02063191 -0.20637424 0.30483657 -0.10437876 0.0656502 0.14340499 -0.172727 0.00075498223
π± -0.17910376 -0.10223858 -0.27799004 0.016273648 -0.23920849 -0.2446573 0.084399536 -0.2898686 0.4539866 -0.21617943 0.045001194 0.2026782 -0.0056152195 0.096722804 -0.013974685 0.10220038 -0.29676592 0.15965143 0.13235205 0.23593636 -0.14285007 0.1450303 -0.6383605 -0.06712293 -0.3448394 0.41873813 0.018522482 0.13889745 0.025223024 0.19353648 0.15641671 -0.19023766 0.00675926 -0.032274283 0.29856566 -0.22776245 0.17027086 -0.21393314 0.022623017 -0.0060688667 0.19156115 0.28369027 0.06439043 0.18436176 0.06343918 -0.24385363 -0.56300783 0.41214454 0.0020294124 0.48280448 -0.20554084 0.19703469 -0.21551725 -0.3057476 -0.004332453 0.9403722 0.2337237 0.54025865 -0.57522947 -0.30332848 0.14778255 -0.3195457 -0.094263226 -0.3263168 -0.2689339 0.338057 -0.07247339 -0.2759563 -0.28792793 0.110271126 0.16937077 0.26403916 0.09956075 0.2665353 -0.0079798475 -0.02610834 0.076897554 -0.009021644 0.44069728 -0.16532463 -0.29392484 -0.41614565 0.15917298 -0.4550113 0.33675426 0.10492809 -0.22463901 0.005226843 0.09647103 0.26589343 -0.000730956 0.16954964 0.21202134 -0.15163574 0.5672355 -0.13340284 0.07778762 -0.29711604 -0.5251063 -0.13534643
ethoxylated -0.029875413 0.083075546 -0.114192575 0.1903845 0.032026935 0.195384 -0.006649524 -0.073038906 0.25017643 0.08395305 -0.08443698 0.110369876 0.15662031 -0.21138246 0.020344207 0.093105644 -0.20963237 0.12744665 0.27549165 -0.1747824 -0.121110745 -0.009902048 -0.12924932 -0.07081707 -0.031400353 -0.14256904 -0.033512216 0.29666683 -0.16407019 0.012534 0.106701896 -0.13845961 -0.105042376 -0.07244944 0.10943769 -0.04304357 -0.14965609 -0.21406661 0.00026405603 0.045681298 0.19566196 0.23632325 -0.044461228 0.1598509 -0.027363472 0.019395916 0.15415588 0.29063326 0.018792134 0.08144828 -0.10915385 0.09234362 0.084715284 -0.20348361 0.11842506 0.5928473 0.16228916 0.044493433 -0.28836656 -0.2577334 0.0558358 -0.025213823 0.09090406 -0.00070986897 -0.15766612 -0.13785033 -0.06561738 -0.18901338 -0.037630334 -0.1871205 0.058486644 -0.05349417 0.20826313 0.22724012 -0.15733111 0.02447318 -0.0020415634 -0.023574658 0.32916343 -0.086064436 -0.25590953 0.025326889 0.07905106 0.14351664 0.11669549 -0.0063095316 0.16616133 0.15410447 -0.33417618 -0.003942549 -0.1580272 0.08829042 -0.1079306 -0.24605203 0.28148976 -0.16142648 -0.019949436 0.16560361 -0.18873528 0.053847454
d3-brane 0.1008291 0.01842273 -0.20794956 0.19228229 -0.012053816 0.0031845951 0.08103755 -0.072461784 0.1453213 0.021642972 -0.024788527 0.05137275 -0.07252537 -0.09482257 -0.11517102 0.23785782 -0.2221724 0.04100225 0.277903 -0.07447146 -0.24998143 -0.02014781 -0.25565094 -0.12213282 -0.17035574 -0.05832588 0.024817955 0.29533112 -0.040171005 0.08764027 0.051727526 -0.12612772 0.039074115 -0.14279997 0.100379124 -0.11723781 -0.05056244 -0.2637251 0.13024727 0.14906417 0.30709338 0.23064795 0.006724693 0.20351195 0.0074425936 0.018303342 -0.036718845 0.23877579 -0.0025342535 0.25790605 0.04245179 0.08299159 -0.16306952 -0.40161017 0.28785563 0.6060226 0.0665773 0.09887725 -0.33394003 -0.33935076 0.0234227 -0.22649372 0.07435739 -0.092352934 -0.21772629 0.13134758 -0.3671074 -0.22215712 -0.18298326 -0.039504543 0.09243417 0.20778897 0.1396648 0.3792349 -0.14841077 0.018410703 0.07898037 -0.06296517 0.46050417 0.0167747 -0.35462466 -0.05816036 0.2607751 -0.06341754 0.38792348 0.09766398 0.08379575 0.0684964 -0.052769847 0.2579797 0.0020888932 0.13920651 0.07193088 -0.24462053 0.28413805 -0.10782799 0.15597898 0.22967246 -0.23851277 -0.03063266
17–19,23 0.25296772 -0.06943162 -0.23262075 0.2275165 -0.07679393 -0.014335093 0.18779942 -0.076434836 0.33177364 -0.28062168 0.21548522 -0.077492006 -0.17657962 -0.05536879 0.004271103 0.2191931 -0.18875308 0.08443825 0.2013269 0.026456822 -0.26786828 -0.13409622 -0.11936693 -0.0021645501 -0.12835883 -0.0920231 0.09202555 0.26459813 0.09921496 -0.000412371 -0.018990591 -0.17439465 0.041875944 -0.14664839 -0.06216779 0.007340297 -0.044164218 -0.25116962 0.021031905 0.090108484 0.15524396 0.22427374 -0.03363762 0.108313076 -0.08308664 -0.16150586 0.025523989 0.025498003 -0.03892822 0.2590554 0.04606083 0.09084828 0.009929851 -0.34434998 0.15271823 0.632853 0.16031155 -0.028355598 -0.599112 -0.34179148 0.004162967 -0.2647963 -0.008922324 -0.055738643 -0.18211007 -0.02284566 -0.339725 -0.31754667 0.08063768 0.08412823 0.1706967 0.16542292 0.14707507 0.4245511 -0.18740997 0.011334351 0.1793142 0.21732603 0.24820158 -0.08938221 -0.44797602 -0.22034769 0.16037527 0.1482917 0.5268679 0.13571489 0.09018278 -0.010730825 -0.20516571 0.25398487 -0.0074097775 0.13777438 0.1587926 -0.13091148 0.24935716 -0.007762581 -0.014591016 0.26816636 -0.4566362 -0.2273626
maps/earth 0.08666142 -0.00862401 -0.26143456 0.32011342 -0.044224456 0.120432496 0.06642722 -0.1223809 0.07771864 0.12102148 -0.03495276 -0.009076983 -0.025562331 -0.22357637 -0.04853961 0.19786865 -0.20555565 0.0037410557 0.313185 -0.14029834 -0.21836036 -0.042999826 -0.24016806 -0.21223536 -0.11530092 -0.11959017 0.11896828 0.3296693 -0.030605542 0.10957958 -0.023809213 -0.13622253 -0.033760644 -0.166373 0.058483627 -0.05894848 -0.1922148 -0.30585116 0.0925169 0.123549476 0.31292844 0.2676245 -0.020836521 0.28966203 0.026597567 -0.025717948 0.11020828 0.20811895 -0.11273418 0.18207316 0.008863068 0.116733685 -0.08971301 -0.34172842 0.32004863 0.5501861 0.10269499 0.022991039 -0.30744365 -0.360799 -0.06324217 -0.19799504 -0.026922263 -0.009535603 -0.12442845 -0.004192859 -0.37403154 -0.30312902 -0.05547969 -0.1453408 0.041904077 0.1438688 0.17896748 0.40169626 -0.17412907 0.055184975 0.0126305595 -0.05153113 0.43648273 -0.053734146 -0.40327936 0.025894593 0.29533768 0.029229421 0.26767993 0.1230006 0.10721182 0.01776106 -0.08720103 0.17671826 -0.13659972 0.15738639 0.0040023625 -0.14812437 0.32115117 -0.111404225 0.12503229 0.2847403 -0.18390208 -0.02164028
0.1gpa 0.19312264 0.04323127 0.014296681 0.4290196 -0.14827421 0.019109331 0.07674347 -0.008600201 0.34309423 0.085051864 0.26104593 -0.028600119 -0.14608288 -0.2763567 -0.052104577 0.12800395 -0.33035845 -0.062307857 0.3285452 0.06510602 -0.07831401 -0.017213315 -0.32134175 -0.07762486 -0.07449335 -0.025739687 0.04825602 0.26152414 0.049446233 -0.0606337 -0.03547268 -0.2717202 0.04839983 -0.13322875 -0.004720837 -0.16013917 -0.037349865 -0.2665003 -0.031747457 0.20919906 0.09282276 0.04487042 -0.038866848 0.11285539 -0.071763836 -0.16937363 -0.15163487 0.34382984 -0.013988791 0.024923548 -0.027866274 0.16788983 -0.06468677 -0.3406277 0.007605247 0.78510594 -0.025659245 0.14454746 -0.16646111 -0.2141292 0.076152146 -0.111093745 -0.11364639 -0.1629156 -0.13597526 -0.09516139 -0.40620583 -0.5231644 0.20203309 0.14672191 0.022068307 0.23629916 0.06538449 0.41091982 -0.06859401 0.16140214 0.09035735 0.023320768 0.41237584 -0.121455036 -0.6198211 -0.11419879 0.14298855 -0.016124789 0.4114278 0.11913338 -0.17196113 0.2711331 0.16099979 0.1909892 -0.0742228 0.27288175 0.14721832 -0.13794185 0.21901126 -0.16785699 0.063532114 0.045602992 -0.27766824 -0.10723304
non-fragile 0.048041 0.13865957 -0.26547638 0.26791245 0.0077896155 0.13163708 -0.04713558 -0.14196244 0.16424407 0.12455079 -0.08854052 -0.011024408 0.04785058 -0.16280219 0.004222287 0.22224915 -0.23876283 0.088205956 0.33640718 -0.00971229 -0.19806555 -0.038273428 -0.25863883 -0.23872933 -0.17110378 -0.13964552 0.13436788 0.31288967 -0.07463782 0.097659916 0.06382867 -0.20684016 -0.1261301 -0.22622436 0.16264385 -0.110221796 -0.16330391 -0.3140707 0.06903061 0.079887904 0.25540876 0.2683026 -0.0054217577 0.19983831 0.033653133 -0.050462093 0.029126618 0.27148825 -0.17126001 0.18890916 0.05919075 0.061445888 -0.116969265 -0.32181835 0.41690767 0.67836213 0.181143 0.019351222 -0.19181828 -0.29673553 -0.05990161 -0.13059692 0.015982434 -0.031171951 -0.07625078 0.033849172 -0.27532122 -0.26079667 0.03579481 -0.22661322 -0.029956967 0.078580484 0.25402972 0.41027033 -0.1622496 0.069978975 0.059187517 -0.05120875 0.44804442 -0.08701155 -0.35176256 -0.017100789 0.24069856 0.058965188 0.14577226 0.14940372 0.13264467 0.14376804 -0.10980035 0.10972876 -0.13714583 0.15921459 -0.007502407 -0.2966988 0.275271 -0.12902325 0.014309399 0.17019561 -0.13454308 0.07416918
alkylphenol 0.11041438 -0.078987055 -0.14411268 0.18647918 0.012644149 -0.028079318 -0.0012892894 -0.08630718 0.19487667 0.012166355 -0.032209765 0.03521928 -0.08413841 -0.09490336 -0.037926298 0.14238834 -0.19483158 0.08373995 0.25692517 -0.055259928 -0.29195762 -0.09430937 -0.19122164 -0.049004063 -0.18091336 -0.015403749 0.09440319 0.25176054 -0.06807409 0.001020465 0.020748448 -0.14470029 -0.006544344 -0.08509345 0.040408645 -0.11401587 0.05050238 -0.17051035 0.07168593 0.018699564 0.17429607 0.24558657 -0.040380042 0.1304007 -0.120689206 0.0019545164 0.07939487 0.18271834 -0.0025323117 0.24279931 0.036422454 0.10097367 -0.0903442 -0.3359922 0.17958486 0.6186965 0.081207484 -0.01900597 -0.41566503 -0.24728976 0.07304418 -0.22339852 0.15645957 -0.0053970963 -0.2278763 0.06026613 -0.20618638 -0.24787895 -0.06515395 -0.08229585 0.06572282 0.0477323 0.14099081 0.28617918 -0.086848624 -0.006878854 0.08359916 0.01053416 0.33740616 0.033791684 -0.3091231 -0.026409762 0.12803122 0.01692215 0.33885986 0.120320186 0.019508963 0.11238171 -0.044738263 0.15268688 0.038987793 0.08310447 0.029658392 -0.15928313 0.27678508 -0.0910008 0.101835504 0.1563567 -0.22481647 0.0084504
=vs -0.051287405 0.1908772 -0.12146964 0.12962115 -0.13012004 0.01754896 0.08401275 -0.0595569 0.107750684 -0.108085275 0.2890411 0.16498479 -0.0040721297 -0.036999144 -0.0031620618 0.13382998 -0.31581792 0.2070528 0.15104796 0.12060569 0.018603802 -0.0007107053 -0.31747043 0.047564797 -0.034478262 0.17237681 0.07629363 0.29563046 0.08794055 -0.07378125 0.07435705 -0.08828281 -0.09172439 0.004143782 0.16792458 -0.05708049 -0.072325654 -0.2592845 -0.039189566 0.14448759 0.39202848 0.046317413 -0.20376295 0.12642366 -0.14132817 -0.18445323 -0.22933629 0.1498416 0.0061793346 0.24325879 0.0053007426 0.042020425 -0.25669023 -0.06544922 0.09577293 0.6070102 0.24384297 0.21952148 -0.41913837 -0.34692332 -0.13216789 -0.117834784 -0.008260094 -0.13938625 -0.31659546 0.19132733 -0.10518676 -0.19984342 -0.03626661 -0.12819386 -0.028562248 0.08961341 0.16212189 0.2344548 -0.07679904 -0.048732787 0.10336173 0.029277239 0.39445707 -0.08614249 -0.18771553 -0.31597868 0.15143743 -0.1183438 0.2269389 0.08438417 0.100557216 0.067860454 -0.18245521 0.35551885 -0.15883803 0.29228982 0.06418494 -0.31845874 0.18135482 -0.11191563 0.21790278 0.2177437 -0.12841085 0.010131625
sub-domains 0.06815267 0.04323948 -0.24372035 0.19392134 0.015133224 0.060958657 -0.020036105 -0.14186087 0.105679564 -0.0040830225 -0.033936627 0.025841847 0.0799793 -0.039077923 -0.03872557 0.086064644 -0.27059197 0.1886526 0.20129305 -0.13287668 -0.23815729 -0.054790873 -0.1808594 -0.14397514 -0.23240869 -0.1683979 0.13390222 0.32064536 -0.037612602 -0.008603983 0.13173212 -0.2485649 -0.1000211 -0.2011056 0.13029027 -0.09843375 -0.046813153 -0.2809974 0.027753897 0.054040577 0.22037154 0.2106747 -0.06938332 0.20363665 -0.016259193 -0.026911326 0.08090532 0.2253276 -0.020146891 0.23609611 -0.048124272 0.11732392 -0.19029418 -0.29484034 0.32194498 0.75465536 0.11598876 -0.0020427667 -0.36196083 -0.23825267 -0.116993934 -0.06882763 0.12083176 -0.00097130984 -0.14046587 0.07505096 -0.29756293 -0.24698356 -0.080148906 -0.25410268 -0.0059368014 0.07740362 0.19454002 0.36855328 -0.2107954 0.08466066 0.05744374 0.008155748 0.41930982 -0.037352532 -0.29060242 -0.0007000528 0.191969 0.046265926 0.15043627 0.09868689 0.03328091 0.036802933 -0.12626685 0.18712121 -0.11197178 0.09049387 -0.01961536 -0.21094275 0.16110691 -0.113877 -0.0018560514 0.23384435 -0.17104653 0.02433362
angles,22to 0.09490104 -0.1681462 -0.18786854 0.23006402 -0.025227038 -0.003940423 0.037368838 -0.040014863 0.23606366 -0.06910862 0.021574972 0.041892357 -0.1381565 -0.055369545 -0.11617548 0.093150705 -0.14849705 0.05684213 0.2058402 -0.019476343 -0.23301953 0.0027862815 -0.24455956 -0.079276934 -0.23579964 0.045041516 0.019922167 0.20972522 0.026746985 0.06911044 0.010871902 -0.18089439 0.07154037 -0.06422658 0.060049295 -0.117091954 0.031333778 -0.25096145 0.052510176 -0.016739734 0.20845854 0.21429037 -0.07520276 0.11449653 -0.09122405 -0.003607735 -0.015729433 0.2284046 -0.011376521 0.29736334 -0.013985294 0.1399974 -0.13349113 -0.37039834 0.08817073 0.5524362 0.0018187799 0.08982629 -0.47100842 -0.2528945 0.010698602 -0.21551993 0.045014925 -0.11864772 -0.26369235 0.08268365 -0.27622223 -0.268915 -0.10839249 0.06601922 0.10591115 0.18070179 0.0978473 0.26922047 -0.052199177 0.0006493237 0.09264422 0.01371751 0.37198767 0.056619845 -0.35093436 -0.085237816 0.09915117 -0.079414286 0.43305218 0.09090823 -0.072621375 0.09663554 -0.035446577 0.18306026 0.014053951 0.044118974 0.12090902 -0.071653396 0.26229092 -0.030465588 0.100019634 0.1929118 -0.27752584 -0.06258632
–oep 0.042889744 -0.14977881 -0.029360592 -0.25392872 -0.21966277 -0.22337832 0.20330323 -0.0635306 -0.0757049 -0.08171368 -0.01630703 -0.3140416 -0.18612647 0.15355942 -0.25432292 0.2224819 0.2923808 -0.15565157 0.10407481 -0.06548848 -0.26059204 -0.21983257 -0.1405499 -0.028067231 0.078563645 0.10872128 0.08355925 -0.10027249 -0.1079734 -0.028030682 -0.22074546 0.29636186 0.12722185 -0.07239573 -0.12444857 0.012507692 0.1014815 0.23054075 0.27591875 -0.0031020418 0.087759435 0.13870797 -0.08828826 0.07076592 0.040679194 0.07214879 -0.054698728 -0.17465296 0.09273026 0.12762178 -0.021766838 0.04794398 -0.059169054 -0.2543227 -0.06624206 -0.2549562 0.015176423 -0.039790362 -0.08953768 -0.11584016 0.087348275 -0.31742537 0.034248766 0.0008889586 0.18414363 -0.033913497 -0.37401772 -0.018411815 -0.050987646 0.09082693 0.062374964 0.24270602 -0.1768735 -0.024265915 0.008386858 -0.23468068 0.18730733 -0.11933564 -0.10270077 -0.09329807 -0.1508696 -0.061078753 0.21713504 -0.03428584 0.22681662 0.093608186 -0.0359127 -0.34174722 0.41913247 0.17053457 0.10795893 -0.024418898 0.19829985 0.27829415 0.2528726 -0.0040895343 0.26748878 -0.16388188 -0.12479845 -0.08195921
collagen-mimetic 0.09903951 -0.045019682 -0.25567645 0.25635558 0.031234164 0.035959657 -0.015324466 -0.11358707 0.1094348 0.06583643 -0.16858889 -0.024172917 0.0041637123 -0.12084711 -0.123259924 0.2593113 -0.18984404 0.051930718 0.3449232 -0.13367325 -0.26228634 -0.040676296 -0.26276678 -0.22466037 -0.22536409 -0.13101615 0.08176716 0.321428 -0.08779185 0.142101 0.0039001089 -0.19042644 -0.053475857 -0.19421288 0.10743794 -0.13919681 -0.13488601 -0.29209015 0.10511268 0.07882418 0.23633978 0.28743386 -0.008392852 0.23245063 0.04586581 0.022579044 0.09220169 0.29074717 -0.07774806 0.24823189 0.09952401 0.10823523 -0.12094874 -0.44580138 0.38588253 0.61178 0.11939309 0.04053562 -0.24555317 -0.27650416 -0.0070166513 -0.16576856 0.09321124 -0.026813379 -0.10484859 0.028848965 -0.37159544 -0.2536446 -0.080113985 -0.15574402 0.032131754 0.14401042 0.17520007 0.37430686 -0.15657482 0.025382672 0.05559712 -0.054474544 0.44000116 0.007835448 -0.37443548 0.04581995 0.22737148 -0.024750788 0.22910343 0.14986 0.05311481 0.10095076 -0.04958184 0.1239622 -0.055207457 0.099939525 0.016948983 -0.17118992 0.32634157 -0.112725005 0.08667301 0.19103208 -0.17438765 0.05405187
body-centred-cubic 0.09291004 -0.0013093799 -0.23220408 0.27939942 0.018220965 0.08548099 0.032920353 -0.13883044 0.09345858 0.12949577 -0.19440576 0.015761465 0.013504416 -0.16102822 -0.11468304 0.2501861 -0.19794598 0.029967964 0.37365982 -0.17746344 -0.24620636 -0.036130697 -0.28736672 -0.21597567 -0.1668446 -0.1494972 0.057884797 0.33709008 -0.09669272 0.10559416 0.019437348 -0.17765751 -0.033665046 -0.18489008 0.11026099 -0.13250099 -0.17074743 -0.29601967 0.13468188 0.10056854 0.289765 0.27490795 0.021904096 0.23286124 0.076483436 0.02536786 0.077222236 0.29864287 -0.052859798 0.21218345 0.005372905 0.15286934 -0.11478996 -0.38442174 0.37899834 0.5937655 0.1105694 0.03758481 -0.19514242 -0.33075097 -0.038395464 -0.17661685 0.0712363 -0.038440563 -0.10160619 0.043685704 -0.3914599 -0.26407897 -0.13564056 -0.18608686 0.03192696 0.14425859 0.20087796 0.37849638 -0.20876768 0.05793722 0.058991715 -0.07777274 0.46479067 -0.0040891916 -0.36326322 0.058475655 0.29536283 0.016435664 0.207654 0.118245415 0.0818227 0.083810605 -0.06596928 0.14122522 -0.071531266 0.12148241 -0.02649071 -0.1916827 0.33079472 -0.15361121 0.09607248 0.19496886 -0.14208576 0.02770784
4–6 -0.09683918 -0.1950477 -0.23428304 0.4312352 -0.21210903 -7.255096e-05 0.0648614 -0.13367546 0.67573285 -0.53601605 0.1124905 0.083993204 -0.18570462 0.16313016 -0.26746783 0.47364846 -0.5412892 0.37996128 0.4893218 0.0649569 -0.6151784 -0.11320483 -0.54020655 -0.09398517 -0.37045032 0.4920373 0.16040047 0.74913377 -0.06599681 0.13955602 -0.10287087 -0.38540858 0.11988115 -0.14498542 0.22129083 -0.31178218 -0.0032546176 -0.71419346 -0.03787117 -0.054328747 0.6542497 0.27847698 -0.3293004 0.19677854 -0.46835127 -0.3872667 0.012510376 0.5537212 0.039498553 0.55051875 0.17582856 0.25159866 -0.33866164 -0.7193223 0.61455137 1.3044765 0.3077956 0.5046518 -1.3207529 -0.6185041 -0.22369327 -0.6366115 0.20594043 -0.53848326 -0.23999721 0.11019181 -0.43055782 -0.64385855 -0.18850699 0.1137778 0.014626782 0.28329396 0.51288277 0.581353 -0.057274945 -0.07080625 0.27117914 0.035454627 0.8948758 0.03264708 -0.82384783 -0.37435418 0.13159433 -0.093125075 1.0490152 0.27301255 -0.0052670334 0.021105833 -0.4371487 0.6173991 -0.07626827 0.17495272 0.30767533 -0.11465441 0.6152141 0.061129674 0.19637471 0.26287836 -0.68520236 0.04861249
fegsem 0.036609035 -0.18699586 -0.2605453 0.14030242 0.016964737 -0.12548324 0.06055463 -0.09713063 0.24487731 -0.07704346 -0.072988175 0.084538974 -0.141443 -0.10786158 -0.07119601 0.109621346 -0.2284853 0.11670178 0.19158992 -0.055183433 -0.28194642 -0.059267253 -0.19593233 -0.0690996 -0.21705252 0.066895604 0.048525266 0.2176845 -0.028939525 0.085314706 0.025067661 -0.16378048 0.04137154 -0.0653603 0.055955876 -0.11494875 0.092366666 -0.17197405 0.06350291 0.021790002 0.1742137 0.2500056 0.0013987944 0.21011722 -0.13655742 0.03674762 0.016682506 0.1863971 0.03448402 0.27286208 0.07141919 0.009961899 -0.11136305 -0.41175455 0.1783572 0.5719487 0.04619666 0.08485594 -0.5084302 -0.24705698 0.13719708 -0.3204139 0.16430506 -0.1146799 -0.23545647 0.059803486 -0.19561459 -0.12445576 -0.18576208 0.015728835 0.12414941 0.15937994 0.10905096 0.3038943 -0.015923016 -0.007938587 0.054140303 -0.051271282 0.3618402 0.09068875 -0.29374176 -0.06640448 0.12253505 -0.15060604 0.43446583 0.08290734 -0.021224463 0.04359164 -0.04893077 0.2027012 0.11664121 0.037165135 0.14090955 -0.11817771 0.32075763 -0.03382397 0.1362207 0.15612157 -0.3776378 -0.014189094
internal-flow 0.06575494 0.05183471 -0.12638772 0.24816129 -0.012178512 0.12857462 0.052311957 -0.17655092 0.15782362 0.25315344 -0.12173181 -0.06297343 -0.006794445 -0.3078751 0.025128013 0.23565343 -0.1663675 0.022945315 0.38032305 -0.17176257 -0.22343896 -0.055886663 -0.18496802 -0.19103342 0.0018000156 -0.1374033 0.12385933 0.3558781 -0.20499101 0.06343718 -0.040257026 -0.16007188 -0.08652929 -0.1585589 0.035689257 -0.14890954 -0.1357933 -0.1696145 0.18215093 0.075957544 0.2739724 0.3367082 -0.037760995 0.19732872 0.021075957 0.017614292 0.16688457 0.23816365 -0.11400317 0.14823116 -0.023928486 0.12596926 0.040855862 -0.39234498 0.3423855 0.5771516 0.14695936 -0.030538835 -0.17606184 -0.25048497 -0.013898626 -0.24676241 0.17678317 0.021400802 -0.10375653 -0.18519549 -0.2486259 -0.33666447 -0.08567082 -0.23169017 -0.047504984 -0.032255903 0.2299054 0.2553331 -0.13708386 0.095080875 -0.004660405 -0.03848736 0.4173242 -0.16198108 -0.26006702 0.15935962 0.33534676 0.115593985 0.24460244 0.07583741 0.18351544 0.20836157 -0.12449005 0.040514916 -0.09567268 0.17011976 -0.051562697 -0.20624125 0.33445352 -0.1779221 0.011589244 0.12720332 -0.09746888 0.046482556
qo2 0.0143549815 0.13680255 -0.16118534 0.15022224 -0.3137993 -0.071832895 0.15783861 -0.058885466 0.21061 0.010872215 0.21074606 0.0045102537 -0.1275261 -0.0827028 -0.0720661 0.1651029 -0.2351424 0.0392491 0.28167063 0.17882423 -0.15986447 -0.0033033667 -0.38963056 -0.13224337 -0.081029385 0.10980926 0.1304104 0.21229066 -0.05552105 0.11526339 0.16924413 -0.05363015 -0.010169908 -0.029125895 0.31244352 -0.08808111 -0.032276716 -0.15634611 0.13087103 0.08927008 0.38486928 0.16882199 -0.13259545 0.14394476 -0.07167788 -0.13439968 -0.16924775 0.21146525 -0.1054176 0.31092566 -0.1063215 0.029823922 -0.17315134 -0.33095855 0.06539235 0.6630908 0.12279001 0.10650325 -0.24742438 -0.41093683 0.015765153 -0.2919229 -0.14634499 -0.27129108 -0.17341605 0.23634711 -0.3462385 -0.33979028 -0.08854204 -0.017476227 0.104447074 0.134502 0.08428757 0.36934733 -0.0861581 -0.118962616 0.28927785 -0.06188977 0.38369507 -0.08694866 -0.39373776 -0.24088669 0.3709212 -0.18284974 0.42262912 0.17000383 0.08086644 -0.017626703 0.07121208 0.50800097 -0.13975517 0.29809743 0.1157905 -0.282366 0.2927968 -0.066031784 0.289451 0.18098728 -0.10723278 -0.046950363
newman–penrose 0.056871243 -0.025656216 -0.109948464 0.18479155 -0.050130762 0.035400726 -0.019783434 -0.08569873 0.19610424 0.044058267 -0.11923506 0.05450986 -0.06939742 -0.0990559 -0.12678401 0.1373852 -0.16231513 0.059811402 0.26503414 -0.04239792 -0.25153747 -0.043963484 -0.23568264 -0.13318938 -0.1381196 0.023330998 0.02482421 0.25379267 -0.082254656 0.050562132 0.07024871 -0.14670253 0.017458674 -0.09395197 0.102861 -0.08141456 -0.043133203 -0.24598463 0.09531949 -0.014450245 0.22281694 0.25195712 -0.0729804 0.109181345 -0.09417541 0.060121104 0.07470176 0.2980564 -0.009419931 0.19905594 -0.0069356607 0.07436698 -0.07051877 -0.35817277 0.19057032 0.565171 0.049390227 -0.0044175535 -0.30896363 -0.27307758 -0.0040192604 -0.17436129 0.10179962 -0.09809295 -0.17856723 0.049536645 -0.24728057 -0.25020593 -0.13694547 -0.11775318 0.040026985 0.07888681 0.15473312 0.2662513 -0.11417202 -0.013194592 0.09409345 -0.06567256 0.38834307 0.045362085 -0.34112504 0.027378198 0.15692303 0.0013399385 0.31691432 0.10424272 0.029888187 0.10765153 -0.07644969 0.18474308 -0.03466971 0.086766005 0.07167093 -0.18045792 0.2748751 -0.12604746 0.120068274 0.15896954 -0.1819904 0.034909092
non-bimodal 0.07781037 0.03839477 -0.25686818 0.27768338 0.024108332 0.09834266 -0.052548867 -0.13194354 0.14334458 0.13746412 -0.1479455 -0.025418527 0.028559782 -0.15834203 -0.026831025 0.22499177 -0.21112062 0.072486036 0.3497105 -0.06108334 -0.23749608 -0.05049157 -0.24260743 -0.24446249 -0.20108728 -0.11972854 0.1406032 0.3066602 -0.0923962 0.10460302 0.023904135 -0.22729461 -0.07794183 -0.20957687 0.12645626 -0.13727483 -0.13652432 -0.2730556 0.1023659 0.066606075 0.220409 0.28843606 0.028377287 0.19641995 0.046179272 0.0005658306 0.066517256 0.27398187 -0.15117188 0.23592615 0.048325606 0.11086282 -0.11135065 -0.36275667 0.3930034 0.6404804 0.16408278 -0.004490003 -0.20518848 -0.27845946 -0.044136263 -0.15443864 0.062563494 -0.014075302 -0.07248436 0.034733705 -0.28831574 -0.28854537 -0.00786376 -0.2218198 -0.011109501 0.10004264 0.24148098 0.38354057 -0.15650576 0.094622955 0.05136427 -0.03483068 0.4259989 -0.049770482 -0.3425413 0.04366662 0.24375147 0.04145954 0.15849474 0.15865315 0.077414066 0.1140959 -0.048448212 0.091959685 -0.101861745 0.12536836 -0.010240093 -0.2199944 0.3136841 -0.13443178 0.042629503 0.14891368 -0.14865214 0.0616718
non-starchy 0.077414505 0.14718622 -0.2616885 0.28761217 0.021367159 0.13629353 -0.05191159 -0.11802196 0.13163385 0.13961357 -0.11654613 -0.050493203 0.07136546 -0.1643022 -0.05237028 0.25713837 -0.22764038 0.082136735 0.3897467 -0.03476453 -0.1802749 -0.03237301 -0.25861633 -0.2720285 -0.20185404 -0.19808564 0.14276776 0.3220515 -0.09106886 0.10486096 0.060023993 -0.23185647 -0.13836059 -0.23498666 0.15598722 -0.11949682 -0.20429704 -0.33605525 0.07171603 0.08038402 0.27159226 0.27157393 -0.0017142519 0.1986953 0.070168234 -0.009178918 0.06924524 0.26664445 -0.1793831 0.22327971 0.045382902 0.08443951 -0.1629158 -0.35159695 0.43451136 0.6868423 0.2226766 0.008150231 -0.15102232 -0.3169492 -0.09803109 -0.11502406 0.029602975 -0.02582749 -0.06288847 0.08122358 -0.32653388 -0.2616787 0.045268342 -0.25346062 -0.006087616 0.09473488 0.22617176 0.43678015 -0.19530411 0.091989614 0.079281144 -0.043414205 0.45875248 -0.073248245 -0.34504163 0.007748343 0.26495308 0.08066274 0.114326596 0.15490973 0.13684028 0.1406778 -0.087237746 0.14006245 -0.14167221 0.17343101 -0.02801089 -0.29427207 0.26140416 -0.116190016 0.022777721 0.19706376 -0.09073515 0.10230629
i+ -0.27377543 -0.080409534 -0.07091072 -0.38028067 -0.33076602 -0.1816389 0.19186251 0.13482708 0.10232784 -0.143953 0.04451754 0.21988931 0.018620849 0.14009717 0.021989187 -0.25650892 0.21970159 0.11589565 -0.11206803 0.26304567 0.51399577 0.12284628 -0.27079153 0.19209242 0.089134976 0.30905828 -0.025373515 -0.2764715 -0.024937019 -0.07843354 0.051522154 0.004391566 0.05831208 0.46850303 0.2571376 0.059106335 0.21250105 0.29732862 0.09438673 -0.2806077 -0.08354092 0.0077395737 -0.1909934 -0.06468187 0.10207278 0.08416051 -0.35916248 0.016823754 -0.021113927 0.3121702 -0.51521564 0.07675073 -0.10008049 0.2689838 -0.5825258 -0.24241179 0.19422737 0.29448837 0.10824758 0.067442015 0.025595482 -0.05126621 -0.32163185 -0.058570787 0.03034395 0.31771746 0.3994559 0.1794569 -0.058866367 0.01772884 0.082652755 0.049876437 -0.21686691 -0.33783704 0.1432206 -0.008345314 0.027305543 0.024049427 -0.13564557 -0.17950371 0.36022294 -0.36144862 -0.1203607 -0.2955411 -0.19855571 -0.118475355 -0.19900087 -0.045100175 0.26620185 0.1072256 -0.104039 0.06352668 -0.020654872 0.13429324 0.106427595 -0.07004887 -0.01740525 -0.41512012 0.084638655 -0.00042788684
〈q̄q〉 0.05090832 -0.03760381 -0.12456298 0.19320825 -0.10378389 0.014946873 0.0799519 -0.04805955 0.18482366 -0.10466854 0.05543066 0.103883624 -0.09270392 -0.004972458 -0.13231045 0.13683993 -0.22792315 0.069918655 0.20905083 0.0060527287 -0.17549798 0.057212345 -0.28971568 -0.040109567 -0.18146986 0.16831194 -0.009934273 0.25157177 0.025840268 0.037582345 0.024147976 -0.19679937 0.13512784 -0.11936913 0.101206794 -0.12604079 -0.00909987 -0.24971303 0.0859306 0.047253884 0.27791515 0.1532309 -0.05109638 0.13130881 -0.093965724 -0.104702815 -0.059919655 0.2313506 0.062294126 0.29793277 -0.031559333 0.06876409 -0.17949146 -0.29958728 0.0764551 0.55440485 0.06631612 0.14529319 -0.47088224 -0.35750192 -0.0034710206 -0.17012587 -0.022863336 -0.18669763 -0.2163611 0.17347315 -0.27207416 -0.27286613 -0.18173458 0.022059161 0.10919675 0.21647069 0.11665024 0.3217759 -0.101690896 -0.028120413 0.1528176 -0.014027877 0.3834274 0.009690283 -0.36256966 -0.17429937 0.14767435 -0.10873074 0.40410948 0.10903844 -0.06287032 -0.017046101 -0.042017195 0.28388083 0.006464593 0.1230572 0.16121484 -0.14290132 0.25713825 -0.06237039 0.18839204 0.18199387 -0.27679414 -0.08327953
curvature-dependent 0.07516706 0.040020727 -0.19877683 0.30566457 -0.0025116894 0.10404893 0.006813206 -0.13373709 0.11350742 0.13534978 -0.14224252 0.05182834 0.0035097077 -0.16403714 -0.06604103 0.21353418 -0.22159746 0.04644779 0.3443193 -0.11992182 -0.24238524 -0.03559928 -0.27683386 -0.19652006 -0.1681374 -0.11308912 0.081553 0.31736976 -0.07954363 0.048937056 0.020550627 -0.19381815 -0.023123719 -0.19319467 0.088948146 -0.13812566 -0.13295919 -0.30640674 0.07624978 0.07066421 0.28184777 0.25378022 0.008352883 0.21020988 0.01635129 -0.008847252 0.075426556 0.25896958 -0.06751851 0.18667337 0.034602724 0.1140644 -0.14408977 -0.32555714 0.33735052 0.5984167 0.123547465 0.019759972 -0.21965596 -0.3365395 -0.029797979 -0.17862672 0.059875447 -0.06286608 -0.11469643 0.07271792 -0.3296756 -0.26698685 -0.08333737 -0.17937472 0.018780537 0.12762806 0.18858165 0.38837907 -0.17513755 0.046589345 0.07568462 -0.08020005 0.4203938 -0.023905829 -0.35796782 0.023802932 0.24873783 0.035228606 0.21315333 0.12161456 0.0805568 0.088229544 -0.07440136 0.13017811 -0.060158376 0.148243 -0.015460759 -0.2042835 0.30809548 -0.13150193 0.10047979 0.16669853 -0.14685802 0.041457392
≈2 0.026787795 0.30594274 0.104129925 0.0009010583 -0.2393138 -0.053999543 0.22628745 -0.08340794 0.12708203 -0.18282366 0.4458009 -0.038966753 -0.19056942 0.18131545 0.07611871 0.14018537 -0.16127767 0.12555921 -0.019109443 0.41609916 -0.0015256256 0.04475408 -0.28234577 0.21681392 -0.07346062 0.23297706 0.18385412 0.15979953 0.066115975 -0.07705125 0.059600558 0.123732254 -0.047996573 -0.17838278 0.10959099 0.009213775 0.1935197 -0.18609206 0.078686565 0.2367473 0.32389462 -0.10753797 -0.11886009 -0.03183803 -0.015059061 -0.33288845 -0.43793648 0.0026543587 -0.10380021 0.25232214 -0.093832776 -0.032207213 -0.18280038 -0.11197588 -0.09745733 0.29674423 0.09815709 0.14044453 -0.21585089 -0.19553928 -0.20058767 -0.29288957 -0.13835862 -0.24507183 -0.19178066 0.22404113 -0.2944376 -0.24200141 0.004942611 0.18134862 -0.10767432 0.21404216 0.09409401 0.2578382 0.012361884 -0.1660881 0.22240034 0.078770846 0.101532996 -0.27054825 -0.26773086 -0.38079914 0.21411757 -0.13594571 0.33528444 0.18136665 0.056410223 -0.1876368 0.15979455 0.44418234 -0.067161515 0.24279141 0.22075008 -0.15493888 0.05613725 0.03214647 0.1803618 -0.102725014 -0.17843658 -0.20557931
inf–sup 0.09092016 -0.022406489 0.0018009394 0.18006837 -0.057550117 0.017409649 -0.017499864 -0.00732965 0.15401563 0.030166049 -0.09775899 0.020905107 -0.011584498 -0.07537053 -0.20539992 0.15326765 -0.10254151 0.017256968 0.30846205 -0.12667665 -0.22527318 -0.101948775 -0.2873434 -0.112033285 -0.13977042 -0.024444463 0.032076105 0.23260593 -0.0926606 -0.02769263 0.010385975 -0.09035422 0.021053063 -0.05774992 0.033120807 -0.07907378 -0.07997376 -0.21386422 0.050170977 -0.07409846 0.18326756 0.24214254 -0.055466443 0.097336255 -0.04003983 0.052278083 0.10810352 0.25589508 0.017655497 0.17056924 -0.08594748 0.17889497 -0.082155265 -0.22256884 0.15573949 0.5034055 0.106160775 -0.021651708 -0.2232269 -0.3029467 -0.07349888 -0.18506265 0.0892124 -0.057955705 -0.115041584 0.13873155 -0.3134783 -0.2329725 -0.07834868 -0.11173564 0.11200416 0.06253279 0.11944371 0.24357359 -0.1968666 -0.0088108955 0.123059146 -0.028108753 0.28587103 -0.012472421 -0.30989972 -0.015073102 0.17185108 0.09490359 0.23175685 0.083120584 0.026390193 0.077856205 -0.0030043423 0.24864216 0.004772637 0.14166754 -0.01011163 -0.09868133 0.28051996 -0.1398769 0.17583844 0.16041574 -0.11398071 0.039048962
zero-modes 0.05611564 0.03166824 -0.3174643 0.20487152 0.03668047 0.0959381 0.012267211 -0.12018016 0.11780127 0.06532472 -0.13642995 0.039597806 0.04343377 -0.06632198 -0.046929054 0.14393923 -0.273773 0.14887416 0.26676875 -0.115479216 -0.21114233 0.009536886 -0.21715507 -0.15780926 -0.18919091 -0.16369231 0.06857767 0.2902776 -0.07777201 0.023400448 0.114199415 -0.3383872 -0.068820395 -0.19242021 0.18353918 -0.1302009 -0.07360083 -0.26926556 0.08841401 0.049727444 0.311108 0.21886042 -0.04413679 0.20238042 -0.009578109 0.0036073746 0.0572982 0.2512307 -0.044912107 0.25917408 -0.045323286 0.10533619 -0.17101032 -0.32512844 0.33841756 0.69944024 0.12907338 0.06829043 -0.336027 -0.2648897 -0.09626384 -0.13207862 0.11844889 -0.09137286 -0.14445402 0.064080894 -0.27888647 -0.22166762 -0.11757976 -0.24143222 0.007508911 0.14397489 0.20423833 0.3379926 -0.2043702 0.08104925 0.05219482 -0.05126936 0.44060752 0.0074228086 -0.27230325 -0.018583115 0.20805037 0.012322027 0.18317229 0.08126661 0.06903755 0.08747071 -0.17517659 0.11777932 -0.09066422 0.08482869 -0.0054475963 -0.23534717 0.1884764 -0.073433325 0.006267041 0.19385804 -0.17915735 0.032066226
vacademia 0.085486114 -0.15823969 -0.17717959 0.18057227 -0.05766502 -0.027389467 0.042016126 -0.035252668 0.2156353 -0.09816678 -0.022279706 0.09076928 -0.10152646 -0.028457396 -0.122651555 0.08173314 -0.15884279 0.113105685 0.21132189 0.020794194 -0.21992403 -0.043323554 -0.26398876 -0.07255415 -0.2085124 0.112190224 0.047169678 0.20049699 -0.0011088252 0.03767221 0.026705515 -0.1849701 0.07017588 -0.031510845 0.08497362 -0.06950223 0.06875344 -0.2357725 0.06512845 -0.034393013 0.16950661 0.22895549 -0.049852032 0.12832183 -0.10015239 0.0007705353 0.009537574 0.21496502 -0.023313435 0.33850944 -0.026998095 0.117129646 -0.1419014 -0.31206656 0.095666684 0.5370411 0.070809655 0.060129113 -0.48293337 -0.230206 0.041611835 -0.20407557 0.043306537 -0.106660865 -0.21851951 0.124544784 -0.20456934 -0.27784 -0.10551673 -0.023234108 0.12828404 0.1509309 0.09819203 0.2752167 -0.026206955 0.020814842 0.0714963 0.034403816 0.32568136 0.07226066 -0.31386244 -0.093716815 0.07267526 -0.06958749 0.38506606 0.07277186 -0.073329285 0.024316315 -0.028111957 0.17556727 0.0103607625 0.061003096 0.11072782 -0.0864955 0.298801 -0.06192123 0.09279608 0.15532161 -0.2878033 -0.014431428
ωm≈1/3 0.09473227 0.19794726 -0.015776396 0.17957024 -0.18975362 -0.009249841 0.03341453 0.06254893 0.18453321 -0.14668168 0.5528037 0.011412159 -0.04561305 -0.057712287 0.027329205 0.20006388 -0.24018854 -0.054700173 0.14303486 0.11372051 -0.028847143 0.047491696 -0.4618122 0.01905866 -0.15193869 0.17673916 0.100125864 0.2460085 0.1384831 0.050351035 -0.085986316 -0.026386485 -0.07334959 -0.21839485 0.1227894 -0.14433788 -0.023976829 -0.1720944 -0.039833043 0.28977406 0.15731168 0.06548552 -0.12174928 0.20920855 0.03526447 -0.40236634 -0.35969153 0.17918682 -0.12455035 0.110291675 0.24075466 0.08002438 -0.11971699 -0.19353601 0.054747045 0.60374534 0.12567006 0.32779115 -0.21069328 -0.29847372 0.06775814 -0.029877573 -0.2475198 -0.092488304 -0.20643395 0.065901384 -0.3366623 -0.36646968 0.13954322 0.117146954 0.066405445 0.21100777 0.0364696 0.29952043 -0.060309447 -0.21295322 0.05697942 0.08777076 0.24807994 -0.30998302 -0.44940215 -0.44816115 0.10682853 -0.20851672 0.22580875 0.33097985 -0.0053375866 0.16396338 0.17493264 0.23332727 -0.10929309 0.39925125 0.12885824 -0.25046653 0.3079152 -0.14812681 0.23689622 0.095518135 -0.20161788 -0.1867708
scimago 0.061550707 -0.21261087 -0.22642541 0.12502448 0.019683842 -0.07561977 0.05226765 -0.04018527 0.20854032 -0.053340163 -0.03965784 0.07313996 -0.14514221 -0.10284479 -0.05573511 0.07773941 -0.1890474 0.10007459 0.16808194 -0.017300915 -0.22519608 -0.00027757743 -0.15144014 -0.051501095 -0.197751 0.086637236 0.0029448047 0.17222048 -0.021542795 0.05346779 0.0287203 -0.20263031 0.053137153 -0.002431251 0.03767874 -0.081817076 0.09503572 -0.18803991 0.08429695 -0.012636844 0.17902969 0.22049126 -0.04831092 0.14293659 -0.14883457 0.06246279 0.032637566 0.16902933 0.025253814 0.305776 0.027523879 0.032641612 -0.15280089 -0.38272956 0.11487306 0.51329225 0.0099305995 0.0987059 -0.5067757 -0.1761572 0.07412512 -0.25585967 0.1265464 -0.10109007 -0.27395725 0.04020212 -0.13842332 -0.15786655 -0.15159665 0.045917567 0.108919054 0.14955227 0.08734334 0.22272412 0.0063359663 0.02010459 0.049317352 -0.02474355 0.3585558 0.094855316 -0.24606809 -0.063163504 0.075988546 -0.12265875 0.42455977 0.024884518 -0.059211828 0.092124686 -0.059403993 0.15051325 0.088406175 0.0017418191 0.15884554 -0.074975215 0.23643656 -0.011345312 0.09275603 0.17153573 -0.32669944 0.014398688
354nm–826nm 0.28382906 0.16913149 -0.034385756 0.31975484 -0.015922302 0.02416357 -0.05752888 0.08977982 0.09774444 0.100163385 0.13705322 0.09377769 -0.18488424 -0.18410546 -0.30794823 0.20481402 -0.11359369 -0.1779074 0.3053288 -0.2134402 -0.33035514 -0.12786134 -0.46378857 -0.22798097 -0.1479382 -0.25537488 -0.05041307 0.23311287 0.16275448 0.007950883 0.13062856 0.049872294 -0.0769722 -0.23869143 0.20426121 -0.11164063 -0.21203837 -0.24937573 -0.040738147 0.24038962 0.29193366 0.15549399 -0.22710428 0.19267726 0.036729716 0.028444553 -0.15198135 0.38319105 -0.008204373 -0.18763836 0.43665966 0.04482422 -0.020276375 -0.455594 0.3605442 0.646724 -0.13679622 -0.059465572 0.050671756 -0.5384284 0.0816261 -0.072337076 -0.0064926893 -0.18046567 -0.3385386 -0.033051576 -0.79163724 -0.26939896 -0.10408169 -0.064974144 0.16276345 0.25548112 0.008842289 0.37092793 -0.2681553 -0.32902238 0.14653945 -0.1303823 0.3891092 0.12752043 -0.65428233 -0.05501456 0.3617277 -0.050912105 0.26812455 0.37944445 0.12984976 0.38217443 0.074478224 0.3153214 -0.080620304 0.2691441 0.036258884 -0.42872155 0.30522075 -0.26383984 0.38892502 0.5243952 -0.015553147 -0.11759526
w∞=-2∫0∞u¯dη -0.04475818 0.049719565 -0.081611976 0.15600526 -0.0757782 0.024904054 0.035707332 -0.088124 0.2327449 -0.14533281 0.08006687 0.14346671 0.017423376 -0.008012779 -0.1067537 0.21461397 -0.25926134 0.12009938 0.20303518 0.0122830495 -0.2227919 -0.035188623 -0.32413143 -0.04411216 -0.19741757 0.15629673 0.0153026115 0.27996978 0.017891075 0.049182504 0.044206686 0.014384896 0.01832957 -0.11234261 0.11164406 -0.10673657 -0.047824644 -0.23660447 -0.018865306 0.13497695 0.22979707 0.14581957 0.015595399 0.1235591 -0.05330202 -0.17840388 -0.12096099 0.23066342 0.03716538 0.19324547 0.102089666 0.04540401 -0.12624103 -0.20111495 0.15170723 0.49817774 0.11366673 0.15152802 -0.35277286 -0.35315084 0.100166485 -0.15052187 0.034078747 -0.1799687 -0.12503098 0.14726458 -0.22668317 -0.19908491 -0.13961118 0.01219571 0.14311793 0.14134027 0.18810207 0.31369236 -0.04208382 -0.124002725 0.11605015 -0.06359242 0.32626957 0.017766898 -0.37943295 -0.2214633 0.122690395 -0.13665311 0.27165604 0.15619393 0.024811186 -0.08708868 -0.08505633 0.2829242 -0.005983986 0.1396828 0.10131629 -0.21446216 0.37344986 -0.092075974 0.24771394 0.117912635 -0.2781745 -0.05681599
coapt 0.08953911 -0.057475988 -0.06644329 0.00082471967 -0.07298564 -0.025020307 0.056814764 -0.006059557 0.13134412 -0.08219686 0.01094641 0.08816922 -0.0857665 -0.031032056 -0.08057267 0.15800738 -0.082595624 0.031619467 0.21254918 -0.06145022 -0.16366403 -0.059385717 -0.16880102 -0.033339985 0.010575697 0.085692756 -0.037247974 0.15072545 -0.075226605 -0.0264018 0.003813818 -0.005319178 0.030981839 0.01942201 0.022554671 0.024088115 0.005122599 -0.14677432 0.10148452 0.034315623 0.119854964 0.14904673 -0.08220824 0.112542436 -0.10465395 0.05635511 0.011327692 0.13963225 0.066124134 0.17312488 -0.0013986053 0.056378856 -0.07898363 -0.18790796 0.066709414 0.28351092 0.08908068 0.042739544 -0.26427054 -0.19421408 0.102877885 -0.13071263 0.03229919 0.033504196 -0.15693021 0.013203863 -0.14798555 -0.15376809 -0.06096454 -0.030365987 0.09070809 0.064566046 0.06904447 0.16292024 -0.06408565 -0.049468823 0.081397474 -0.011209254 0.22434027 0.02748254 -0.23421593 -0.073538706 0.104221754 -0.004216362 0.23950022 0.026961774 0.050961968 0.008268192 -0.009079635 0.17251113 -0.019353468 0.076422475 0.06739597 -0.052199677 0.24583043 -0.108112544 0.11581816 0.10887298 -0.17655756 0.05501929
semidiscrete 0.08692132 -0.0015593395 -0.07870442 0.23819435 -0.077876225 0.10527571 0.05271002 -0.050492547 0.17867821 0.08036628 -0.10651433 0.052424543 -0.05250535 -0.08848364 -0.14043525 0.18933061 -0.14715467 0.042550854 0.3678435 -0.04111345 -0.2015792 -0.041827746 -0.35964954 -0.13717479 -0.11952529 0.03774008 0.0497294 0.26136386 -0.08001 0.0007299278 0.015126366 -0.16919789 0.008894499 -0.1219714 0.11158541 -0.07310453 -0.042413075 -0.288754 0.10094969 0.0029934049 0.27829456 0.23348302 -0.020802073 0.11771322 -0.0056771114 -0.012354566 0.02428397 0.27400708 -0.10256793 0.22065699 -0.0658077 0.17367098 -0.12895185 -0.27225578 0.2046966 0.46689183 0.12014447 0.059620373 -0.21157311 -0.28340006 -0.03648068 -0.1885818 -0.006101556 -0.13343546 -0.09948221 0.100018546 -0.31702846 -0.3561114 -0.07005441 -0.12604196 0.08326081 0.13986728 0.16112512 0.30118793 -0.12168068 0.020594215 0.064362325 -0.040420506 0.3531846 0.010020072 -0.35078874 -0.03111817 0.17917988 0.04652254 0.2522772 0.10060929 0.04357013 0.06021721 -0.005318336 0.14245485 -0.069122344 0.13859726 0.029250152 -0.12528776 0.3525216 -0.121306196 0.103693925 0.08871945 -0.1434676 0.027398353
di-block 0.06525427 -0.034081325 -0.24483734 0.23588209 -0.033543643 0.06372754 0.06921391 -0.11080246 0.15237926 0.04401132 -0.12320843 0.10367056 -0.08379751 -0.12899652 -0.074841335 0.20941141 -0.16217618 0.029848307 0.31138408 -0.07308322 -0.20130609 -0.04775969 -0.31863892 -0.22947964 -0.08828099 -0.0005981382 0.08956194 0.33866972 -0.057922617 0.08739814 -0.008093685 -0.13722374 0.026695194 -0.03118654 0.14753127 -0.05729792 -0.15450627 -0.3183027 0.108037695 0.06685153 0.2786262 0.27941987 -0.056098707 0.2509501 -0.0020377114 0.035308093 -0.04514408 0.31315207 -0.10377749 0.21617046 -0.02052958 0.16402215 -0.11138015 -0.3012157 0.2935703 0.5176155 0.1176804 0.10514561 -0.29585156 -0.35637498 -0.022144437 -0.26792893 -0.0484623 -0.03574721 -0.1694248 0.08446106 -0.27775723 -0.27039242 -0.0919106 -0.08590272 -0.01333648 0.16542326 0.20403999 0.33839545 -0.16118148 0.07806337 0.058791652 -0.040842824 0.47365934 -0.02198917 -0.3651679 0.002339054 0.24885297 0.004537355 0.3079264 0.079904534 0.107244074 0.057174314 -0.06861583 0.19658452 -0.14766368 0.11770012 -0.0067613274 -0.14415008 0.39604977 -0.15519756 0.11041166 0.19401222 -0.17321187 0.02133595
230b 0.12926185 -0.026360847 -0.14767234 0.28240913 -0.10998687 0.05611782 0.08777709 -0.059889667 0.17203648 -0.030924626 0.05307567 0.0677013 -0.11674543 -0.18172252 -0.17288928 0.15485969 -0.28166932 -0.003635019 0.31954393 -0.12387405 -0.16454653 0.042821698 -0.28015447 -0.1773692 -0.13577858 0.0087131895 0.012004167 0.2807074 0.040658366 0.059796516 0.033184856 -0.23173651 0.031045048 -0.12679675 0.043469477 -0.14439152 -0.13543022 -0.31548506 0.11997457 0.12770362 0.33023623 0.13534348 -0.08813243 0.16881797 -0.0701511 -0.01539433 0.05375573 0.30303478 0.008770701 0.26734793 0.013747322 0.06704552 -0.18057188 -0.44221893 0.22466391 0.72307706 0.063701384 0.12215949 -0.43782246 -0.44339877 -0.027895667 -0.19688419 0.08336498 -0.15907109 -0.28598922 0.045642797 -0.42800125 -0.28845 -0.2061337 -0.07494245 0.17659807 0.23326886 0.07003275 0.39524943 -0.1575098 0.026658192 0.097003594 -0.029573191 0.5113939 0.080734074 -0.43247974 -0.087675564 0.32131648 -0.12428133 0.4197782 0.17109019 0.016886838 0.10549239 -0.03878461 0.3670203 -0.033374093 0.2010088 0.14477539 -0.16596507 0.24522114 -0.0902897 0.19373633 0.3287375 -0.27452868 -0.054441936
2,28 0.37282643 0.19083229 -0.20465252 0.16671264 0.0100196935 0.04989792 0.19804108 -0.07800935 0.031831115 0.10626803 0.2576241 0.11755726 -0.11136685 -0.16454926 0.26197883 0.09555386 -0.47390014 -0.0046829507 0.1431847 0.18174885 0.08768359 0.07632602 -0.014024094 0.04215253 -0.11534504 -0.42508844 0.33942723 0.46530434 0.01070183 -0.22161075 0.12251572 -0.38046396 0.018123964 0.039802507 -0.006989766 0.025586665 0.046969052 -0.16170166 0.09504452 0.3087005 0.36495838 0.14421731 -0.08392726 0.13130987 0.01610177 -0.05632228 -0.10572628 0.081664324 -0.29283643 0.21462807 -0.18000698 -0.12617779 -0.13068882 -0.23656459 0.13785097 1.0455973 0.22549875 0.026584342 -0.5541389 -0.35313308 -0.104337215 -0.43931675 0.050233632 0.17971542 -0.6480303 0.30966407 -0.1958062 -0.2500139 0.013294801 -0.058161184 0.018819079 0.21287593 0.019028842 0.44747525 -0.3128482 0.36066404 -0.14248267 0.1111383 0.42040336 -0.03421413 -0.24877615 -0.07748176 0.39164212 0.14308773 0.4024818 0.062890776 0.3081244 0.1589838 -0.13040736 0.4045779 0.0061986744 0.3213036 0.025747478 -0.49403858 -0.0047743917 -0.055494756 -0.112173826 0.19996072 -0.22885211 -0.23207438
through-holes 0.066302806 0.03849349 -0.26439512 0.1662564 0.01248081 0.0705838 0.014360793 -0.090995364 0.11311071 -0.0057063214 -0.053438157 0.038112205 0.0329694 -0.0010430738 0.0022630133 0.115480535 -0.27817422 0.19001943 0.21858817 -0.07741873 -0.17255048 -0.010488155 -0.17298186 -0.108540565 -0.14144051 -0.10903155 0.059009444 0.28845918 -0.06336068 -0.028011747 0.12032445 -0.31842273 -0.048748307 -0.1684776 0.14414719 -0.07747909 -0.056449104 -0.2731041 0.05969185 0.051584393 0.25980848 0.1809518 -0.08975862 0.16095872 -0.068667665 -0.0119261 0.06088417 0.21384706 -0.011233486 0.25489137 -0.0637147 0.09303061 -0.16604179 -0.2653346 0.29111084 0.6917267 0.12819551 0.034414582 -0.3840502 -0.20765494 -0.11475398 -0.079675704 0.101765536 -0.038588177 -0.17194039 0.0611019 -0.22124378 -0.26521263 -0.07435757 -0.23342562 -0.028575227 0.11664847 0.19925746 0.32669285 -0.20477974 0.09242779 0.0551484 0.013607245 0.4271084 -0.0040383004 -0.25242427 -0.017080445 0.1507882 0.02900235 0.20931771 0.08485182 0.05445411 0.076502144 -0.17160079 0.16163886 -0.13412471 0.11180149 -0.0035166591 -0.22593822 0.14457715 -0.09394774 -0.016220652 0.20974034 -0.17166325 0.0358651
xco 0.14770153 -0.019829862 -0.024349347 0.10127416 -0.1484685 -0.038858112 0.04452935 0.057390697 0.21917501 -0.09180565 0.107068256 -0.09630524 -0.064603105 -0.04653527 -0.2646953 0.1960729 -0.08016169 0.013130486 0.38204873 -0.0058648065 -0.25099295 -0.15718745 -0.30028808 -0.07992763 -0.10620728 0.013668241 0.07621455 0.2187549 -0.10219025 0.011543676 -0.0028797425 0.007343486 -0.0199407 0.015377026 0.12537502 -0.06336293 -0.0357571 -0.13603564 0.11998607 -0.021697693 0.19566208 0.20204881 -0.12006402 0.08003637 -0.06748064 0.0058572106 0.018647615 0.18098369 -0.049908802 0.24927792 -0.0810894 0.16722107 -0.118628204 -0.26789302 0.091098085 0.549607 0.15207414 0.037874226 -0.2675441 -0.28630257 -0.025574028 -0.23302616 0.038280595 -0.081390314 -0.11999908 0.14036196 -0.36666822 -0.2751899 0.008436546 -0.02175295 0.16139495 0.07667505 0.068143025 0.25697815 -0.12417649 -0.059219927 0.19986552 0.021933012 0.24927051 -0.009908576 -0.3587986 -0.15346342 0.19553898 0.069789946 0.32796475 0.11366222 0.036317438 0.05228936 0.04127188 0.3472504 -0.009614846 0.17174548 0.053435244 -0.13412645 0.2763443 -0.115401834 0.18232277 0.2039356 -0.11378074 0.035719946
wasteforms 0.0536433 0.03630828 -0.15684485 0.031351 -0.04808204 0.04286292 -0.052383993 -0.08324819 0.0820402 -0.05163495 -0.042209476 0.07923666 0.09728238 0.022399835 -0.0038464293 0.06441749 -0.23603123 0.20175791 0.1686931 -0.09769398 -0.16098903 -0.021904781 -0.1346807 -0.13152623 -0.058529183 -0.065400824 0.016200779 0.24124622 -0.10672891 -0.091493785 0.16696061 -0.2864551 -0.08761933 -0.07041863 0.090926334 0.00568901 -0.06456742 -0.27799353 0.004525408 -0.04242269 0.15075134 0.17269169 -0.16634932 0.1376099 -0.12809347 0.0347109 0.10142666 0.1928368 0.04964924 0.18032482 -0.09360893 0.083164096 -0.18555132 -0.12142125 0.22866127 0.60945874 0.16291586 -0.009400174 -0.29243448 -0.112182796 -0.14402927 0.03566131 0.11534667 0.026093714 -0.1328631 0.03976037 -0.10601406 -0.23205635 -0.05503247 -0.29845962 -0.043960378 -0.0129225105 0.15482685 0.18741122 -0.20831597 0.08432815 0.068283305 0.012093663 0.3112792 -0.028058201 -0.17032522 -0.0084439255 0.10970669 0.09135643 0.06949195 -0.016023442 0.047119442 0.06006416 -0.19954187 0.15623085 -0.15265591 0.10561838 0.0018415302 -0.16862896 0.075377956 -0.1457738 -0.05371654 0.17281367 -0.08409545 0.1587253
pess 0.015447654 -0.15461153 -0.20678869 -0.026919782 -0.13923606 -0.098477855 0.06839624 0.044980958 0.21061242 -0.21539749 0.121669106 0.016223215 -0.11566703 0.071992554 -0.046948913 0.10370956 -0.073743045 0.026260152 0.14412603 0.022283789 -0.07325306 0.0032729367 -0.18679965 0.025171421 -0.10540722 0.13487619 0.030692644 0.15059114 -0.023649346 0.12527822 -0.04431777 -0.08579028 0.08413049 -0.012213919 0.09047648 -0.06852828 0.057537086 -0.024528742 0.124720514 0.020516263 0.15386799 0.12682754 -0.14931998 0.0968433 -0.077423334 -0.031105336 -0.11579979 0.14790821 -0.0267685 0.2659339 0.0049994867 -0.013216093 -0.023946054 -0.31657717 -0.020233281 0.3317586 0.10840364 0.15426001 -0.4000312 -0.22253574 0.06778531 -0.1912993 -0.012601286 -0.052070465 -0.19837336 0.03944989 -0.1583238 -0.1192888 -0.10171029 0.05223194 0.09627384 0.20021445 0.023296826 0.10372728 -0.010190576 -0.11255714 0.069308355 0.005045984 0.1907662 0.022976816 -0.23196177 -0.2240077 0.089803554 -0.19688983 0.31871173 0.1914715 0.014128195 -0.0071185753 0.055527046 0.23266104 0.0055280607 0.101480156 0.16936094 -0.054953173 0.2578051 -0.030243993 0.1293771 0.04790385 -0.24758981 -0.097097464
single-electron 0.05447381 -0.003495939 -0.24835661 0.30262762 0.055226255 0.10329645 0.058172546 -0.06527609 0.073159784 0.15362981 -0.1797531 0.047720246 -0.023434117 -0.16188265 -0.06688702 0.23328447 -0.21088888 0.036456674 0.34931472 -0.15470171 -0.20770405 -0.029519837 -0.22724037 -0.14156818 -0.13612144 -0.098100536 0.048730064 0.33644068 -0.11580629 0.11335227 -0.050436143 -0.16888705 0.038317993 -0.19330375 0.09911995 -0.13105781 -0.121603206 -0.27254802 0.17012331 0.12543115 0.3377863 0.2384327 0.047935836 0.24624756 0.032037877 0.03353654 0.10700471 0.2546652 -0.061211713 0.2231548 0.014017063 0.09097346 -0.08646856 -0.3623785 0.35034892 0.48369348 0.098242484 0.03486629 -0.25259233 -0.34011912 -0.04191128 -0.2347183 0.07061978 -0.04911828 -0.12484674 0.052856743 -0.33536682 -0.2145652 -0.15900218 -0.14477107 0.012363739 0.18521285 0.22519842 0.3874913 -0.14951521 0.059380494 0.026392229 -0.10036957 0.4356169 0.0015810654 -0.3331738 0.045687553 0.2515962 -0.004825514 0.28193957 0.11869658 0.11611326 0.04826915 -0.068845525 0.13318436 -0.03480793 0.13307068 -0.027111754 -0.19753692 0.31047833 -0.11337437 0.14008594 0.20326039 -0.1775891 0.014863567
i.v 0.1174985 -0.034504063 -0.039825723 0.11055194 -0.09055889 -0.07991457 0.053618196 0.036462806 0.12044157 -0.054238807 0.18697289 -0.10665739 0.00179407 -0.011933975 -0.033573445 0.1958915 -0.15403466 -0.061670564 0.19664726 -0.040946987 -0.21194735 -0.018093698 -0.22430685 -0.04712289 -0.2412387 0.0048325937 0.072332494 0.2720689 -0.08339282 0.028978162 -0.06613262 -0.12465868 0.10586653 -0.061194245 0.012427467 -0.18641457 0.03702451 -0.049059093 0.11355136 0.0023526847 0.18927713 0.23451483 -0.11877844 0.11402871 0.0019497648 -0.24249369 0.0057835095 0.13568072 -0.041307464 0.22038917 0.02733118 0.07092607 -0.12065202 -0.28849342 0.12376839 0.5723693 0.07395205 0.11235906 -0.36188146 -0.2640926 -0.013067041 -0.2212346 -0.07272522 -0.037072204 -0.16660225 0.1455473 -0.29300594 -0.30377203 -0.024569377 0.12937526 0.11415557 0.115705766 0.071031556 0.21005416 -0.13451973 -0.08400564 0.19515386 0.022419106 0.22968335 -0.21446168 -0.33055782 -0.26659453 0.22652513 0.030422423 0.38622314 0.066414475 0.024145769 0.08677159 0.06527303 0.25329837 0.13893487 0.1390728 0.1260782 -0.1382038 0.2276026 -0.07273786 0.1351985 0.1578745 -0.13928553 -0.087878965
minimet 0.09735558 -0.1460082 -0.19650827 0.19398305 -0.034331914 -0.06484751 0.051494736 -0.063142166 0.22194204 -0.044906996 -0.058788944 0.08247152 -0.12741652 -0.09023744 -0.14251496 0.138452 -0.20063362 0.07582997 0.2690584 -0.05362899 -0.23375615 -0.041879512 -0.29306078 -0.11536574 -0.19657359 0.05921603 0.05256039 0.25205767 -0.027912319 0.054816674 0.033774044 -0.21970421 0.041032642 -0.023748443 0.10494809 -0.10273019 0.008105323 -0.24809879 0.08109535 -0.01665987 0.2260729 0.2440029 -0.058518782 0.14986211 -0.10524409 0.040529687 -0.009314669 0.26674482 -0.0019085389 0.3084202 -0.025556289 0.13430774 -0.15641451 -0.37245026 0.16549903 0.63225186 0.086626604 0.09980969 -0.42852417 -0.2919206 0.018974738 -0.27329278 0.09348792 -0.120230235 -0.24809797 0.1225189 -0.26753092 -0.24229728 -0.144447 -0.038164765 0.11307103 0.14801885 0.12514082 0.29132527 -0.10320175 0.02561817 0.10910208 -0.005666135 0.40434936 0.065536544 -0.32101566 -0.07546884 0.16520786 -0.08796066 0.38878044 0.08830008 -0.02330572 0.09426352 -0.014776595 0.25006875 0.0262634 0.11039302 0.09957504 -0.110909015 0.31076667 -0.06811934 0.13884498 0.16790259 -0.26653007 -0.0003624726
leading-twist 0.06090364 -0.0075206235 -0.22708821 0.2845233 0.045774516 0.119013175 0.056068525 -0.16738123 0.09389865 0.13645719 -0.18953776 0.0123377815 -0.0146531835 -0.20310208 -0.053344227 0.22904143 -0.18868087 0.014087949 0.30508667 -0.13348916 -0.20626046 0.013333985 -0.21639284 -0.21496356 -0.12979117 -0.09905866 0.06514564 0.303137 -0.09427948 0.11830893 -0.035701234 -0.1955711 -0.01773858 -0.1809937 0.054256078 -0.13557786 -0.14526984 -0.29135346 0.15461609 0.1118313 0.26388195 0.2600312 0.036594845 0.23056158 0.037221976 -0.014227577 0.11805421 0.26034272 -0.06045913 0.22044331 0.044537343 0.09624379 -0.09654835 -0.38784695 0.3162081 0.49702796 0.08810967 0.059512746 -0.2566418 -0.2942198 0.0367992 -0.1903767 0.053698592 -0.02515402 -0.09100571 -0.03012297 -0.28441697 -0.21960452 -0.08573631 -0.11353117 0.009702507 0.13226111 0.17893806 0.3596932 -0.12390374 0.05497849 0.04889084 -0.076412365 0.4424314 -0.053312384 -0.34150085 0.051350195 0.22757807 0.011580434 0.253359 0.066306554 0.08514489 0.07326136 -0.079432406 0.041686907 -0.053688664 0.06412578 0.0145596415 -0.13483948 0.29999384 -0.08360171 0.062135093 0.14550109 -0.19967268 0.031916432
37,38,39 0.1486553 0.09264513 -0.06493275 0.18207678 -0.052457087 0.063247345 0.09843126 0.011899985 0.081429094 -0.015425876 0.2136231 0.04925736 -0.07303807 -0.12569293 -0.006416129 0.105825685 -0.21446247 0.02665358 0.14228493 0.031065356 -0.080802314 -0.0052656517 -0.13037717 -0.06413667 -0.0745024 -0.095617115 0.04094793 0.23021528 0.08467632 -0.07665928 0.07618332 -0.06341533 0.036060616 -0.06963052 0.042644028 -0.028521124 -0.11081594 -0.15198469 0.012689453 0.24047436 0.23424008 0.07878782 -0.062072586 0.06243091 -0.007183999 -0.0618227 -0.10420679 0.08021752 -0.05755809 0.065867186 0.038051292 -0.03372325 -0.11475682 -0.15216687 0.02808506 0.4724666 0.09676173 -0.02534686 -0.20956829 -0.31726128 -0.010784186 -0.13275684 -0.029226288 -0.07536885 -0.29373428 0.115398094 -0.29028684 -0.21014991 -0.07266929 -0.0030054376 0.096811846 0.19666047 0.036729444 0.30346245 -0.15443146 -0.019913156 0.09185274 -0.010933961 0.24988073 -0.0076065883 -0.30691034 -0.091836795 0.22529623 0.0035321154 0.23956375 0.10714305 0.11757313 0.052923698 -0.059862226 0.311955 -0.08876835 0.21023098 0.07053797 -0.30278972 0.14022082 -0.12573919 0.18240133 0.26129115 -0.14583936 -0.119260825
okta 0.1108446 -0.18368557 -0.15085879 0.11927278 -0.091286585 -0.107996434 0.010698831 0.02203001 0.24752119 -0.13234326 0.1071512 0.02859082 -0.077054866 -0.07097594 -0.10256935 0.102788955 -0.13413347 0.02232594 0.21305709 -0.04354186 -0.21833993 -0.06016881 -0.20756601 -0.012563743 -0.21697915 0.020783944 0.041354526 0.19695756 -0.022655038 0.094603166 -0.032238998 -0.08033054 0.059753556 -0.0057658143 0.023414811 -0.1269392 0.07218958 -0.10638027 0.079726964 -0.011869788 0.10002458 0.23063137 -0.073652975 0.15204976 -0.06590451 -0.023872785 0.023059104 0.19749981 0.012713822 0.28529742 -0.008608443 0.09947094 -0.0550915 -0.3502411 0.08647535 0.61129284 0.08099477 0.070190996 -0.45416772 -0.25563052 0.07051654 -0.22181076 0.06959411 0.0031921677 -0.23304966 0.08897248 -0.2469831 -0.19884953 -0.10269718 0.049715918 0.18105194 0.103108406 0.05194733 0.23277487 -0.05317721 -0.017920196 0.06187246 0.03677695 0.281837 -0.0008414537 -0.3294236 -0.14945681 0.14049008 -0.077597864 0.38799244 0.11380357 -0.06257665 0.11080966 0.021057926 0.258264 0.0939171 0.10943324 0.093130805 -0.09978514 0.26937485 -0.098244734 0.104366526 0.16695368 -0.28313434 -0.052363917
scripthon 0.042621166 -0.11521304 -0.20134355 0.08798742 -0.022531535 -0.05184423 0.04234226 -0.10172939 0.16949326 -0.05538929 -0.09326926 0.10513653 -0.09874581 -0.078611895 -0.059824556 0.12866318 -0.189008 0.09119562 0.2017284 -0.06929187 -0.24910292 -0.06272508 -0.1773482 -0.07975802 -0.080531925 0.101352565 0.0082258545 0.21369259 -0.0675044 0.026999397 0.016773738 -0.11859758 0.05100346 -0.030852625 0.05121615 -0.056833476 0.013246179 -0.18438713 0.11064312 0.031303454 0.15950602 0.220299 -0.024359465 0.19354825 -0.13680634 0.06976996 0.03166458 0.20249197 0.06664375 0.24510032 0.014132995 0.046845056 -0.09594876 -0.2990643 0.1742722 0.5018447 0.06055843 0.07160098 -0.44933903 -0.22811344 0.09983813 -0.23332095 0.12773593 -0.023799755 -0.20242175 0.024012791 -0.13985667 -0.1517188 -0.15374668 -0.060869776 0.052032143 0.114851505 0.13084288 0.25840956 -0.06919986 0.023514248 0.04774068 -0.039896354 0.36242452 0.05665184 -0.26523593 -0.019782849 0.123360634 -0.07420469 0.35357407 0.047187515 0.006670039 0.024026342 -0.07822723 0.16727805 0.013767511 0.052597284 0.08771016 -0.09955389 0.29420912 -0.10916526 0.11908383 0.1461055 -0.3068384 0.033964485
lyophilisation 0.076970816 -0.08163137 -0.20077913 0.28081456 -0.022455852 -0.023747843 0.015974805 -0.13747482 0.15488434 0.034384374 -0.12442119 0.10359566 -0.040192455 -0.11111952 -0.06254425 0.19617355 -0.26965636 0.17188102 0.39114887 -0.15749446 -0.3474408 -0.10641065 -0.41088837 -0.23877707 -0.25276226 0.060789928 0.18391217 0.3181154 -0.07160333 -0.05990265 0.009095797 -0.3112834 -0.06857216 -0.15963691 0.08877885 -0.18726993 0.020385403 -0.32527062 -0.0026948862 0.033438087 0.25228 0.3249549 0.0020615235 0.31341833 -0.052420456 -0.032784645 0.04012414 0.2209127 -0.07876666 0.3136572 0.036593802 0.28415346 -0.33553097 -0.30153877 0.35297486 0.7081395 0.26917922 0.08688921 -0.40285686 -0.3659402 0.008639324 -0.26267737 0.10483293 -0.095216975 -0.14865527 0.20668276 -0.29001307 -0.398434 -0.10620682 -0.256241 0.08051038 0.129409 0.1482719 0.4079513 -0.15171513 0.055126745 0.06284382 0.010029778 0.439546 -0.032796048 -0.31963384 -0.031878978 0.21486975 0.012921389 0.21934234 0.119050205 0.017986426 0.04200781 0.03122396 0.16957977 -0.07842103 0.15964596 -0.07144782 -0.08824447 0.48856914 -0.15662402 0.14968744 0.13026631 -0.20792572 0.121055074
montonen 0.04532758 -0.20865506 -0.30258834 0.09981467 0.005037129 -0.11445782 0.064421594 -0.12050505 0.2007208 -0.11507137 -0.028350376 0.11107788 -0.14314544 -0.10005063 -0.01994199 0.057029992 -0.21674606 0.13348943 0.08980924 -0.05503939 -0.26494145 -0.045104265 -0.09266207 -0.034940958 -0.15397045 0.065803595 0.026208598 0.1947565 0.002970634 0.05490261 0.03546173 -0.16831258 0.07008724 -0.025036179 0.021600084 -0.077154085 0.08193245 -0.15021795 0.064391784 0.034311157 0.14945462 0.20120962 -0.039853908 0.20159023 -0.19707738 0.052271884 0.012935474 0.12343733 0.107329525 0.27837956 0.06310473 -0.020085268 -0.12505418 -0.3660661 0.112907864 0.53118783 0.00991454 0.063403524 -0.5725738 -0.2004025 0.13180351 -0.25415 0.17012098 -0.06054368 -0.26770318 0.0015503131 -0.11760117 -0.070801 -0.16761845 0.013003789 0.056177117 0.14471234 0.093860336 0.24730024 -0.00796368 0.0056684865 0.07510338 -0.035689957 0.3410671 0.09546546 -0.24107175 -0.061347496 0.07940571 -0.13991885 0.43146938 0.02550533 -0.03600817 0.02347076 -0.119568594 0.1598225 0.09445329 0.0015502498 0.1591606 -0.09686287 0.21419087 -0.023948286 0.106355086 0.18308973 -0.38938263 -0.015549199
jt-distorted 0.064672045 -0.19004376 -0.22245483 0.2769577 -0.03471117 0.06981163 0.023704983 -0.06055795 0.17741504 -0.033722423 -0.014615377 0.072048634 -0.018968828 -0.13293125 -0.107510924 0.098946236 -0.15693402 0.05118545 0.23069516 -0.11121241 -0.22208515 -0.07843635 -0.20614854 -0.12516993 -0.17963359 -0.028344126 0.07455331 0.32421106 -0.00738151 0.087174475 -0.032424457 -0.08695768 0.060118593 0.006388262 0.05054439 -0.02990365 -0.1026434 -0.269337 0.021630261 0.014128905 0.22259472 0.26928318 -0.06626946 0.19477186 -0.07132933 -0.0054792333 0.08375604 0.25063097 -0.037475877 0.2243977 -0.07472214 0.1633946 -0.06093169 -0.2779126 0.114238985 0.54104394 0.07297729 0.03778957 -0.4957623 -0.31459168 -0.009899624 -0.19205993 -0.013523638 0.012132436 -0.2118164 0.053128164 -0.24773942 -0.25916076 -0.047393784 -0.023734152 0.07964017 0.11377548 0.17047483 0.2881678 -0.10535885 0.041546296 0.03237699 -0.014974601 0.38561434 0.04111877 -0.3880649 -0.01753452 0.108223915 0.03254554 0.3375479 0.04424017 0.01800927 -0.010266826 -0.1250629 0.18102166 -0.08305651 0.052089706 0.020124666 -0.06866949 0.33791798 -0.096033484 0.119096816 0.24383444 -0.2511571 -0.03305193
alkylamine 0.08180229 -0.0442413 -0.124555945 0.15103984 -0.009318378 0.010549956 0.0104828775 -0.08125409 0.2013682 0.002976954 -0.030514792 0.040621914 -0.096417 -0.07827001 -0.053319447 0.12727337 -0.16464919 0.075186685 0.24988191 -0.043484148 -0.26815975 -0.07369854 -0.19344881 -0.074557826 -0.12754093 0.041649014 0.071186215 0.24411362 -0.09188176 -0.0010557473 0.019404775 -0.13044071 0.018807381 -0.07078305 0.06819881 -0.099543385 0.03858512 -0.18470958 0.11767226 0.0139150545 0.19170105 0.23680195 -0.060373466 0.11789741 -0.12572196 0.031015107 0.04599408 0.21640527 -0.006943444 0.2539825 -0.018017847 0.11198096 -0.09368104 -0.32486635 0.15594502 0.5811498 0.06139767 0.016479742 -0.4295405 -0.24875833 0.051721968 -0.22794735 0.1370091 -0.021249775 -0.23822609 0.04135576 -0.18785077 -0.25284666 -0.09293713 -0.07604261 0.033315383 0.062365144 0.15031871 0.2614411 -0.07934581 0.0077675674 0.08519322 0.002009008 0.36652762 0.007000977 -0.2879827 -0.018873382 0.13232331 0.014989246 0.36658466 0.092868775 0.041876063 0.09830825 -0.03933941 0.15773608 -0.0039013438 0.07712209 0.039943833 -0.14286944 0.27521002 -0.10149059 0.09565955 0.14724647 -0.22192578 0.015985278
pyrheliometric 0.050240092 0.092533745 -0.16013323 0.16795522 -0.04129993 0.0723412 -0.024504397 -0.11925906 0.15755992 0.09860352 -0.16044515 -0.033610158 0.03522475 -0.07987903 -0.026008533 0.29291686 -0.195604 0.07852653 0.40790215 -0.06682702 -0.24252483 -0.08356296 -0.29243284 -0.11757998 -0.10630256 -0.04385487 0.09603961 0.3122268 -0.17959914 0.05597463 0.018128783 -0.1707545 -0.10068447 -0.23978302 0.11886014 -0.12905696 -0.093932144 -0.19307567 0.12130591 0.07653997 0.25285923 0.27234456 -0.0032653362 0.16704234 0.0019465163 -0.03358346 0.07227417 0.23959021 -0.096042134 0.1922321 0.073822804 0.09115434 -0.049820103 -0.34530184 0.3531147 0.5632259 0.21283813 0.026112905 -0.17596677 -0.27046183 0.013233587 -0.1353267 0.11521591 -0.040725086 -0.031739846 0.014633711 -0.24745142 -0.28389984 -0.017912008 -0.27167678 -0.02097559 0.06500408 0.21113798 0.29914206 -0.16918504 -0.040471077 0.058805984 -0.054546334 0.35603708 -0.03523487 -0.3111386 -0.007242251 0.18789822 0.04937352 0.14476585 0.23059684 0.13847518 0.09480061 -0.073838934 0.064922586 -0.079168856 0.17187062 -0.025612459 -0.24947742 0.37429893 -0.16817296 0.08657181 0.04028091 -0.11101624 0.06873091
∂ω -0.060139038 0.17990965 -0.1105246 0.094099596 -0.20622565 -0.014571299 0.025412451 8.570403e-05 0.25854126 -0.09397874 0.21264425 0.11169622 -0.009952247 -0.008821219 -0.11392118 0.090128474 -0.18887728 0.07035705 0.29098153 0.1466672 -0.058700547 -0.07494248 -0.3724869 -0.048203226 0.047663927 0.32008094 -0.012233127 0.07558052 -0.07101505 0.07497165 0.052220456 0.070048854 0.054261826 -0.05226358 0.24297999 0.0041908845 -0.032006186 -0.1622116 0.08991951 -0.007097777 0.15218413 0.057428792 -0.029723532 0.06787055 -0.1958665 -0.080550015 -0.14365691 0.16669968 0.05893708 0.26532975 -0.060057923 -0.050788827 -0.09566428 -0.0816389 -0.06392615 0.5006503 0.16068143 0.14351028 -0.33813325 -0.3036453 0.2420943 -0.065252945 -0.15444674 -0.1070005 -0.11583799 0.13618995 -0.06748023 -0.18512815 0.10821171 -0.037881985 0.15478316 0.0688725 0.10616971 0.3605208 0.04479251 -0.10617019 0.25701177 -0.006858062 0.23781967 -0.037178904 -0.29910254 -0.32349303 0.039167255 -0.19009052 0.29200256 0.17498201 -0.012872221 -0.080512725 0.10913734 0.27021658 -0.06842913 0.31161284 0.14162886 -0.22789302 0.3026268 -0.073613934 0.21309522 0.091345266 -0.20651409 0.05815366
2o4 0.21516004 0.30337688 0.016438484 0.2756114 -0.23464811 0.101997465 0.16663958 -0.07524526 0.28057063 0.04217303 0.23518528 0.13674766 -0.3182941 -0.24132997 -0.09860032 0.1935757 -0.26675394 -0.089370675 0.35423627 0.32186154 -0.16388041 -0.03395261 -0.4217689 -0.124695495 0.0040873885 0.06872002 0.34799147 0.3797259 -0.03460548 -0.12985754 0.09489755 -0.1787478 -0.026703045 0.12768388 0.2266306 0.011186019 -0.14524063 -0.29190722 0.056705642 0.18339647 0.46949476 0.14015698 -0.30370748 0.12777792 -0.2029311 -0.049332883 -0.19773874 0.25575852 -0.2242901 0.15935835 -0.0020422423 0.05519533 -0.10899453 -0.338057 0.009914167 0.8871798 0.20107047 0.116371185 -0.46875715 -0.67970425 -0.02689249 -0.5408878 -0.06297536 -0.2908091 -0.4539159 0.19441481 -0.28910613 -0.39066356 0.03430204 0.004950788 0.026173752 0.14196077 0.0052325353 0.36660007 -0.15453319 -0.053295888 0.2601066 0.0376778 0.4049264 -0.043941297 -0.5768417 -0.22408867 0.3776691 0.10026018 0.54744947 0.27776727 0.21570756 0.099599704 -0.06661332 0.48921838 -0.18198498 0.3677932 0.091462895 -0.3839987 0.31654406 -0.053224042 0.28861862 0.25802037 -0.1482124 -0.11748716
200mk 0.17818615 0.18875298 -0.13459319 0.28095222 -0.10439411 0.2702408 0.08725783 0.20128363 -0.075919956 0.22007695 0.14271587 0.2749897 0.023029707 -0.25199538 -0.026661465 0.21241996 -0.33836406 -0.06553965 0.3543354 -0.24719769 0.0658128 0.0995803 -0.24065916 -0.0028977059 0.09813377 -0.083062604 -0.0055524185 0.35002518 -0.07371944 -0.08461067 -0.15041198 -0.31725752 0.18355033 -0.30862245 0.037831597 -0.1849593 -0.09323997 -0.08094171 0.19266294 0.40891725 0.43092325 0.050331756 0.006440006 0.30043304 0.0018724427 -0.03836876 0.11186435 0.14850666 -0.0065637976 0.12968493 0.17853186 -0.07565635 -0.09817721 -0.2608217 0.26633537 0.48467597 0.18850362 0.12665601 -0.23375516 -0.4712987 0.14464459 -0.022276148 0.07663648 -0.01306586 -0.22716708 0.014439687 -0.33115864 -0.24011773 -0.17259349 -0.33868197 0.13893911 0.32348758 0.0138277635 0.34425953 -0.14135964 0.03702297 -0.19907367 -0.12690343 0.3962357 0.06086769 -0.2791987 -0.05046829 0.24230243 -0.10315944 0.20145722 0.28966635 0.18897952 0.13337678 -0.009242795 0.0999531 -0.028650109 0.4779805 -0.046466425 -0.42784655 0.23247191 -0.19212571 0.2561552 0.22669365 -0.113559276 -0.066321455
68–71 0.19217105 0.13796595 -0.29440823 0.17079958 0.08562456 -0.012832289 0.18004191 -0.048394926 0.0029290318 0.105083644 -0.057262182 0.26457182 -0.20540196 -0.13987675 0.016641608 0.10159047 -0.20237261 -0.076955445 0.080565736 -0.06315468 -0.1851075 -0.02617504 -0.24601655 0.039891087 0.044930294 -0.23976766 -0.009399001 0.1935131 0.06028425 0.024979439 0.16995226 0.012150139 -0.05720502 -0.060214628 -0.005045574 0.2166814 -0.20381463 -0.36201158 -0.052551035 0.14403416 0.39214492 0.053429395 -0.14132944 0.34394872 -0.081215724 0.2523679 -0.09342033 0.04807891 0.02439068 -0.0032518655 0.29433694 -0.22855026 0.06687648 -0.28275654 0.29266587 0.41206884 -0.14733201 0.038190484 -0.2529156 -0.31215835 -0.05583583 -0.32416344 0.14095297 -0.15693113 -0.4732513 -0.060395572 -0.32900992 0.07640253 -0.15868022 0.025193866 0.024225123 0.34501648 -0.03839334 0.32767096 -0.21527359 -0.117398486 -0.0049478 -0.06455697 0.1479989 0.22906634 -0.3399874 -0.057189398 0.26215103 -0.12455803 0.41694546 0.26015568 0.23802973 0.096915595 -0.34180874 0.17027767 0.05074467 0.26989174 0.11156519 -0.3546005 0.11272965 -0.013322502 0.23890416 0.5140834 -0.27890322 -0.1508685
350°c 0.06921963 0.16220799 0.04663928 0.25159496 -0.04245865 0.17960908 0.1180892 -0.05313552 0.06046447 0.14577295 0.120110124 0.06356709 -0.09118895 -0.16264097 -0.0042767283 0.12235914 -0.16171387 -0.11138133 0.15070668 -0.033018805 0.0048303306 0.09613057 -0.2234581 -0.051456798 -0.077538885 0.008208832 0.10735217 0.26381692 0.017967738 0.01465195 -0.04973905 -0.078256264 0.07241026 -0.18326522 -0.045367222 -0.11283465 -0.095091 -0.18907686 0.16382977 0.26313704 0.3023857 0.047149763 -0.024911337 0.042337507 0.033007763 -0.097051814 -0.029102089 0.20771268 -0.056156404 0.14166406 0.007394868 0.030324716 -0.077506155 -0.30910745 0.074303016 0.3934077 -0.032566223 0.091450855 -0.20315826 -0.35696107 0.021394962 -0.14381197 -0.0063322634 -0.055512194 -0.23540011 0.033338323 -0.29936486 -0.20945704 -0.13432027 0.005177282 0.04344531 0.19993772 0.05088555 0.26715046 -0.091653235 -0.037470706 0.033748977 -0.04884917 0.38808215 -0.071658544 -0.32225665 -0.05980404 0.23614353 -0.087357834 0.30386832 0.24157271 0.086641684 0.07100585 0.14041404 0.21283147 -0.034273025 0.22468352 0.07165784 -0.19175322 0.16754484 -0.062656336 0.19948271 0.11721277 -0.12856081 -0.16641498
tn=t 0.05824302 -0.037470095 -0.18084821 0.18055254 -0.16076647 -0.0009920569 0.0956277 -0.09847421 0.20704223 -0.10811211 0.06249246 0.08028649 -0.06593855 -0.039309762 -0.14612411 0.13395192 -0.19332168 0.0678911 0.26646113 0.025834005 -0.1727409 -0.055267025 -0.35323283 -0.100514375 -0.13919908 0.1135144 0.103843644 0.26517278 -0.006296929 0.063722715 0.023316482 -0.10868223 0.037737466 -0.02511223 0.16257177 -0.07432275 -0.024539832 -0.23532972 0.11686391 0.056695648 0.2554595 0.1627604 -0.07338389 0.1404255 -0.058988795 -0.09318206 -0.08931472 0.24928647 -0.033249214 0.32481673 -0.10164509 0.144882 -0.15758473 -0.27454716 0.09701973 0.60512406 0.13826711 0.14013422 -0.42155558 -0.35153762 0.024115894 -0.21389192 -0.050428838 -0.10934274 -0.16589075 0.15361713 -0.28029674 -0.2815523 -0.08479084 -0.056074563 0.10738866 0.15422401 0.1233902 0.3189726 -0.07723577 -0.0015311548 0.14742357 0.010399558 0.37693936 0.00640277 -0.37629893 -0.19477767 0.19718854 -0.08787663 0.33577138 0.121666886 -0.017735193 -0.053453244 0.01808405 0.29428384 -0.06290521 0.15727264 0.0945332 -0.13114278 0.3174293 -0.09261061 0.13328207 0.12683591 -0.2372945 -0.04981461
dd¯ 0.050348125 -0.068244845 -0.18123037 0.078882664 -0.116028205 -0.09652218 0.058834672 -0.063538924 0.22528335 -0.1754114 0.12204739 0.048926577 -0.14548793 0.0014961958 -0.090921395 0.13402793 -0.15381223 0.060348287 0.17293023 0.028800618 -0.22747418 -0.065569274 -0.27322304 -0.040448606 -0.13498642 0.16552068 0.0650668 0.2367205 0.010450985 0.068760574 -0.0008566305 -0.04544851 0.05895454 -0.020766513 0.113149226 -0.094774 0.024705846 -0.15944915 0.0955838 0.036439203 0.194042 0.18731777 -0.12505496 0.1667554 -0.13133731 -0.05534212 -0.13473664 0.19808541 0.024479095 0.28377238 0.031056661 0.076754704 -0.12762794 -0.31750488 0.10979186 0.5587336 0.05506708 0.1508265 -0.48998284 -0.3014436 0.049100768 -0.25130436 0.010812923 -0.07164866 -0.23812349 0.11063461 -0.22480518 -0.19144335 -0.09203902 0.0554179 0.038034596 0.1570979 0.108238086 0.2541645 -0.0664067 -0.06677378 0.15015523 0.019254617 0.36614263 -0.019750547 -0.32831678 -0.19659007 0.14443842 -0.124211505 0.43875873 0.14370555 -0.009432942 0.03125877 -0.005798012 0.3012917 -0.0018703006 0.11155586 0.1402683 -0.12948832 0.2954607 -0.09646097 0.17870548 0.1842181 -0.26890248 -0.06249796
polar-angle 0.06645727 -0.021004751 -0.24278824 0.31416348 0.040827658 0.11153482 0.03881056 -0.10007663 0.11746535 0.16950122 -0.18223765 0.06637086 -0.03389305 -0.18864062 -0.039201118 0.20203224 -0.2319719 0.04259128 0.3438562 -0.15593559 -0.23985322 -0.018031009 -0.22531037 -0.19494092 -0.1441347 -0.086771704 0.05732784 0.32838944 -0.09083078 0.07509127 0.00438693 -0.23606826 0.037279394 -0.17004575 0.07430422 -0.10824497 -0.13586886 -0.31131762 0.11544193 0.063747086 0.30584693 0.2718892 0.034419723 0.23038626 -0.009257086 0.05151228 0.12435139 0.25401583 -0.058891878 0.20244676 -0.00025054347 0.103280716 -0.119879425 -0.34809142 0.35229158 0.5486098 0.087966554 0.017395847 -0.27327064 -0.33037937 -0.04143326 -0.21407467 0.056926753 -0.05590894 -0.135571 0.051181555 -0.29746747 -0.26810664 -0.1424612 -0.15633146 0.029194184 0.15121122 0.22512823 0.3930469 -0.17637378 0.102795154 0.038859434 -0.08470829 0.46182585 0.009815145 -0.3405733 0.072986394 0.25152674 0.029858049 0.28165016 0.09617454 0.08787237 0.079942286 -0.0949367 0.13689578 -0.054554958 0.12563449 -0.003484562 -0.18237092 0.31097406 -0.11332209 0.10444018 0.22621736 -0.1847737 0.03128098
stepinski 0.011130761 -0.24510312 -0.33714432 0.05896677 0.035902586 -0.16541101 0.047908086 -0.112918116 0.21060677 -0.14918911 -0.005956589 0.11249694 -0.14016499 -0.11487741 -0.0050995257 0.092035174 -0.24008384 0.17106211 0.058747828 -0.028631892 -0.3101088 -0.08021134 -0.067260996 -0.0037244298 -0.14992963 0.12404041 0.003653288 0.18236023 0.012944493 0.08887832 -0.0047897287 -0.07592487 0.04860217 -0.0054351613 0.0054833116 -0.08355324 0.13498017 -0.13587764 0.06545764 0.059687104 0.128241 0.22444037 -0.0009731576 0.24723947 -0.20850423 0.0516725 0.0010214392 0.1007806 0.10775141 0.29719448 0.17274258 -0.072799034 -0.11877444 -0.37595168 0.18903282 0.5248164 0.012654416 0.120444685 -0.6467379 -0.13744253 0.18714094 -0.30880755 0.22150593 -0.035970315 -0.27654815 -0.031660173 -0.063594356 -0.0133995265 -0.16283795 0.0675443 0.06807583 0.1543135 0.1209507 0.2582069 0.06758485 0.0033131083 -0.005409099 -0.048014197 0.35010964 0.09390947 -0.22109199 -0.075784035 0.04117298 -0.1988446 0.48593318 -0.005002722 -0.0359511 0.04412753 -0.16883263 0.13347438 0.142886 -0.023063228 0.19446939 -0.109732375 0.2570778 -0.031029627 0.11721735 0.18831295 -0.4870932 0.019844135
27,36 0.1014643 0.061100908 -0.1876004 0.26998675 -0.10720986 0.03749181 0.09435653 -0.03967085 0.09732514 -0.067548804 0.19160138 0.031303816 -0.13328499 -0.16948703 0.009931495 0.08895755 -0.289339 0.06856089 0.15136659 0.044239413 -0.10236077 -0.0338725 -0.18405153 -0.14594144 -0.021298952 -0.03674698 -0.018989053 0.22195484 0.19224909 -0.031939674 0.11529587 -0.0887511 -0.016675286 -0.078379236 0.039655827 -0.043497503 -0.26211932 -0.2568658 -0.032223288 0.22765376 0.32240337 0.08481848 -0.15515749 0.103060335 -0.10301608 -0.061374072 -0.046017997 0.12122971 -0.055613562 0.069074914 0.13920656 -0.088569246 -0.11443123 -0.20630075 0.18961248 0.6535921 0.085878365 -0.009871796 -0.37793326 -0.3900892 -0.087042585 -0.17043982 0.0027000755 -0.15442106 -0.3881387 0.061426282 -0.32537445 -0.2262574 -0.118704066 -0.06571567 0.08265628 0.25468898 0.03988763 0.39526048 -0.21112517 -0.05220294 0.083267756 -0.0125899 0.4240585 0.076294154 -0.36793333 -0.07882567 0.27684563 -0.09078494 0.38082588 0.19397265 0.12644576 0.17982745 -0.23465152 0.42164624 -0.1881061 0.2734718 0.10439625 -0.37709135 0.16877593 -0.17487909 0.23120081 0.47808456 -0.22097982 -0.09772319
electrospun 0.070130415 0.011339165 -0.07693422 0.19166313 -0.07629891 0.0867838 0.028964568 -0.09211325 0.17622043 0.058911193 -0.10224217 0.024415009 -0.024470843 -0.14918202 -0.063366264 0.20432618 -0.15028973 0.05886049 0.3678664 -0.07820174 -0.18708353 -0.08358715 -0.23699817 -0.12935817 -0.026972696 0.037053965 0.07619926 0.30406725 -0.15656325 0.015881428 -0.036842253 -0.15381795 -0.0051401854 -0.12314411 0.041698515 -0.078982234 -0.08032051 -0.21495134 0.13216266 0.037907258 0.21313326 0.26644027 -0.037564047 0.14752826 -0.061794765 0.0076967776 0.11051542 0.2419332 -0.06449643 0.20137426 -0.027358674 0.10820715 -0.037249666 -0.30296403 0.19986388 0.49437803 0.19340464 -0.0045480914 -0.2806702 -0.28074825 0.026288081 -0.1721038 0.08924704 -0.017574277 -0.10819414 -0.027384508 -0.2002435 -0.3095063 -0.044873513 -0.20364387 0.011601824 0.038681455 0.16884944 0.26206094 -0.10763885 0.029095482 0.05660058 -0.013980785 0.33605102 -0.052746527 -0.29434085 0.025943715 0.1721792 0.08747779 0.24888003 0.0996136 0.11856534 0.068990484 -0.062373027 0.09495142 -0.0781195 0.16066206 0.008309096 -0.14966652 0.3576277 -0.1705426 0.07701626 0.07432605 -0.15778944 0.069276705
12–18 0.30002907 -0.21688697 -0.34211957 0.4097077 -0.22503495 0.22336666 0.37581474 -0.22531822 0.32730675 -0.22221142 0.48548752 -0.19113463 -0.27044052 -0.07920925 0.5553201 -0.07798896 -0.110926665 -0.1784221 -0.24554864 -0.04570363 -0.23841485 -0.045920536 0.06154464 0.18524113 -0.073836274 -0.26631182 0.0009973776 0.072476834 0.5601377 -0.017028902 0.016651679 -0.12496242 0.105048575 -0.518698 -0.65235573 0.21830396 -0.12263259 -0.21332884 -0.21449606 0.04377172 0.26501477 0.14504553 0.061670892 -0.0084038675 -0.04883541 -0.5691956 0.02838617 -0.3846738 -0.22617006 -0.079403535 0.06669087 -0.12559941 0.38954005 -0.11573583 -0.043167733 0.08207691 -0.25130343 -0.33609372 -0.7104178 -0.3265862 -0.23635559 -0.08989985 -0.25870442 -0.16139352 -0.24862967 -0.34755316 -0.48301005 -0.37775815 0.15436198 0.27947026 0.22757909 0.39948118 0.12128131 0.2851023 -0.32493117 -0.21390727 0.05738697 0.2551172 -0.2106601 -0.051845267 -0.5030776 -0.41046122 0.2102812 0.26004323 0.64685524 0.28887948 0.28197324 -0.20006323 -0.51258147 0.010810941 0.10463981 0.07560109 0.41506082 0.037655354 0.1049927 0.13993637 -0.029858597 0.42707646 -0.6801522 -0.8502568
work-hardened 0.02498813 0.073539056 -0.25712237 0.2671678 0.0051164776 0.17534964 0.019694056 -0.10427892 0.14228612 0.106638566 -0.16655472 0.103587046 0.09711014 -0.19799605 -0.045350604 0.1907846 -0.25210577 0.10403161 0.35276 -0.15845206 -0.15300429 -0.00858762 -0.2393421 -0.21662968 -0.09673867 -0.1355542 0.016486976 0.3442787 -0.103941366 0.07597555 0.07816987 -0.21770495 -0.060873695 -0.16269757 0.14320502 -0.058481075 -0.21215425 -0.34762633 0.06825173 0.10979515 0.29343194 0.25338846 0.012476504 0.25835618 0.04463149 0.02694275 0.097328104 0.3113977 -0.06331053 0.16482468 -0.04082928 0.09579147 -0.090731524 -0.28446802 0.34884188 0.6044029 0.18439475 0.0675376 -0.24259013 -0.34080744 -0.0374175 -0.08571022 0.0074769184 -0.043521985 -0.104885 0.0017420612 -0.2570039 -0.23653501 -0.0888311 -0.24979037 0.036224894 0.11596918 0.23292923 0.38821974 -0.20390564 0.10000028 0.0037361477 -0.075798765 0.46828416 -0.026132114 -0.33294186 0.030814085 0.22448452 0.06892359 0.14047536 0.048499264 0.1516078 0.076201975 -0.21718653 0.099957444 -0.16598292 0.13717307 -0.051729903 -0.25441712 0.3207832 -0.1717092 0.03113946 0.22467285 -0.18055274 0.077667855
high-aspect 0.0726213 0.045558803 -0.29537264 0.31537294 0.056989703 0.113249645 0.030805748 -0.119108856 0.08068043 0.13204613 -0.12036259 0.016214147 0.022281244 -0.1846022 -0.04464768 0.24770343 -0.15990034 0.050857566 0.35230818 -0.11165648 -0.178409 -0.08925881 -0.261996 -0.22306708 -0.12517577 -0.18198675 0.14208782 0.39121032 -0.11719293 0.18491359 -0.04164013 -0.110126585 -0.06977699 -0.14549273 0.15579109 -0.08790516 -0.18492857 -0.332375 0.15932922 0.15447032 0.30082953 0.2822317 -0.003370002 0.24910825 0.09299398 0.019324183 0.020749146 0.29012126 -0.16989435 0.22639528 0.022003103 0.15758365 -0.07263969 -0.34804708 0.37830776 0.5327973 0.1745827 0.019254379 -0.17568825 -0.31178665 -0.059072018 -0.19070867 0.012972236 0.050751522 -0.13267611 0.023761276 -0.32807255 -0.23947692 -0.034344763 -0.19688404 -0.06780394 0.1025488 0.2570448 0.36972576 -0.14028363 0.07256218 0.038361717 -0.038491223 0.4386787 -0.08930343 -0.3276253 0.028517637 0.26079994 0.041634645 0.19721736 0.10658554 0.20089324 0.08572548 -0.06499206 0.08855853 -0.14742392 0.16553906 -0.08198039 -0.24378647 0.32954657 -0.15886584 0.048788726 0.18089572 -0.09480132 0.053038776
stzs 0.1076994 -0.08083363 -0.21229295 0.06517446 -0.13378476 -0.11302417 0.026795652 -0.059000112 0.19930446 -0.2162423 0.17822236 0.0057874247 0.009388298 0.02593667 -0.10721878 0.12689224 -0.25000948 0.10407604 0.2001419 -0.048981454 -0.23556222 -0.056998648 -0.2879171 -0.04817526 -0.23502424 -0.06532778 0.09004623 0.30739367 -0.0011218973 0.044242483 0.07455051 -0.13603045 -0.046605133 -0.04833711 0.124070615 -0.18182485 0.02978497 -0.13967738 0.0488831 0.061485365 0.21515217 0.18869866 -0.17428598 0.17868848 -0.06133119 -0.14483988 -0.08419274 0.21558051 0.0035861135 0.2937137 0.010852283 0.100565195 -0.19479209 -0.32889396 0.20490018 0.8472455 0.13201426 0.16505189 -0.48413843 -0.2612385 -0.005472675 -0.17863956 0.109864905 -0.035974547 -0.26230973 0.15873556 -0.33405426 -0.20999819 -0.10411345 -0.048244573 0.100001946 0.13786161 0.05079541 0.26302916 -0.1556403 -0.047934927 0.10209388 0.018659208 0.3884945 -0.002265498 -0.3250073 -0.23631705 0.20247225 -0.10151325 0.34151277 0.13128877 0.0048780385 0.12838663 -0.08377918 0.34536132 0.023022056 0.15692946 0.07872401 -0.23720387 0.20548068 -0.1284701 0.080644764 0.21226692 -0.2148415 -0.03604439
