writer\/directors 0.095607415 -0.04735415 -0.19523299 0.13738574 -0.043904264 -0.01913654 0.008688927 -0.15632018 0.106344216 -0.062864006 -0.054527562 0.019049488 0.007547006 -0.07271612 -0.119450234 0.06274385 -0.16069968 0.08601691 0.14695199 -0.09869449 -0.22097507 -0.0257671 -0.22032955 -0.16643609 -0.2032824 -0.1080317 0.058064178 0.24377017 -0.0016703364 0.025091095 0.115878314 -0.1838904 -0.05350691 -0.05719064 0.087268144 -0.100207895 -0.08829941 -0.23446354 0.05025743 -0.0088204 0.15542565 0.2314577 -0.13242602 0.17408134 -0.025509797 -0.004432136 0.0352773 0.23390776 0.041961323 0.23449871 -0.032342117 0.12294846 -0.17315947 -0.31234944 0.18936008 0.67719615 0.03828635 0.035428826 -0.34674922 -0.23340675 -0.06105557 -0.09456365 0.07908645 -0.030305352 -0.18656203 0.07407667 -0.27584994 -0.17690557 -0.10726009 -0.11892326 0.016077958 0.08404953 0.06821652 0.25190887 -0.19111115 0.010809113 0.1408506 0.005130492 0.3863488 -0.028423257 -0.28302005 -0.04044372 0.18091002 0.0019447468 0.22869061 0.039945893 -0.033909522 0.100854285 -0.11262359 0.18831623 -0.04649653 0.04111637 0.04637512 -0.15157552 0.15510628 -0.12892115 0.036619123 0.23926973 -0.153673 0.007922571
bump-in 0.0036450326 0.03884811 -0.23182537 0.20643225 -0.064219266 0.09915542 0.08625328 -0.086941734 0.13325483 0.091747716 -0.14933181 0.10699751 -0.004190199 -0.09749277 -0.028676024 0.2152532 -0.21806745 0.095898926 0.3711609 -0.07847361 -0.13104254 -0.04854076 -0.3379733 -0.15001467 -0.03402645 0.03933879 0.043446526 0.32809636 -0.09611498 0.05309393 0.022750063 -0.18632591 0.0028352402 -0.1303482 0.15008736 -0.020389445 -0.13662799 -0.32136828 0.11182861 0.052399304 0.32509035 0.24920851 0.02509088 0.22648542 0.0026327446 0.004755633 -0.014861697 0.25756788 -0.108328246 0.19890973 -0.1031396 0.1280469 -0.13020337 -0.18658996 0.31324422 0.43610033 0.19703509 0.09581177 -0.18917033 -0.30154803 -0.08562954 -0.17395651 -0.061008826 -0.07076591 -0.06733899 0.12551312 -0.23745349 -0.27895024 -0.10400072 -0.22343117 -0.0021717325 0.14790447 0.25770667 0.34674606 -0.1899907 0.09374997 0.014704101 -0.07496636 0.42223364 -0.02121377 -0.27245286 -0.033376146 0.21592233 0.018187936 0.18453577 0.07978706 0.14647727 0.0059138164 -0.0893029 0.1738969 -0.14560424 0.19889247 -0.01868622 -0.19192855 0.3740154 -0.17577372 0.09630753 0.11783342 -0.13969257 0.060349427
kiddie-flick 0.0597822 -0.04760168 -0.15839705 0.19591162 -0.02945758 0.02415299 0.052970838 -0.073187225 0.13493359 0.05173472 -0.12785923 0.05075933 -0.06322331 -0.09718957 -0.1351686 0.1607498 -0.16627564 0.04992474 0.2969675 -0.12276548 -0.2017451 -0.024938855 -0.262324 -0.16943967 -0.13176064 0.0036571678 0.03917663 0.28053227 -0.07291131 0.059135925 0.032821186 -0.16629016 0.040857494 -0.08613446 0.10171783 -0.09704005 -0.08289571 -0.25205725 0.12835038 0.009878058 0.260997 0.23455003 -0.059031535 0.17333241 -0.040883012 0.054386277 0.06799947 0.2804669 -0.003199311 0.24362415 -0.047279775 0.110155776 -0.13746114 -0.3537913 0.24332657 0.5219393 0.059628136 0.047410022 -0.2907226 -0.30178618 -0.023406476 -0.19704288 0.052542876 -0.06935789 -0.15259738 0.08299296 -0.30358833 -0.24620336 -0.1553483 -0.10615897 0.05196911 0.1351166 0.15172881 0.31309325 -0.14679155 0.043037016 0.099468954 -0.053694654 0.4463455 0.030676752 -0.31467596 0.022283498 0.22722077 -0.025841456 0.31410396 0.08317986 0.031965822 0.070877895 -0.01947042 0.23371527 -0.046182644 0.09813875 0.041360702 -0.12783785 0.28743923 -0.11249484 0.13655981 0.21760064 -0.15404461 0.033052124
preachy-keen -0.08159969 -0.002067767 -0.17380077 -0.11290419 0.020958815 0.019204106 -0.053141754 -0.06441471 0.01736331 0.090220585 -0.087308004 0.025275819 0.08480969 -0.020084135 0.101691045 0.093489185 -0.018868417 0.0028021596 0.021970153 -0.044344615 -0.07026448 -0.01221992 0.005403191 -0.004861567 0.08792016 0.07129627 -0.017899625 0.074132055 -0.18889165 0.13472787 -0.06840189 0.037596583 -0.01216403 -0.024946798 0.057788897 0.07354733 0.001803088 -0.058549613 0.22418365 -0.02111353 -0.002620265 0.16286024 0.022961453 0.13310474 -0.017966673 0.101068795 0.012472348 0.16518165 0.0060449224 0.15543331 -0.049386833 -0.04103095 0.085374065 -0.09471163 0.0846805 0.1038571 0.02500764 0.06461968 -0.095933765 0.08690448 0.028087027 -0.022423357 0.0242154 0.20532368 0.0057412684 -0.17299737 0.0994294 0.014889762 0.009326473 -0.07873106 -0.12979126 -0.020492986 0.2106009 0.023606285 0.00091893226 0.024652235 -0.051988848 -0.07222083 0.07306352 -0.1982879 -0.048496634 -0.0062490515 -0.006127119 -0.055301104 0.01438266 -0.042015217 0.07012431 -0.01402574 0.008251421 -0.12563023 -0.053919036 0.017506443 0.059439912 0.016652942 0.10299067 -0.09449127 -0.010576703 -0.12686463 -0.19282688 0.09758839
servicable -0.10684552 0.13856453 -0.07031165 0.21266007 -0.035178065 0.2661073 -0.032562297 -0.03238979 0.23250256 0.13548887 -0.11998403 0.14019522 0.108953506 -0.26140612 0.04448352 0.071384475 -0.18622553 0.16981184 0.2978098 -0.06760457 -0.0025129914 -0.020634688 -0.16091041 -0.13051003 0.03002806 -0.05298672 0.011244357 0.22218733 -0.13502838 -0.0410132 0.053181313 -0.1877346 -0.14379293 -0.13070254 0.09558301 0.01735589 -0.11346315 -0.289028 -0.03907298 -0.008446764 0.21912837 0.21553482 -0.025693893 0.10046547 -0.06431049 0.0033338107 0.19680797 0.21722041 -0.14057271 -0.010918871 -0.07334958 0.0056110695 -0.0031507686 -0.07129109 0.1412983 0.3235373 0.3007384 -0.017600104 -0.08824706 -0.23869665 -0.020316727 -0.032318935 -0.006132193 -0.07360193 -0.0033625662 -0.07462828 -0.005141765 -0.14917953 0.035020247 -0.31694537 0.05487492 -0.065761745 0.21135578 0.21663573 -0.06561841 0.010583587 -0.06863474 -0.117209375 0.24714647 -0.09577378 -0.18228096 0.010305613 0.01809913 0.16804707 -0.048259854 -0.004936181 0.2294929 0.11649662 -0.23451982 -0.021967232 -0.19338334 0.15677021 -0.07787867 -0.21523048 0.27035305 -0.11969402 -0.03933914 -0.0074403137 -0.11125618 0.17780992
dogwalker 0.050983347 -0.12637463 -0.25077823 0.10406009 0.006174352 -0.09110608 0.08232921 -0.15376917 0.1696442 -0.010385936 -0.12880516 0.106351435 -0.1221182 -0.18226895 -0.08398426 0.13528311 -0.20147927 0.06299839 0.18176669 -0.06739687 -0.25289062 -0.047490902 -0.20118323 -0.12369852 -0.09567351 0.068981245 -0.0024674684 0.21748158 -0.03993292 0.06288399 0.027092228 -0.12883814 0.04046654 -0.023513343 0.03728339 -0.06413397 -0.008293946 -0.20141184 0.108904764 0.023963012 0.18205014 0.28709894 0.011251226 0.25391442 -0.116312 0.07947272 0.0027495977 0.20290032 0.06533363 0.23847026 0.054953776 -0.0030056015 -0.10847491 -0.3573497 0.21389297 0.5466099 0.02730654 0.106993124 -0.4569009 -0.23917581 0.13300624 -0.30175996 0.13591912 -0.06623614 -0.22976026 0.011622239 -0.16390817 -0.07899834 -0.16871889 -0.008611508 0.06468405 0.13449812 0.11204884 0.28453758 -0.06496683 0.040970754 0.04985056 -0.07829708 0.4065459 0.033096798 -0.25319803 -0.021499258 0.16252178 -0.097499326 0.41630524 -0.029268779 0.019156773 0.07575917 -0.11811981 0.14394069 0.09067914 0.043849204 0.14445247 -0.13502663 0.30469742 -0.095334284 0.12709095 0.18299183 -0.35588554 0.030851526
seventy-minute 0.078579426 -0.004056208 -0.25175136 0.35173655 0.044939194 0.18139268 0.19521625 0.035951875 -0.043190643 0.29584256 -0.20246781 0.010220334 0.039200976 -0.31690782 -0.11573262 0.25683752 -0.24772684 0.033104405 0.41519517 -0.31036168 -0.08351153 -0.03176489 -0.18288474 -0.11805305 -0.02270636 -0.23125814 0.045433406 0.36921158 -0.111636214 0.0537151 -0.13207392 -0.24132338 0.04550404 -0.2851009 0.01763779 -0.025019996 -0.17896633 -0.28859776 0.1866469 0.18107842 0.42447937 0.30695003 0.18602318 0.4013851 0.15869656 0.08657466 0.2890292 0.1755013 -0.10182563 0.15951738 -0.11843604 0.08382262 -0.049420316 -0.31817728 0.43029702 0.38674867 0.18587917 0.013355389 -0.1812655 -0.34294844 -0.15981694 -0.2598998 0.02990137 -0.025440328 0.022244722 0.009491127 -0.46532488 -0.24063762 -0.1699766 -0.26063687 0.124273404 0.25739413 0.22783512 0.49858922 -0.25176376 0.22422847 -0.20869306 -0.13190201 0.4353417 -0.08275903 -0.2948137 0.16918045 0.3140793 0.10510515 0.20671716 0.005994171 0.18271783 -0.027835287 -0.09308214 0.13909552 -0.079695314 0.23524201 -0.07704075 -0.14336774 0.31464905 -0.124240816 0.15102533 0.25954556 -0.24731202 -0.007599065
japanimator 0.064440615 -0.10145366 -0.15976985 0.14224583 -0.004989568 -0.030329745 0.040743493 -0.102179825 0.15970477 0.015785746 -0.0942829 0.056251474 -0.07809703 -0.12757833 -0.0842206 0.09873298 -0.16417119 0.03544338 0.20312311 -0.07449301 -0.22816032 -0.03960193 -0.21209672 -0.09761091 -0.12978268 0.056098714 0.029124023 0.20554546 -0.057520434 0.0488458 0.016611055 -0.1484787 0.033482548 -0.05145906 0.03184751 -0.06577994 -0.0089996075 -0.19870344 0.11083771 -0.024986826 0.14738774 0.25378016 -0.0070667937 0.1759618 -0.09239836 0.04669621 0.064320736 0.21352188 0.030470083 0.24102199 -0.015980769 0.069726914 -0.08561084 -0.31093016 0.14820012 0.52338105 0.013085309 0.05928515 -0.38632768 -0.21109334 0.06404545 -0.20985423 0.09419056 -0.038062226 -0.18120788 0.029914372 -0.17810516 -0.1713091 -0.11351634 -0.035359528 0.07265747 0.091930784 0.11315082 0.25856087 -0.08949873 0.02961881 0.06971774 -0.026369225 0.3404873 0.0030623563 -0.27043656 -0.026093919 0.12149834 -0.04486581 0.33954322 0.04236318 -0.022422632 0.06700068 -0.038889967 0.12797159 0.04950603 0.061480854 0.09731174 -0.087120585 0.26309022 -0.08755925 0.10930266 0.15839708 -0.26867405 0.007749535
puportedly -0.16997918 0.07239901 -0.14348818 0.25312656 0.106861785 0.29358128 -0.06254549 0.0039799064 0.32270914 0.011905741 -0.042590458 0.2627553 0.15512557 -0.2733083 0.01295832 -0.0022272393 -0.2714339 0.19076583 0.15500338 -0.1260746 0.029808164 0.0921907 -0.07838026 -0.08481014 -0.012209773 -0.105998166 -0.22224392 0.23830347 -0.06011231 0.06804772 0.115583494 -0.11985364 -0.10246212 -0.07073732 0.14236845 0.03966315 -0.16615431 -0.40834323 -0.13349456 0.06557065 0.22878304 0.19183701 -0.02428468 0.11563128 -0.108751655 0.009744953 0.15241571 0.3650942 0.018185215 -0.06979184 -0.092936665 -0.03297574 0.107623465 -0.067877024 0.011458777 0.4702536 0.18842398 0.10035771 -0.33512622 -0.27025634 0.068310216 0.032946423 -0.00044465065 -0.07458682 -0.2505949 -0.13304436 0.03521107 -0.020840183 -0.07288006 -0.10459231 0.1358765 -0.038489804 0.24313816 0.24553376 -0.06005796 -0.030761175 -0.12970716 -0.14970693 0.36183593 -0.045227975 -0.25599536 -0.02039105 -0.12024787 0.07170893 0.08890894 -0.14995205 0.23469357 0.19480482 -0.47192597 -0.0071111917 -0.20700462 0.07145312 -0.06749369 -0.2896946 0.221093 -0.087481186 -0.05169463 0.14075564 -0.30669048 0.11269794
soon-to-be-forgettable 0.046031453 -0.051650777 -0.21738413 0.29730314 -0.010680236 0.09753087 0.03256549 -0.14754146 0.19908063 0.06610377 -0.11543698 0.1045409 -0.056403637 -0.17079425 -0.045347683 0.13986987 -0.23107788 0.07067766 0.29022503 -0.08903577 -0.20163624 0.003413611 -0.26676998 -0.17829546 -0.15813245 -0.004333863 0.05788522 0.30507618 -0.038271904 0.056298595 0.018152935 -0.24033475 0.025414983 -0.14342627 0.079310566 -0.11879062 -0.077085935 -0.3092556 0.064697765 0.041093364 0.26859897 0.25846234 -0.02093976 0.18737426 -0.05998024 -0.025673714 0.056800306 0.28439242 -0.044020467 0.21189089 -0.009843773 0.09811285 -0.11257431 -0.34946308 0.23627478 0.61022854 0.10322125 0.064933896 -0.39526394 -0.3406673 0.035613425 -0.2020993 0.035195716 -0.080731355 -0.19245191 0.027651478 -0.24231787 -0.27606812 -0.10688387 -0.11833072 0.047887433 0.12897268 0.18173221 0.3532948 -0.10960382 0.05773956 0.04523236 -0.05594874 0.46661454 0.012039565 -0.3588006 0.00452343 0.18120587 -0.010348801 0.3089849 0.087225735 0.038320944 0.09021047 -0.09534483 0.11804193 -0.057857547 0.09872994 0.048520137 -0.159555 0.33721602 -0.09596076 0.060715344 0.15078446 -0.24328837 0.004928032
character-who-shall 0.09198316 -0.12428624 -0.19350545 0.27962977 0.024063114 0.016903631 0.02206817 -0.09549719 0.13042858 0.030748133 -0.13047275 0.0330348 -0.08523275 -0.096944496 -0.101348825 0.1327608 -0.161176 0.059349637 0.25998673 -0.11027207 -0.26431072 -0.039978452 -0.20158306 -0.17165415 -0.21437284 -0.023160623 0.06805351 0.27944648 -0.054772098 0.08189398 0.014474926 -0.17100461 0.059826333 -0.08646112 0.06375733 -0.10368587 -0.074296445 -0.27494276 0.09373626 0.002173353 0.21629313 0.24037614 -0.05287523 0.16310933 -0.067420766 0.04727747 0.11907294 0.25001836 0.00059196074 0.27644125 -0.010386755 0.12619483 -0.11790073 -0.3861416 0.20140874 0.5396555 0.023128446 -0.027506754 -0.38409686 -0.29847825 -0.01086162 -0.20964469 0.06497301 -0.04437148 -0.19730487 0.06620101 -0.2915394 -0.27007446 -0.12245193 -0.054981142 0.038853485 0.122615635 0.15683118 0.33718055 -0.11607331 0.031965073 0.14288151 -0.0076527335 0.40833312 0.050232865 -0.3602084 0.05178914 0.18876076 -0.014274813 0.35776168 0.10186437 -0.018274246 0.031903494 -0.02840244 0.19450466 -0.03143641 0.041493393 0.037339896 -0.08164955 0.2812943 -0.070038855 0.12828949 0.25273606 -0.18879528 0.004699046
blade-thin 0.065989904 -0.011734046 -0.27058047 0.26363593 0.0034852177 0.05961511 0.05857569 -0.119681396 0.12955737 0.11715174 -0.19554149 0.05606563 -0.0020822734 -0.16742018 -0.092327565 0.23465478 -0.24698196 0.07901087 0.37324023 -0.14178081 -0.25141716 -0.05734881 -0.30914208 -0.2023825 -0.14906104 -0.05894906 0.049434382 0.32631195 -0.082287274 0.07975149 0.031302348 -0.22738358 -0.0010334402 -0.18078282 0.12880671 -0.111542925 -0.124826685 -0.29242444 0.11934242 0.07206231 0.2924615 0.29211262 0.07028701 0.25664017 0.03383308 0.018889355 0.049128897 0.26199973 -0.064468585 0.22286001 0.011401544 0.11379805 -0.1485877 -0.3336771 0.39299247 0.5771366 0.13325307 0.06865521 -0.23076248 -0.31115466 -0.0183196 -0.20517579 0.04691419 -0.100158475 -0.07414806 0.08311598 -0.33259767 -0.26390982 -0.13759366 -0.19314888 0.055443592 0.17418249 0.22897804 0.40536162 -0.18733153 0.09218394 0.04376165 -0.086597145 0.45344087 0.008019529 -0.32906908 0.011810776 0.25935313 -0.0028810315 0.23728 0.08807363 0.07871489 0.055975664 -0.09087716 0.1405483 -0.039099492 0.14262494 0.0181586 -0.21352373 0.366893 -0.15345563 0.10819213 0.18866919 -0.20307253 0.040392168
brit-com 0.066657126 -0.11749465 -0.3493836 0.18187514 -0.021542143 -0.05903664 0.11605933 -0.17909056 0.17432061 0.017690524 -0.1303572 0.109688796 -0.108900055 -0.20470697 -0.07935447 0.15973032 -0.2259927 0.10506346 0.2651158 -0.09953576 -0.27968472 -0.07727329 -0.26104295 -0.19477308 -0.09272726 0.013472322 0.017181467 0.28070346 -0.031539354 0.08602035 0.062280145 -0.17380586 0.00964329 -0.022525242 0.11309287 -0.052008286 -0.07489787 -0.2998579 0.10783823 0.032265317 0.25905997 0.31356195 0.0017630383 0.29902905 -0.08203935 0.087179035 -0.03716521 0.21476623 0.009857409 0.2687739 -0.014455925 0.09970724 -0.19340384 -0.34036356 0.3033595 0.59970194 0.08076155 0.107537135 -0.3904785 -0.27368382 0.024139887 -0.2826572 0.06630467 -0.08896698 -0.2045911 0.06171087 -0.24092185 -0.17048492 -0.17730416 -0.08907732 0.02907389 0.14726129 0.18051445 0.34934342 -0.1287249 0.10277961 0.08823001 -0.06720731 0.48010516 0.020414555 -0.27038488 -0.019692205 0.24124058 -0.05506995 0.38420781 -0.047759414 0.05560889 0.072697766 -0.15608455 0.18545085 -0.009203456 0.08883966 0.08724394 -0.17196918 0.32957274 -0.14241941 0.09081752 0.24399175 -0.28952435 0.060467407
materalism 0.032090873 0.005259685 0.082212165 0.23832753 -0.09065448 0.12721622 -0.069588035 -0.26548344 0.09766516 0.1309638 -0.26018357 0.10274474 -0.0056265146 -0.13851827 0.07047598 0.09981554 -0.19584343 0.09746912 0.25272208 -0.0021181926 -0.27999225 -0.06832174 -0.2690834 -0.16048661 -0.028401792 0.15164396 0.078618646 0.16412434 -0.10473771 -0.23034593 0.03255213 -0.18378058 -0.101714976 -0.031836215 -0.09242599 -0.03901959 -0.06602037 -0.3090728 -0.05004775 -0.1105396 0.10683632 0.23334706 -0.043688186 0.09003999 -0.18596116 -0.10587464 0.25778896 0.1782563 0.00623264 0.105791554 -0.055874325 0.20380604 -0.1334728 0.0064634383 0.14898492 0.46197423 0.16760522 -0.09288685 -0.3132215 -0.22111757 -0.021978483 -0.15536672 0.053525273 -0.012776926 -0.055844754 0.05684836 0.01723151 -0.37694988 0.06183496 -0.24400581 -0.035385557 -0.10293786 0.1518299 0.22318862 -0.15033555 0.00048618484 0.08607022 -0.0012325887 0.25683782 -0.05902242 -0.30667156 0.07041493 0.077093095 0.23183389 0.085515976 0.016567327 -0.038133956 0.03723469 -0.13955553 0.0044275075 -0.11979298 0.02210351 -0.07600121 0.019272298 0.32482028 -0.16507182 0.052493896 -0.023530453 -0.118336394 0.17839235
post-feminist 0.111232944 0.0424959 -0.20573883 0.29902482 -0.015403297 0.15082286 0.012205059 -0.28432128 -0.004996747 0.28771964 -0.3191834 -0.09131306 0.06529455 -0.29192165 -0.034105867 0.27264386 -0.20076278 -0.07203918 0.29476115 -0.19643165 -0.27051565 0.034836747 -0.21530345 -0.26361322 -0.10424277 -0.23952092 0.020380665 0.22404556 -0.056802936 0.038018405 0.0059945285 -0.2511003 -0.10736286 -0.29727837 -0.06430909 -0.093960136 -0.28168848 -0.28943267 0.08770302 0.015614992 0.2207896 0.36381894 0.08663761 0.28838122 0.12213821 -0.03792033 0.28135976 0.21829076 -0.045272283 0.093034446 0.07881837 0.05659242 -0.012206271 -0.3594665 0.46267816 0.58859247 0.06092491 -0.029700972 -0.1464597 -0.25047103 -0.07425911 -0.14324082 0.07214749 -0.018849311 0.042158097 -0.13900496 -0.36208636 -0.27769607 -0.045612887 -0.23235795 0.03776504 0.099717304 0.15508413 0.39239487 -0.29962248 0.071087815 -0.03767973 -0.108065605 0.38173082 -0.13715234 -0.38366318 0.16644628 0.3204813 0.12610124 0.11417389 0.058458026 0.032959312 0.13897462 -0.20005089 -0.051052272 -0.05055735 0.0854076 0.030403182 -0.105532125 0.26315293 -0.12647924 0.027700461 0.15896448 -0.23537287 0.0027148556
self-glorification 0.043794665 -0.042136237 -0.19188346 0.31214333 -0.04691098 0.08755329 -0.031696405 -0.14678746 0.17265135 0.08313654 -0.12027677 0.04973903 -0.012273997 -0.1436701 -0.012818005 0.18014374 -0.254381 0.15577006 0.37615103 -0.10421293 -0.32928896 -0.12722349 -0.29684746 -0.19504237 -0.155063 0.006832814 0.15657362 0.28402376 -0.07839282 -0.05908091 -0.0052827634 -0.24067238 -0.086378254 -0.22156128 0.065143354 -0.13835758 -0.041806493 -0.27994144 -0.01904763 0.024501951 0.24617827 0.2829349 0.0068344697 0.23930167 -0.0959418 -0.06664637 0.113240354 0.20466092 -0.09870898 0.19057412 0.049202982 0.17291194 -0.15984821 -0.2548686 0.31447878 0.61080647 0.2277487 -0.037874058 -0.3632773 -0.3327855 -0.0014279298 -0.21124642 0.115667276 -0.09214943 -0.067328975 0.028982582 -0.26202887 -0.37777644 0.010895386 -0.27917445 0.022569284 0.08406171 0.21987185 0.37714905 -0.117748655 0.024028696 0.040487196 -0.03931056 0.3496533 -0.00893696 -0.36928105 0.02298699 0.17458647 0.08238621 0.1744641 0.14539 0.055564865 0.009514406 -0.074782774 0.08217013 -0.12234841 0.12821281 -0.04507248 -0.09761498 0.43045175 -0.13438508 0.132864 0.098022364 -0.21507633 0.09724744
parka-wrapped 0.023240581 0.05434347 -0.20135304 0.23437719 0.031523664 0.18099497 0.023502056 -0.07965091 0.16456582 0.07109788 -0.119899414 0.12494883 0.06648095 -0.15409839 -0.04563784 0.14954236 -0.23754369 0.08074121 0.30222678 -0.15559882 -0.13992657 0.03933174 -0.20639846 -0.17453799 -0.07909648 -0.088639975 -0.033889372 0.3290503 -0.10150235 0.0631468 0.08705889 -0.19134624 -0.01847111 -0.108551875 0.13079555 -0.051075444 -0.1848406 -0.3459068 0.07224795 0.08606614 0.28311652 0.21432233 -0.020624321 0.21328157 -0.012391731 0.03563078 0.0730179 0.3291626 -0.0100163985 0.17158613 -0.08556687 0.101898834 -0.08075378 -0.2575252 0.23577785 0.57322377 0.10821513 0.10221176 -0.3118249 -0.31759718 -0.010263275 -0.07589799 0.0021390244 -0.030242287 -0.18990512 0.0047804415 -0.20893551 -0.21764708 -0.09865206 -0.14019325 0.03230957 0.10656276 0.2190904 0.34115005 -0.19085102 0.08196607 0.03513981 -0.059633873 0.46903706 -0.012322418 -0.32062718 0.011859778 0.16829266 0.059095245 0.21692257 0.0050293356 0.13918625 0.09085819 -0.22991426 0.111353174 -0.15054707 0.08841091 -0.0328805 -0.2151928 0.27382603 -0.13763341 0.041605752 0.24924928 -0.18784769 0.05893656
candy-coat 0.09308669 -0.071462125 -0.24659897 0.30561978 -0.01115828 0.08037116 0.06522851 -0.113943234 0.11664356 0.10622531 -0.19015199 0.04287178 -0.04338105 -0.1650649 -0.111891545 0.18616143 -0.19102794 0.036571044 0.36357567 -0.15251382 -0.22715032 -0.031118918 -0.26835826 -0.22180834 -0.14752032 -0.073960446 0.051099032 0.2936571 -0.072466455 0.08044262 0.0098551605 -0.24884018 0.021457575 -0.12778421 0.08468266 -0.0902359 -0.14886232 -0.3339404 0.12967968 0.01872017 0.2827119 0.26950592 0.004408121 0.22480464 0.00026623905 0.047714062 0.120750405 0.27960622 -0.047236137 0.2612605 -0.074849516 0.17014885 -0.14342701 -0.35355175 0.3017021 0.55737644 0.09934624 0.017523535 -0.28809404 -0.33886847 -0.069839224 -0.19428894 0.024245307 -0.068950064 -0.11313151 0.06148322 -0.34479898 -0.29681274 -0.12895365 -0.16242325 0.057825908 0.14683124 0.18949711 0.37915903 -0.18507254 0.10366413 0.09380194 -0.04577817 0.44849983 0.0137444865 -0.36035594 0.038886514 0.26422748 0.03400257 0.27593982 0.063528694 0.036486425 0.041710503 -0.060007934 0.16323137 -0.07680979 0.10361485 0.0066748336 -0.100978225 0.30918843 -0.114011765 0.09133027 0.22465535 -0.18267192 0.0370699
hammily -0.095698945 -0.1035711 -0.23360392 0.1826289 0.078939855 0.068874076 -0.023167945 -0.06772119 0.2659777 -0.0031578243 -0.059028976 0.20556569 0.029063985 -0.2589973 0.0315345 0.0031191632 -0.28024974 0.15522587 0.08791671 -0.108698875 -0.12897688 0.037660874 -0.02134934 -0.0594363 -0.09411581 -0.023229463 -0.11829792 0.19588691 -0.040820464 0.07471384 0.070417985 -0.15568718 0.00020400435 -0.021319982 0.033996545 -0.03076043 -0.03811552 -0.25726205 -0.048889775 0.025936829 0.16096234 0.22897428 0.015133835 0.18048948 -0.16759253 0.06049576 0.14078431 0.24332154 0.08873341 0.09180371 -0.023240626 -0.06586797 0.022302411 -0.20875625 0.06549709 0.54168123 0.08968958 0.07267546 -0.49322432 -0.22334307 0.10802801 -0.14479758 0.13654274 -0.056411646 -0.27671364 -0.084304735 0.02318567 0.0016745925 -0.16764899 -0.030719016 0.12617424 0.019250229 0.18014705 0.23975213 -0.023559839 0.031008366 -0.06896074 -0.12196091 0.34288174 0.003755927 -0.22019061 -0.008216973 -0.00820753 -0.04748642 0.27218345 -0.11816389 0.08266976 0.12914304 -0.33717668 0.072945625 -0.0028715506 0.030283812 0.056857146 -0.18874785 0.20497163 -0.054340508 0.033726275 0.16546008 -0.40974423 0.061537877
jaglomized -0.087101184 0.1140608 -0.14952318 0.16763149 0.022888917 0.2401898 -0.0024517812 -0.09063488 0.22656943 0.072711095 -0.11993246 0.18487939 0.21223168 -0.20652166 0.03260778 0.07699576 -0.24914627 0.15897611 0.23602048 -0.17856748 -0.07714867 0.027413268 -0.12206854 -0.07796208 -0.00077744573 -0.12131185 -0.100600585 0.2752043 -0.13054699 -0.0085885115 0.14413847 -0.13439524 -0.11197593 -0.07614403 0.115323186 0.0088346675 -0.19183384 -0.28331208 -0.041570526 0.06424752 0.21128821 0.19981135 0.0018027127 0.1968522 -0.026818521 0.015493352 0.13748425 0.29530242 0.056042224 0.052437082 -0.15300173 0.0692857 0.0313187 -0.096785784 0.12564805 0.5354294 0.17715932 0.09171875 -0.26996458 -0.2591023 0.028730042 0.04427789 0.03507373 -0.0142371245 -0.11507009 -0.10114357 -0.022607833 -0.119127735 -0.057301052 -0.21020219 0.059480883 -0.026439086 0.22996321 0.25438166 -0.18137437 0.049441334 -0.033584215 -0.07721913 0.3494457 -0.07170839 -0.2377077 0.0045048855 0.045277067 0.14266022 0.035896063 -0.08352149 0.17108594 0.09406556 -0.40912712 -0.005958125 -0.1979765 0.06806089 -0.11490069 -0.241372 0.25250202 -0.1686981 -0.024995685 0.15904205 -0.22633111 0.092288606
star-power 0.06232228 -0.09243286 -0.24971241 0.2545693 0.021531869 0.07481268 0.03933322 -0.12459377 0.09912301 0.11224666 -0.20471062 0.04053756 -0.028458126 -0.19173242 -0.06162934 0.13211885 -0.15290205 0.03811367 0.2825966 -0.13322678 -0.19552405 -0.056431383 -0.20371455 -0.19993275 -0.11124718 -0.05478079 0.065621406 0.26492584 -0.06858976 0.077702045 -0.02673214 -0.19039768 0.023830779 -0.09999836 0.03346713 -0.055771403 -0.12487674 -0.2780658 0.12531574 -0.009370685 0.20089906 0.28687057 0.031325944 0.23028186 -0.011804491 0.06842382 0.13107774 0.23144504 -0.060718194 0.2189561 -0.05122696 0.10650232 -0.095434174 -0.29104474 0.27693433 0.4623672 0.07562867 0.0028516352 -0.2944196 -0.24942656 -0.028510831 -0.19739461 0.026209623 0.012283113 -0.095933735 0.015180711 -0.23251802 -0.1993548 -0.06847748 -0.14196344 0.014196493 0.116897866 0.1867317 0.33011466 -0.13932356 0.12635422 0.02746541 -0.05372048 0.39617783 -0.012276024 -0.28284562 0.06573525 0.18482096 0.046049308 0.24797858 0.020463102 0.044116706 0.04798647 -0.07198546 0.07390917 -0.041103866 0.06234375 0.018387437 -0.082026735 0.29035148 -0.11716168 0.053715423 0.18545595 -0.20572555 0.05253251
still-raw 0.03430243 -0.013496317 -0.32745618 0.23923072 -0.04084725 0.095729575 0.09133442 -0.16834301 0.13201874 0.12930745 -0.20404352 0.03487669 0.014876515 -0.19593439 -0.023874741 0.22916576 -0.23194286 0.09624994 0.38531947 -0.16157725 -0.22533882 -0.079077415 -0.2677792 -0.22805741 -0.04634966 -0.08065779 0.084487006 0.35800335 -0.10939244 0.08036636 0.0128524015 -0.21440542 -0.048856504 -0.15238707 0.11503661 -0.049593374 -0.17720196 -0.31246093 0.12653461 0.039564088 0.32143903 0.3130368 0.011172377 0.3120366 0.007650271 0.020285375 0.08907155 0.24201986 -0.107673176 0.20618042 -0.049814217 0.10554457 -0.118844934 -0.3101112 0.43767953 0.5471501 0.17670292 0.058733672 -0.25243673 -0.2891955 -0.08395417 -0.21086232 0.018290862 -0.040275276 -0.031450436 -0.015726838 -0.288215 -0.27635992 -0.08421418 -0.25226894 -0.023016363 0.1323822 0.2678731 0.38925293 -0.19663596 0.13909815 0.011035824 -0.08120833 0.46777686 -0.036330096 -0.30797493 0.04624876 0.2882247 0.068318084 0.21904391 0.040406615 0.14847893 0.042041924 -0.17555924 0.11362135 -0.12721448 0.13611041 -0.0068664476 -0.17164734 0.36347765 -0.16600774 0.034414366 0.19947311 -0.19352451 0.083263285
bone-crushing 0.08910087 -0.033045515 -0.26341343 0.26314694 0.019730754 0.06513592 0.01838597 -0.12186982 0.13241735 0.11165568 -0.1867277 0.051627077 -0.006611556 -0.1745126 -0.072235145 0.22848096 -0.2593152 0.06232633 0.39848804 -0.14873564 -0.26665062 -0.021463491 -0.24526674 -0.19425914 -0.14491616 -0.082566135 0.020561706 0.32141 -0.1190021 0.065704495 0.033538252 -0.27166945 0.0019469708 -0.17806461 0.070305966 -0.12771738 -0.14106536 -0.31204602 0.101557285 0.06346804 0.2949689 0.29450712 0.04092127 0.25861588 -0.024391688 0.06792167 0.09338009 0.25034538 -0.021807065 0.23187396 -0.009427338 0.11133612 -0.15682119 -0.35274786 0.3363921 0.6544187 0.16332345 0.046885222 -0.32613567 -0.34161192 -0.022212729 -0.19246255 0.11591713 -0.061456773 -0.17024212 0.079726905 -0.29108277 -0.2534169 -0.14537461 -0.19581428 0.04629214 0.14695995 0.18223953 0.3860513 -0.20763534 0.101545006 0.059753843 -0.081169605 0.45319358 0.026938695 -0.3249785 0.03930295 0.25078228 0.032853197 0.26305935 0.07140464 0.08359143 0.08242792 -0.14040521 0.13532183 -0.036997817 0.13796045 0.011406004 -0.21003474 0.32994965 -0.14999032 0.09976602 0.20837922 -0.20977288 0.07486888
pseudo-educational 0.07876013 0.018317938 -0.22245052 0.2965237 -0.0059939455 0.088241585 -0.010042433 -0.12194941 0.15305495 0.14171931 -0.15652272 -0.0011665821 -0.004230477 -0.15081684 -0.015920103 0.24581507 -0.23407838 0.08558687 0.37330583 -0.066864155 -0.2641934 -0.052565437 -0.26639462 -0.19148731 -0.19073164 -0.08064808 0.13819835 0.31705648 -0.1096808 0.056582008 0.01254262 -0.25509864 -0.038529657 -0.23300883 0.098245695 -0.13900381 -0.09321466 -0.25616574 0.07197717 0.070593484 0.26248467 0.2858226 0.02639962 0.20147254 0.013309367 -0.026372954 0.0900187 0.2259945 -0.12832843 0.20942205 0.08017339 0.09078282 -0.105414785 -0.3743406 0.36873507 0.6019163 0.17969409 -0.0060239136 -0.23670593 -0.30167085 -0.012394711 -0.20304102 0.071797386 -0.08485918 -0.0655286 0.035899352 -0.2923514 -0.3353113 -0.034249946 -0.21521068 0.015970778 0.12904684 0.21618783 0.38337553 -0.14297564 0.04976868 0.04824584 -0.050581172 0.38498217 -0.022399846 -0.36337706 0.039386813 0.23284757 0.03925922 0.2021792 0.18835142 0.07399336 0.07314405 -0.058681514 0.08659281 -0.069166794 0.14943719 0.0072617233 -0.20983592 0.36691672 -0.11382116 0.08039977 0.11293446 -0.17019854 0.03812573
modern-office 0.08247203 -0.021929227 -0.2639644 0.30858052 -0.0007632971 0.11575867 0.06773831 -0.1115218 0.12075931 0.11535852 -0.14893451 0.038264718 -0.04308054 -0.16109884 -0.079221375 0.20654559 -0.18105182 0.032790404 0.351152 -0.1186571 -0.21337003 -0.037467334 -0.27863634 -0.21322939 -0.13502158 -0.1015366 0.097657904 0.33145654 -0.07622363 0.09382373 -0.025414273 -0.21483812 0.013223562 -0.16239092 0.11738446 -0.11985272 -0.13154605 -0.30055302 0.13704202 0.090454064 0.30561185 0.2601603 -0.0028936267 0.23764828 0.032043524 0.0065858057 0.047103733 0.27378613 -0.11280915 0.22431874 -0.0065733725 0.14487825 -0.121263854 -0.36162168 0.32010728 0.52664864 0.1104604 0.04798943 -0.2539038 -0.33224845 -0.029812045 -0.21656278 0.011497766 -0.061206743 -0.110442996 0.03573831 -0.34969112 -0.28474325 -0.08928478 -0.14789777 0.0030291378 0.18103859 0.19306654 0.373832 -0.14691395 0.07935386 0.051669516 -0.066317715 0.44187018 -0.014070772 -0.3671311 0.024891194 0.25044727 0.025643047 0.27179074 0.101314135 0.094797045 0.0632557 -0.05542144 0.10697003 -0.09630367 0.11753844 -0.00856673 -0.16010542 0.33150762 -0.11842768 0.077205464 0.17518038 -0.16674627 0.013014918
skate\/surf 0.09265797 -0.027555801 -0.17605162 0.27007756 -0.043769974 0.03616014 0.05118629 -0.07151799 0.17242086 0.016127639 -0.007275826 0.024236567 -0.072149545 -0.13476282 -0.12789448 0.17039481 -0.17850228 0.003869854 0.2973324 -0.109238386 -0.19632863 -0.023364294 -0.31128138 -0.18324944 -0.20475346 -0.06375473 0.072839886 0.3053831 0.0031686332 0.09529954 0.01812842 -0.15114926 0.016133215 -0.14291334 0.08193876 -0.13657954 -0.11903 -0.26872182 0.06708197 0.07116777 0.27359796 0.22513925 -0.06048235 0.17297138 0.01205311 -0.032233495 -0.015439099 0.2682049 -0.06519769 0.19211109 0.026479445 0.11123196 -0.13323653 -0.37909034 0.2439616 0.58378315 0.06704981 0.070666954 -0.27092898 -0.37446088 -0.024531692 -0.20283052 0.007100351 -0.1045561 -0.1871086 0.09202879 -0.4068755 -0.25042745 -0.11663638 -0.049814507 0.09051007 0.18254408 0.12427832 0.34580386 -0.16074854 -0.0077156173 0.11261667 -0.046545092 0.4297362 0.0015184954 -0.38569367 -0.065606825 0.2647518 -0.049250863 0.3166705 0.16291624 0.053236686 0.09838665 0.0012186095 0.26360548 -0.029439993 0.15566617 0.06621143 -0.17694566 0.3093295 -0.1059764 0.1526468 0.23837322 -0.16292496 -0.052241944
scuzbag 0.08367668 -0.15049788 -0.15404576 0.20913686 0.006787598 -0.01601008 0.043525904 -0.01777308 0.19309016 -0.011702731 -0.089410834 0.076215744 -0.1180693 -0.07136807 -0.121882565 0.096512794 -0.17021926 0.05811757 0.25410378 -0.09578622 -0.20080048 0.035527498 -0.20459417 -0.09129183 -0.22836274 0.043162055 0.017522555 0.25086144 -0.06721763 0.056235712 0.02704009 -0.24639335 0.12156724 -0.049616992 0.06609176 -0.13701467 0.0072702966 -0.2142364 0.10132176 -0.039242297 0.2179597 0.20952459 -0.08090203 0.12870581 -0.11432518 0.065134495 0.09304346 0.24393493 0.05518724 0.31210446 -0.055483863 0.09486956 -0.14596091 -0.40725476 0.1074492 0.54890954 0.011691816 0.053019226 -0.43438712 -0.29290193 0.024195667 -0.21751156 0.085961215 -0.10041279 -0.25298005 0.112465784 -0.23816322 -0.23059288 -0.18966267 0.005308084 0.09889288 0.14288919 0.09452683 0.27644253 -0.08954476 0.029804792 0.14375705 -0.010292986 0.41264617 0.085524045 -0.3018648 -0.011195105 0.1447716 -0.07028337 0.41598177 0.09308231 -0.063821465 0.087083116 -0.008105859 0.23388624 0.05328457 0.051084135 0.0846704 -0.088820785 0.24175845 -0.030153133 0.12951228 0.23195294 -0.20275992 -0.008808359
teen-driven 0.029531911 0.08815562 -0.31065947 0.2497233 0.011116564 0.12830819 0.114511624 -0.12942293 0.08455013 0.17693065 -0.23390335 0.07288372 0.019410618 -0.16748145 -0.015377786 0.26885533 -0.24479708 0.090504944 0.39829922 -0.14165294 -0.17203268 -0.06365577 -0.29011437 -0.16044626 -0.017852634 -0.100389294 0.045820676 0.35121834 -0.1286521 0.065553665 0.0012962632 -0.2146787 -0.020239346 -0.21660541 0.15991212 -0.07539356 -0.16230199 -0.2888603 0.17475559 0.14741877 0.3618462 0.25756094 0.08459581 0.285106 0.066880666 0.020985428 0.041266203 0.23703635 -0.09947503 0.17802528 -0.029425729 0.09475953 -0.09417297 -0.26495224 0.4338281 0.47952464 0.19687773 0.0777702 -0.14722776 -0.3110447 -0.044192962 -0.19985837 0.014620461 -0.058131896 -0.027689695 0.0418311 -0.29225567 -0.227916 -0.12827805 -0.27477798 -0.025680788 0.17943978 0.26881808 0.41123053 -0.21312487 0.11386302 -0.0120673925 -0.10948539 0.44983453 -0.039097406 -0.28043228 0.028443169 0.27055892 0.04673827 0.17408364 0.080708995 0.19146742 0.04656268 -0.14880879 0.0751999 -0.11922176 0.18848804 -0.059641287 -0.2711227 0.35275328 -0.18510213 0.055629753 0.13504566 -0.16783282 0.049371056
melodrama\/character 0.08431392 -0.04942384 -0.15619189 0.1802603 -0.033458706 -0.013957584 0.05940869 -0.10403504 0.15866584 0.003897857 -0.05097552 0.043152295 -0.0877602 -0.08574647 -0.110643715 0.15450278 -0.1558692 0.02956386 0.23546794 -0.056260493 -0.24210252 -0.036005355 -0.27923787 -0.11025198 -0.16185701 0.007786719 0.04851517 0.24523522 -0.037106536 0.053076476 0.03498332 -0.120219156 0.016524721 -0.08073523 0.08421314 -0.098602176 -0.035522435 -0.22366029 0.093281984 0.04100719 0.22836664 0.237535 -0.048012506 0.16943106 -0.043176405 -0.0006285086 -0.018138452 0.23664999 -0.00053298846 0.23943332 4.7449954e-05 0.12181919 -0.114482805 -0.3415587 0.16316964 0.5519199 0.038271107 0.072530106 -0.3453024 -0.29067373 0.032817334 -0.22025092 0.057503585 -0.08534309 -0.20592116 0.0858314 -0.2885908 -0.22749224 -0.12045077 -0.027380759 0.060794044 0.13839616 0.106987216 0.2850745 -0.12259086 -0.028094199 0.11371338 -0.02783983 0.37196192 -0.000617262 -0.33342057 -0.056890044 0.1825181 -0.042363312 0.34691194 0.09341201 0.017758131 0.06816192 -0.029969305 0.18756019 -0.0065534227 0.09103735 0.0630488 -0.13740091 0.29536182 -0.09751197 0.14734495 0.17051151 -0.2131764 -0.030456409
she-cute 0.057507053 -0.10452807 -0.22446564 0.1577743 0.0080317 -0.009111569 0.06306228 -0.09657365 0.13578063 0.03196354 -0.12378084 0.124949336 -0.04500174 -0.12340525 -0.069250725 0.15279669 -0.16574582 0.06645008 0.24671023 -0.12230007 -0.1889478 -0.03823638 -0.21705616 -0.120884195 -0.09418956 0.024409186 0.011458246 0.28295386 -0.08579659 0.07763511 0.0077778213 -0.13426822 0.0652936 -0.02307209 0.06221548 -0.030764867 -0.059107576 -0.25500315 0.11084692 0.03414399 0.21124499 0.2558642 -0.014547642 0.22134149 -0.048197217 0.0918818 0.010174633 0.23843202 0.03860405 0.2444209 -0.056710884 0.10629118 -0.10366002 -0.29710498 0.20181546 0.4771132 0.085307896 0.07500688 -0.3516118 -0.2532164 0.026713127 -0.19543643 0.051857367 0.0051458627 -0.20066287 0.046776105 -0.18595192 -0.18961005 -0.15195869 -0.08022842 0.027794939 0.11566745 0.1705429 0.26645732 -0.1073444 0.09024224 0.044995915 -0.035812866 0.39703622 0.01642916 -0.25612882 0.013705071 0.17581305 -0.02857193 0.29967812 0.0017484054 0.037781075 0.029737283 -0.070921764 0.14518845 -0.017094206 0.08567162 0.04435244 -0.11784575 0.31177592 -0.1314408 0.08490713 0.16639754 -0.22344065 0.03927607
doshas 0.049394388 -0.13136664 -0.23905516 0.09081142 -0.0010777935 -0.06544249 0.0147502795 -0.09705664 0.18773995 -0.10189599 -0.025042735 0.07163912 -0.04763112 -0.03599874 -0.030782126 0.034725666 -0.25677443 0.16618685 0.106526725 -0.04796114 -0.20233415 0.009721338 -0.15879866 -0.070170015 -0.21473807 0.0061485814 0.042668857 0.21965955 -0.0066503566 -0.009878825 0.10396768 -0.29591626 0.00036225468 -0.049100067 0.08319813 -0.12878942 0.060308628 -0.16797143 0.039727543 -0.002870895 0.16480061 0.21005505 -0.09087502 0.14993474 -0.12770145 -0.0031801593 0.010517982 0.20769773 0.048444606 0.2904874 -0.024173237 0.060738824 -0.16655809 -0.32060394 0.15098737 0.7014339 0.05740155 0.09888308 -0.5256244 -0.18169667 0.0033099726 -0.18102933 0.16894928 -0.080855116 -0.2651312 0.075696245 -0.14223 -0.16484076 -0.15560687 -0.07661368 0.05277504 0.12777194 0.10080817 0.22538143 -0.10965109 0.048329137 0.04837553 0.005910445 0.39249146 0.037387356 -0.21720974 -0.070484325 0.096007556 -0.09296614 0.3231789 0.040356204 -0.050959893 0.11014807 -0.12893713 0.1868676 0.018234238 0.029381394 0.10040842 -0.14770305 0.17123154 -0.060062952 0.040784404 0.16949113 -0.29456422 -0.008712073
self-serious -0.012209773 0.0035359263 -0.21086386 0.26203525 -0.05806719 0.1707176 -0.02345011 -0.20107198 0.21171832 0.09911767 -0.18928948 0.022375785 0.07301557 -0.24233556 0.006383136 0.14187518 -0.22847429 0.14855243 0.3286301 -0.05348551 -0.18674615 -0.03372054 -0.18404314 -0.18515271 -0.077316925 -0.00894222 0.05048449 0.24112763 -0.10233845 0.030557372 0.019576559 -0.25469136 -0.084029175 -0.23518029 0.029095672 -0.07718283 -0.11174944 -0.27821934 0.0464115 -0.024177313 0.20064296 0.3492908 0.08502207 0.21378905 -0.0433634 -0.04561774 0.20210518 0.2221905 -0.08745081 0.20525339 -0.06967104 0.06164129 -0.022033535 -0.2560335 0.24091554 0.57632935 0.25129542 -0.039127998 -0.39117378 -0.2842364 0.013183821 -0.123150796 0.0771501 -0.048565473 -0.026948422 -0.07011622 -0.11963437 -0.27216762 0.013475135 -0.29449043 0.049440026 0.012128726 0.23486584 0.34917438 -0.10981861 0.1022792 -0.026862785 -0.043735325 0.35900694 -0.089874096 -0.28025472 0.05722614 0.12893872 0.12966283 0.1510111 0.0064272955 0.08592479 0.025657587 -0.23313713 -0.029808074 -0.111079186 0.08085891 0.022248276 -0.14514846 0.3641871 -0.13151939 -0.011583567 0.059498638 -0.2955778 0.08859139
dullingly -0.19458568 0.043567367 -0.12867567 0.22638312 0.079600155 0.26592198 -0.07133964 -0.012660604 0.29995406 0.04388542 -0.11926023 0.25015178 0.15266928 -0.30299366 0.03545753 0.043305565 -0.27855152 0.18125352 0.19635203 -0.12700137 0.02131392 0.118526824 -0.035729468 -0.11916556 0.0035678595 -0.044061743 -0.22399954 0.2293485 -0.12655824 0.08199252 0.07761976 -0.15237454 -0.07105225 -0.09468006 0.07823068 0.0197011 -0.16166465 -0.3924209 -0.100979626 0.05518294 0.22057703 0.22512713 -0.0004190132 0.16084799 -0.11973026 0.0355795 0.23126736 0.35905185 0.037343964 -0.046666667 -0.06755159 -0.09468543 0.101143815 -0.13697849 0.05659852 0.44436276 0.23338129 0.08644687 -0.36491716 -0.2858997 0.091526374 -0.005428657 0.030863531 -0.07032076 -0.20718761 -0.1648726 0.074935466 -0.026773825 -0.10663292 -0.12813288 0.13126317 -0.03926903 0.22665817 0.25059792 -0.028337214 -0.0018696124 -0.14339477 -0.18245165 0.37035295 -0.059061863 -0.2523387 0.039288845 -0.07206425 0.06303044 0.104447275 -0.16326165 0.21852452 0.15455759 -0.44317472 -0.011964917 -0.17701666 0.05854495 -0.028385796 -0.23755307 0.26562893 -0.09276283 -0.036875874 0.09725746 -0.33703375 0.17605366
self-glorified -0.010306641 0.097046815 -0.24399169 0.25646973 -0.016613537 0.19924383 0.009638358 -0.16008276 0.2101469 0.097100064 -0.1725356 0.052605066 0.07892297 -0.17284006 -0.020427756 0.19110343 -0.24097405 0.12147902 0.37092823 -0.075823046 -0.16819088 -0.021319002 -0.26117787 -0.19891334 -0.07023874 -0.06542178 0.057460576 0.3157939 -0.13168857 0.07173322 0.049029514 -0.2250385 -0.10050788 -0.2262214 0.1504978 -0.07825032 -0.15942758 -0.32609034 0.084197044 0.065480016 0.29156744 0.27563697 0.036344297 0.23406827 0.00521224 -0.037098695 0.0738487 0.31671426 -0.11675342 0.19275707 -0.0634273 0.09175622 -0.036254507 -0.28324553 0.30724508 0.60245305 0.21531814 0.06323969 -0.31174585 -0.3273653 -0.0082604475 -0.12953395 0.03431719 -0.07603125 -0.06657751 -0.049171504 -0.21276876 -0.2636857 -0.0059794635 -0.25704995 -0.0013621375 0.09028897 0.26858836 0.37713528 -0.15072009 0.076442845 0.007746175 -0.06306755 0.42444512 -0.06838285 -0.33694494 0.000714127 0.17866793 0.09224065 0.16396388 0.063654035 0.16874605 0.04654855 -0.21697392 0.019898593 -0.16952872 0.11085978 -0.023478076 -0.21662945 0.3646791 -0.13715386 0.009755008 0.107926525 -0.23454453 0.07217506
plaintiveness 0.08608279 -0.006202504 0.086821064 0.26881033 -0.1206941 0.16365585 -0.11719036 -0.22660136 0.086996436 0.23248562 -0.27161044 0.24937516 0.012750894 -0.21725816 0.063188195 0.15024284 -0.3898878 0.16283855 0.35237867 -0.056783874 -0.36220348 -0.058801245 -0.2850082 -0.23610842 0.0014560968 0.1721361 0.11878018 0.24305394 -0.14207354 -0.3719293 0.049147874 -0.36040297 -0.04765322 -0.1003484 -0.11172733 -0.104678646 0.0241861 -0.3293163 -0.07580727 -0.01311747 0.21792555 0.22039287 0.004643284 0.15380573 -0.2476125 -0.05834851 0.27762264 0.2099512 -0.0040698517 0.08992833 0.05249109 0.11664183 -0.25986147 -0.029721051 0.32560757 0.66293687 0.28604335 -0.072194844 -0.39824137 -0.27405024 0.045229457 -0.23455459 0.22670586 -0.083897196 -0.110348225 0.049256228 -0.028268695 -0.48140937 -0.01877746 -0.4083648 0.029185783 -0.007979557 0.16432926 0.3012542 -0.112489656 0.14021882 -0.06954821 -0.10086863 0.3388733 0.07651158 -0.3394694 0.16518086 0.18182546 0.20375086 0.0860609 -0.0007036254 -0.013521099 0.050319336 -0.15765978 0.02427879 -0.07962026 0.12569425 -0.02746372 -0.065709606 0.39364618 -0.20316039 0.092534296 -0.051162228 -0.20968008 0.28520453
culture-clash 0.058680855 0.043937318 -0.2311315 0.29220274 0.027747195 0.112822056 0.036925234 -0.11253929 0.08755367 0.14950475 -0.20202775 0.03907214 0.007938102 -0.1348932 -0.06291663 0.24337518 -0.22767301 0.052811116 0.3566898 -0.11900179 -0.22024849 -0.030224785 -0.2787526 -0.19946557 -0.12784511 -0.077380724 0.045250643 0.3388682 -0.106764995 0.08516283 0.012973759 -0.20630115 0.013387667 -0.19349363 0.13118163 -0.116876796 -0.16726094 -0.30403656 0.14423665 0.102668375 0.3134795 0.2593253 0.03571392 0.21352544 0.035058714 0.004587778 0.082772516 0.28363776 -0.071277164 0.20898812 0.007343727 0.1108297 -0.103211835 -0.3208529 0.37065423 0.55411816 0.1178541 0.03414341 -0.21633218 -0.3223861 -0.040970013 -0.17659035 0.031638443 -0.06287943 -0.099087045 0.07297024 -0.31446442 -0.28133976 -0.12472454 -0.19010067 -0.00018697977 0.15778103 0.2356993 0.3980431 -0.19678703 0.0668327 0.06025909 -0.0799994 0.462013 -0.01393307 -0.34781075 0.046190057 0.24813974 0.024382453 0.23904347 0.11708279 0.10532448 0.07107412 -0.09646138 0.12594585 -0.09176904 0.14667365 -0.026265323 -0.23702917 0.32588166 -0.15149832 0.105469204 0.19432677 -0.14792597 0.03280869
too-long 0.0569051 -0.17856565 -0.20391324 0.18361488 0.124977425 -0.0032638079 0.047213912 -0.06843405 0.094988465 0.15569697 -0.14166631 0.16047928 -0.030683473 -0.17786673 0.031933315 0.18935817 -0.20411362 -0.027454175 0.20772293 -0.25960562 -0.15044472 0.04099694 -0.22801822 0.015249997 -0.18059576 -0.060826816 -0.00960543 0.3639676 -0.049888894 0.04699625 -0.13278186 -0.16208537 0.10397616 -0.08264328 -0.059454855 -0.1672644 0.0028653173 -0.1689373 0.08769687 0.04632561 0.2525276 0.29148582 0.038660817 0.27541193 0.046802543 0.010095054 -0.015307227 0.24472053 0.03085338 0.13470694 0.0031171022 0.115257315 -0.0710856 -0.2897555 0.33469966 0.47396958 0.027914727 0.20062163 -0.29963824 -0.23172311 -0.03804776 -0.29622024 0.112480156 0.09140816 -0.25186777 0.058218557 -0.21715313 -0.09533475 -0.23593412 0.014369041 0.0049469694 0.16823325 0.21033064 0.20187584 -0.17976582 0.12366679 -0.15257952 -0.11002211 0.4478407 -0.04612401 -0.19113988 0.02546746 0.2000111 -0.047623448 0.26676172 0.024449114 0.028021991 0.22343877 -0.06041536 0.0783722 0.15833183 0.09096631 0.0008443147 -0.12037569 0.3174409 -0.15015414 0.074144915 0.08804681 -0.23017828 -0.05752562
armenian-canadian 0.14942113 0.021795899 -0.13811007 0.3057936 0.010627411 0.14687732 0.041411478 -0.20583537 0.12142792 0.2764441 -0.0828604 -0.13303974 -0.026901968 -0.32696047 -0.011770183 0.17592469 -0.09570499 -0.09292445 0.30215487 -0.20367356 -0.24478152 -0.0012728833 -0.14820889 -0.24759054 -0.100085504 -0.27546543 0.14638552 0.29513052 -0.11954195 0.09407967 -0.039136264 -0.17436817 -0.066713296 -0.20604439 -0.008919548 -0.17569204 -0.16029927 -0.15277225 0.17161623 0.07124734 0.18520607 0.33865076 -0.022173092 0.19939584 0.105402924 0.010438528 0.17810324 0.2270593 -0.12264893 0.12768376 -0.03212427 0.16150907 0.057987727 -0.4429269 0.2544939 0.5815049 0.02163672 -0.08120842 -0.119478524 -0.25122902 0.008654118 -0.18364131 0.1105579 0.06605522 -0.09718642 -0.19494621 -0.36588085 -0.33200228 -0.059212297 -0.13289323 -0.003964223 -0.00825049 0.13483287 0.28036913 -0.17610636 0.09391728 0.036504276 -0.0136213545 0.37020445 -0.19959402 -0.3336367 0.18445848 0.355632 0.13047974 0.23049407 0.08268575 0.09008441 0.21244738 -0.039949097 0.0010868311 -0.075413495 0.104151234 -0.037316605 -0.13228884 0.24907675 -0.13272078 -0.018708818 0.174752 -0.09366557 -0.06470282
shakesperean 0.09879835 0.015475631 -0.06718804 0.16910534 -0.036151163 0.09432548 -0.011232421 -0.15027088 0.0970007 0.1519351 -0.20345889 0.017017812 0.005459219 -0.1576649 -0.08741483 0.14826423 -0.15809174 -0.03437739 0.25400096 -0.09894627 -0.21220022 0.02113511 -0.19494626 -0.1652894 -0.09982273 -0.03702715 0.007424431 0.21053798 -0.122707956 0.0007262146 0.03562855 -0.19261938 0.030062668 -0.12942874 0.01507359 -0.09586745 -0.093823984 -0.19799912 0.1628064 -0.036294013 0.14413899 0.2675882 0.034436718 0.12924391 -0.001703836 0.033319175 0.15117562 0.2831179 0.012450568 0.19966665 -0.07500647 0.081200115 -0.0422652 -0.29728907 0.20825055 0.542676 0.0013362356 -0.0059208646 -0.22843939 -0.21643476 0.008414216 -0.14044838 0.09069571 -0.011403888 -0.0829902 -0.0071345754 -0.2226893 -0.23938872 -0.09172746 -0.12827459 0.03666554 0.05417625 0.1479244 0.2645697 -0.17935522 0.08486512 0.067606494 -0.06036571 0.3537305 -0.056716047 -0.2955359 0.079993024 0.20962071 0.062049944 0.22490764 0.030015655 -0.01403545 0.086924724 -0.045616306 0.06821903 0.017723698 0.058067705 0.06069554 -0.09832154 0.22273774 -0.13012968 0.060099266 0.093585506 -0.18193138 0.016750218
bollywood\/hollywood 0.049613565 -0.08110302 -0.11649075 0.17356028 -0.031206228 -0.0237602 -0.021568652 -1.6920269e-05 0.1947955 -0.16934773 0.11440908 0.054215483 -0.122799054 0.0502832 -0.13056493 0.14452532 -0.0746835 0.013534132 0.12477652 0.0015018843 -0.16207416 -0.0013271468 -0.2568745 -0.08497638 -0.23201312 0.08069256 0.08553542 0.28159255 0.0010559298 0.16035873 -0.063348964 -0.030537799 0.103834346 -0.024545621 0.1150049 -0.17797181 -0.011686324 -0.1946819 0.09696685 0.05403613 0.19802532 0.122049674 -0.18345457 0.03401418 -0.07803409 -0.063089415 -0.14916599 0.28851897 -0.022487061 0.28887925 0.12692222 0.09056203 -0.11297536 -0.3824643 0.0661815 0.44179383 0.0063833147 0.13190517 -0.3746439 -0.28453237 0.036124244 -0.21325672 0.0329827 -0.06552917 -0.29341763 0.10005216 -0.27077085 -0.16519466 -0.07717114 0.12598595 -0.012275122 0.18815373 0.10787828 0.17572686 0.0009873882 -0.14069007 0.18771398 0.0070990287 0.3376191 0.0034524575 -0.3290855 -0.17001545 0.092426516 -0.18494153 0.41131443 0.21338347 0.02502029 0.10006506 0.08413303 0.25442025 0.008339453 0.09787418 0.114834026 -0.11147615 0.23850054 -0.018465698 0.19090843 0.12726109 -0.15379807 -0.07170516
action\/effects 0.0934415 -0.0041503757 -0.21235086 0.2075116 -0.030286105 -0.018475085 0.028161883 -0.16826534 0.17049095 -0.01669171 0.021578068 -0.0020569935 -0.007934451 -0.10135783 -0.06671693 0.14968927 -0.23934294 0.13124365 0.22627279 -0.0854317 -0.26560032 -0.06591838 -0.26242766 -0.15599585 -0.20451024 -0.13716492 0.09824616 0.32872957 -0.009143062 0.03209733 0.1195357 -0.17960183 -0.11732157 -0.13093871 0.102642596 -0.122108094 -0.07559277 -0.27294004 -0.001813937 0.0702517 0.26395467 0.25702667 -0.13661334 0.19416822 -0.039096832 -0.06434409 -0.007367177 0.24071696 -0.026318131 0.20560846 0.019211054 0.13252498 -0.1434057 -0.3614745 0.28627962 0.77419025 0.10845883 0.026315432 -0.35320228 -0.27698845 -0.06982082 -0.15324263 0.13161461 -0.0723581 -0.22851288 0.03773664 -0.34778818 -0.2813973 -0.09787237 -0.14669003 0.012109023 0.065349445 0.14644061 0.30943245 -0.18072054 -0.002805476 0.10809976 0.003853349 0.43496487 -0.03828247 -0.3394929 -0.039314907 0.24940568 0.011283454 0.28024393 0.0808705 0.061674215 0.1433152 -0.16125968 0.22901455 -0.08349776 0.12580234 0.025350101 -0.24583562 0.23960197 -0.13652852 0.057658438 0.2563994 -0.16524835 -0.0005617421
elegiacally -0.19154328 0.07711651 -0.09944499 0.27394617 0.06144305 0.31444022 -0.07426785 -0.025172375 0.33092174 0.042264234 -0.041087918 0.22066301 0.19774579 -0.33180216 0.042051047 -0.043559857 -0.23090789 0.1994943 0.13542132 -0.107716516 0.042279094 0.06256773 -0.055871606 -0.06886137 -0.009309389 -0.15376835 -0.16289188 0.20592517 -0.07087054 0.049487345 0.097802356 -0.11387652 -0.17528376 -0.09219481 0.10987751 0.042468026 -0.14762661 -0.3509948 -0.18512507 0.024281006 0.16972318 0.22407795 -0.048952743 0.120963424 -0.085065454 -0.04507789 0.2369665 0.32947612 -0.031561904 -0.12832265 -0.071214676 -0.05193478 0.19434616 -0.06504385 -0.036688305 0.43760145 0.22133686 0.024986293 -0.27792126 -0.23196939 0.07924126 0.06141253 0.0063692853 -0.077536836 -0.15621205 -0.23783949 0.0664877 -0.045969613 0.0020547658 -0.15934792 0.13771686 -0.12169759 0.20387796 0.19604278 -0.010598347 -0.071983725 -0.16196364 -0.13775685 0.24003704 -0.11681009 -0.26153147 0.001335945 -0.15024146 0.12917812 -0.0014520884 -0.1431793 0.21905504 0.19194141 -0.4903338 -0.113283545 -0.22698607 0.060662128 -0.0880322 -0.25371605 0.23074457 -0.08732876 -0.100094065 0.06393361 -0.29250467 0.108888306
cliché-riddled 0.09132047 -0.14883271 -0.19873157 0.2779193 -0.013085451 0.059573773 0.038845763 -0.04230204 0.20396551 -0.053139843 -0.029620495 0.09210106 -0.08204909 -0.07698152 -0.12667468 0.08959077 -0.18088624 0.081284255 0.23321888 -0.08025393 -0.20837416 0.02077809 -0.23677436 -0.13217196 -0.23653406 -0.006495608 0.02752163 0.25527462 0.0028241575 0.060879223 0.027722802 -0.22009549 0.0739592 -0.07746045 0.097614184 -0.118319176 -0.012888554 -0.28644115 0.05191948 0.016905699 0.23010461 0.20112431 -0.067667075 0.13543735 -0.06340121 -0.0050926376 0.048219256 0.2686199 -0.012860643 0.29365215 -0.03336861 0.14048764 -0.14127585 -0.364501 0.10750784 0.56923175 0.042781554 0.07072213 -0.45382106 -0.30009574 0.029878847 -0.17976685 0.025645435 -0.10609802 -0.24184187 0.076578856 -0.2903536 -0.28266054 -0.12341581 -0.005511742 0.122616656 0.17526984 0.11296451 0.31733438 -0.07096703 0.022045622 0.08893748 0.0011322591 0.40146217 0.07222736 -0.37101212 -0.041177616 0.11886231 -0.059747055 0.36908606 0.077059895 -0.04530882 0.05435466 -0.05834532 0.17622507 -0.039594393 0.04511981 0.06810543 -0.081988975 0.2766437 -0.0339451 0.084852904 0.21083285 -0.25718734 -0.03834979
cheap-shot 0.06808931 -0.0011723638 -0.19604164 0.24358545 -0.0323255 0.081928216 0.057393134 -0.11132857 0.12544572 0.111893535 -0.17080067 0.07493448 -0.022975072 -0.117598265 -0.07815246 0.20412737 -0.192299 0.04421897 0.3488661 -0.10434358 -0.17142342 -0.003260605 -0.3150581 -0.17386812 -0.09174908 -0.001950888 0.028821163 0.2936033 -0.096960545 0.060015693 0.024198376 -0.23346394 0.024586344 -0.12718557 0.118156806 -0.06961724 -0.13581231 -0.30788368 0.12625913 0.021847423 0.28607148 0.24359125 -0.007164791 0.18124951 0.004396647 0.024069738 0.028593231 0.2835654 -0.042826988 0.23216918 -0.07155968 0.13931519 -0.11425185 -0.29023236 0.2697201 0.52026236 0.1302707 0.07038691 -0.22686449 -0.29982802 -0.058188654 -0.17012738 -0.00040203333 -0.08306719 -0.121360466 0.06305212 -0.27502674 -0.30510777 -0.115626626 -0.17178723 0.019686807 0.14081934 0.20443726 0.324021 -0.18104127 0.0784774 0.079201244 -0.042864803 0.4104038 -0.016563978 -0.31008342 0.0052072965 0.23469621 0.007228013 0.22541842 0.086946025 0.05729256 0.06053391 -0.057989947 0.13339858 -0.08720963 0.15594855 0.022116974 -0.1498096 0.32371294 -0.13381232 0.08171532 0.13348532 -0.15140574 0.032277644
snap-crackle 0.026233975 0.0037082955 -0.24102123 0.27916518 -0.019498194 0.10855347 0.029756706 -0.13587308 0.1770132 0.08525987 -0.12789252 0.093226664 -0.04178857 -0.1707991 -0.03472135 0.16983718 -0.21590653 0.07609976 0.30946782 -0.079307556 -0.18624528 -0.026563164 -0.2758981 -0.21085504 -0.10835449 -0.004202293 0.06543732 0.30004966 -0.051643763 0.07448183 0.013698857 -0.21455549 -0.0023226254 -0.14215925 0.10346006 -0.0948945 -0.11687292 -0.3332846 0.09387574 0.050170995 0.28037992 0.25993788 -0.010481931 0.20551352 -0.036623754 -0.0005594678 0.034115873 0.2914451 -0.08215403 0.2145375 -0.0041299285 0.10584862 -0.12736207 -0.31775865 0.31017935 0.5654442 0.13008812 0.06778988 -0.3244139 -0.33037597 -0.013325099 -0.19508366 0.012208119 -0.06772496 -0.14626348 0.030919641 -0.24087895 -0.2640459 -0.081901066 -0.16369995 0.008591004 0.13428423 0.22146663 0.3622054 -0.12225711 0.079023585 0.03937404 -0.061794758 0.47501695 -0.021873154 -0.33312392 -0.0034651496 0.20687252 0.0029763542 0.27562532 0.08149449 0.094101235 0.093778625 -0.09318139 0.123283505 -0.1033026 0.12712213 0.027635098 -0.17557523 0.33603635 -0.1253788 0.06404559 0.157469 -0.2141812 0.048844777
zinger-filled 0.05727111 -0.024295911 -0.27576107 0.28322303 0.06068852 0.11160736 0.043773115 -0.10660886 0.14490739 0.12045437 -0.1902488 0.05726993 -0.018981606 -0.19654006 -0.103899546 0.1993252 -0.22123435 0.044689316 0.3557105 -0.15757388 -0.2135495 -0.0134439105 -0.2333687 -0.21355069 -0.16321214 -0.117251225 0.06687352 0.3418337 -0.10756605 0.13866478 -0.0009670891 -0.1993168 -0.00052028894 -0.15439641 0.12139894 -0.12831838 -0.11441463 -0.3120778 0.16721253 0.0831832 0.31489018 0.26761192 0.042342678 0.24468803 0.024944909 0.06371784 0.089304626 0.3132727 -0.09054091 0.25269407 -0.017142572 0.092185065 -0.11758517 -0.40745163 0.35059273 0.5721587 0.097532585 0.0794485 -0.30489308 -0.3346172 -0.0021914355 -0.24547301 0.08045154 -0.04636857 -0.15579346 0.040782996 -0.32507098 -0.18729581 -0.14139105 -0.13160679 0.048860677 0.16738585 0.22019985 0.39618623 -0.13546321 0.104928106 0.023196567 -0.09978476 0.49163795 0.02277762 -0.33322084 0.037875894 0.25294113 -0.008797452 0.29728284 0.06438586 0.125623 0.078188986 -0.08885755 0.13355334 -0.027381957 0.08386117 0.012358762 -0.18518636 0.31551147 -0.089731276 0.07689154 0.20963839 -0.21884388 0.043509617
ming-liang 0.057627834 -0.042966526 -0.20174307 0.1749484 -0.018374182 0.040908545 0.026678447 -0.10474144 0.1354518 0.059008833 -0.14529058 0.12858424 -0.025052339 -0.1463615 -0.063997544 0.16563398 -0.21700095 0.052227624 0.26712072 -0.12330106 -0.19201441 -0.019769112 -0.25284708 -0.14310181 -0.09869292 0.041631013 0.018364659 0.28432924 -0.07142523 0.038001776 -0.0057457797 -0.20168802 0.0641047 -0.12718108 0.0564665 -0.0879105 -0.06493909 -0.24026015 0.119393796 0.060958266 0.21541227 0.2597698 0.03488133 0.22984445 -0.024444766 0.04436862 0.016266663 0.26574254 0.0037409286 0.20778084 0.004899842 0.06367036 -0.109198295 -0.3027752 0.281195 0.5479387 0.10597777 0.099257536 -0.3423176 -0.28574315 0.0319545 -0.19500148 0.07267688 -0.038353138 -0.16277312 0.04047974 -0.21603619 -0.20408191 -0.1574311 -0.14718214 0.039414093 0.16978651 0.17512383 0.30968451 -0.14016998 0.09416156 -0.012541316 -0.07072349 0.41727126 -0.0002996251 -0.27959266 0.008907314 0.19117399 -0.036967535 0.26198876 0.069433324 0.04081956 0.0632565 -0.061707586 0.11649406 -0.00019291416 0.1281046 0.06714514 -0.16445966 0.336433 -0.16389093 0.09571861 0.12128546 -0.26546955 0.022533124
updatings 0.06805391 0.097857706 -0.08920027 0.1086113 -0.044166334 0.12352641 -0.066578686 -0.11479212 0.009800211 0.1068759 -0.07000144 0.1241482 0.13413176 -0.03522118 0.09326761 0.08945369 -0.27215543 0.16985287 0.18420006 -0.13657737 -0.14534289 -0.007127747 -0.14302282 -0.09600561 -0.045354053 -0.14496772 0.09206811 0.29656246 -0.119351976 -0.19441918 0.14205973 -0.33228898 -0.11476008 -0.124332085 0.018751517 -0.014357548 -0.0783741 -0.2554455 -0.06548366 -0.02436962 0.20578541 0.16487178 -0.16508478 0.1518245 -0.108975686 -0.027450528 0.15672734 0.16115072 0.010900725 0.08251643 -0.05926928 0.08350158 -0.15546209 -0.056152403 0.26679823 0.57561505 0.18460831 -0.06956579 -0.18801127 -0.14169128 -0.1749279 0.03315638 0.14004777 0.051713623 -0.10360953 0.012878437 -0.10315927 -0.2840486 -0.0055901185 -0.3837405 -0.09758975 -0.060182735 0.17303395 0.1631471 -0.2448006 0.089962855 0.009151414 -0.017421972 0.26202 -0.05329282 -0.17125867 0.05035414 0.15314133 0.1733892 -0.04313636 0.02003827 0.0902256 0.08056761 -0.2226895 0.078748405 -0.15643199 0.15562752 -0.075777546 -0.17496966 0.08430135 -0.14898384 -0.029387482 0.11541233 0.0013146996 0.14210626
multi-character 0.042998675 0.09544646 -0.2765315 0.2630087 0.029996615 0.14219496 0.09494106 -0.13663006 0.087296955 0.20273891 -0.21481778 0.020229556 0.024106562 -0.21394452 -0.09092889 0.30379388 -0.20871215 0.043052625 0.4174479 -0.1396705 -0.19632635 -0.07423086 -0.31627637 -0.18337598 -0.04550431 -0.12273092 0.07165837 0.36196965 -0.14713398 0.1036088 -0.040056396 -0.16015553 -0.05966486 -0.19858943 0.16919099 -0.10987121 -0.17347044 -0.27942523 0.20979674 0.15788668 0.3792374 0.29457468 0.093801774 0.2783832 0.09409071 0.012846762 0.022453856 0.2799696 -0.12404079 0.2073095 -0.034483213 0.15789464 -0.08624847 -0.30685166 0.41945657 0.5058699 0.1857961 0.0987186 -0.1488747 -0.33557862 -0.0490662 -0.24111739 0.057044264 -0.057678796 -0.038639694 0.033415288 -0.3409869 -0.2140784 -0.10306969 -0.23948836 -0.021529637 0.15151636 0.28076702 0.37797633 -0.19345602 0.0881695 0.0010178797 -0.1194382 0.46484768 -0.07907866 -0.29718342 0.014793079 0.2881183 0.060302433 0.1919242 0.060097564 0.2081321 0.067133784 -0.116113156 0.065901905 -0.09365043 0.17085639 -0.0657597 -0.25772536 0.36884737 -0.1698371 0.10030468 0.119518474 -0.15475339 0.04843829
blown-out 0.06871911 -0.018828489 -0.2750459 0.30876642 -0.021061152 0.09951648 0.087765545 -0.1058028 0.116695195 0.16867082 -0.22311059 0.10454421 -0.01562719 -0.18995696 -0.057694606 0.21955234 -0.2350452 0.06289127 0.39170384 -0.17729665 -0.20017666 -0.021462265 -0.30207616 -0.24289778 -0.09643863 -0.06899579 0.022830728 0.351309 -0.09591457 0.07725179 0.041795723 -0.2708413 0.056502156 -0.15161094 0.1322391 -0.053820934 -0.19147752 -0.352004 0.110392585 0.039779685 0.31944704 0.3017674 0.035538383 0.26398987 0.033982046 0.05963845 0.08764068 0.27901402 -0.06372174 0.18929401 -0.073413305 0.12792605 -0.12918282 -0.30427426 0.38750738 0.5333947 0.139296 0.0318205 -0.17957343 -0.34086898 -0.07880229 -0.19087847 -0.043406934 -0.08652813 -0.07857303 0.076706976 -0.32973325 -0.32593063 -0.17134847 -0.21600655 0.03935542 0.16186993 0.250339 0.41688555 -0.23415911 0.14598508 0.050091967 -0.083150536 0.48181182 -0.007959362 -0.33593222 0.079445645 0.3062529 0.03648283 0.23034859 0.059264924 0.09235831 0.051942095 -0.102726474 0.17618628 -0.11389108 0.1816912 -0.011547744 -0.19469884 0.3649786 -0.16972739 0.07597529 0.2258776 -0.14952508 0.045095623
chloroform-soaked 0.06284942 0.017154612 -0.22974157 0.24545199 0.026108857 0.086648464 0.010722777 -0.11718947 0.15189548 0.082941204 -0.16402817 0.057770386 -0.014019251 -0.13211773 -0.10354177 0.17879704 -0.19685751 0.06339577 0.3123927 -0.076659605 -0.22272378 -0.014808245 -0.26828593 -0.20681977 -0.17300999 -0.053857394 0.071722426 0.30210462 -0.1056671 0.10188277 0.033281226 -0.2044208 -0.0034524724 -0.13667664 0.14873347 -0.12357108 -0.08929793 -0.3039407 0.14549486 0.04222167 0.2605853 0.25661582 0.0012046173 0.20064613 0.0036032572 0.036798213 0.03918814 0.3108073 -0.07146598 0.27510816 -0.008884561 0.10821828 -0.13450316 -0.36783838 0.30349728 0.6020761 0.09166901 0.074855894 -0.30017868 -0.29548982 -0.0043115355 -0.20159774 0.060306896 -0.06805514 -0.15023023 0.066235684 -0.27510917 -0.22569644 -0.10046576 -0.13074005 0.013767112 0.1381255 0.19923082 0.3591446 -0.122627184 0.07551386 0.08333918 -0.0551675 0.44835103 -0.013268534 -0.32609385 0.00046123192 0.2090837 -0.0046834834 0.28158915 0.07492001 0.068066984 0.08542003 -0.070509985 0.11436323 -0.04264534 0.08792964 0.025921337 -0.1929084 0.29262802 -0.102538556 0.06060959 0.17107758 -0.19081336 0.052196674
once-over 0.10604353 7.610023e-05 -0.17337066 0.2416895 -0.0813466 0.0892548 0.07753733 -0.13909706 0.10428293 0.20975953 -0.1153033 0.03280141 -0.094674096 -0.26706198 0.052813925 0.22624019 -0.20745507 -0.01727081 0.3493315 -0.12219547 -0.16541815 0.0039736843 -0.19999641 -0.15928842 0.03976655 -0.0554583 0.04223594 0.31698126 -0.13143188 0.03885508 -0.027412307 -0.23158328 0.0031787865 -0.11836877 0.032634217 -0.1010617 -0.1345919 -0.20637608 0.18803488 0.08958336 0.32031426 0.3028887 -0.06071162 0.20759201 -0.03234206 0.024026334 0.12588766 0.24627927 -0.09180877 0.16808522 -0.028212983 0.07318137 0.0051218495 -0.36322647 0.29451823 0.5682488 0.15159065 -0.0041048266 -0.25995004 -0.31534213 -0.032475173 -0.25864026 0.08169387 0.0029705241 -0.22041152 -0.08831495 -0.2419665 -0.3454238 -0.15329717 -0.22019038 -0.019502215 0.059982963 0.18211216 0.2729445 -0.18295228 0.07871676 -0.018688705 -0.05475229 0.4380141 -0.08490921 -0.28368086 0.108031034 0.34343392 0.046931516 0.30602825 0.077073425 0.17221577 0.203045 -0.12663543 0.12106613 -0.103823304 0.21195114 0.0023295283 -0.20453992 0.31998342 -0.18905964 0.06494828 0.14896753 -0.15152478 0.014955202
transfigures 0.05824008 0.035930805 -0.14593408 0.10273724 -0.01756768 0.051782627 -0.036974613 -0.09583545 0.14215949 -0.05984533 -0.05062467 0.058388736 0.055157915 0.017469384 -0.05771503 0.09407273 -0.22799781 0.19203258 0.18766281 -0.029472226 -0.19078048 -0.05028136 -0.2171565 -0.105609484 -0.15151137 -0.05975452 0.0619736 0.23961177 -0.05159858 -0.08246966 0.13438599 -0.23561162 -0.111959435 -0.101630494 0.11821172 -0.048081353 -0.017955903 -0.26945013 -0.008047406 -0.019971605 0.17864758 0.1918966 -0.10786007 0.10936174 -0.08647634 -0.025650304 0.043965347 0.22171766 -0.025144624 0.21567854 -0.040286854 0.11302667 -0.16607589 -0.17513217 0.21930638 0.63302875 0.14619103 0.024352118 -0.32889956 -0.16196898 -0.088089794 -0.061865017 0.12728995 -0.046413124 -0.14220166 0.08656092 -0.17164105 -0.22855002 -0.019194007 -0.22090508 0.0086357 0.041813716 0.15892631 0.24050622 -0.16448402 0.030543294 0.058799725 0.015023414 0.32230523 -0.0008531958 -0.23531218 -0.05665254 0.077515095 0.06292379 0.13355029 0.045282632 0.03834737 0.07113573 -0.16747867 0.13853863 -0.10412608 0.079479545 0.004660867 -0.18162215 0.16516817 -0.103716075 -0.0030946434 0.13049217 -0.15359433 0.08145618
self-congratulation 0.016585834 -0.038518652 -0.18459456 0.3082025 -0.065161735 0.118589714 -0.05327155 -0.19477096 0.19999227 0.093585074 -0.15705341 0.07520431 0.008145809 -0.176225 0.028635228 0.16398706 -0.2744196 0.20257756 0.36900258 -0.076797634 -0.33270156 -0.15494968 -0.28275815 -0.19314152 -0.11055113 0.034980975 0.16608904 0.27450827 -0.08258858 -0.11161429 -0.0040780865 -0.24770975 -0.11432394 -0.2216121 0.044481926 -0.1244933 -0.020798478 -0.27007306 -0.04792827 -0.008457139 0.22025833 0.31730777 0.032428578 0.2323516 -0.12894903 -0.08689153 0.1486707 0.19428986 -0.117790796 0.16960336 0.046855282 0.15690699 -0.12442046 -0.19593382 0.32061246 0.61165327 0.26896563 -0.068993956 -0.40099424 -0.30601123 0.030286785 -0.21899882 0.14664766 -0.07877855 -0.034944907 -0.013116404 -0.1749388 -0.38491625 0.058776334 -0.34249482 0.009917591 0.030360214 0.25453556 0.36395702 -0.09176497 0.05083187 -0.014183372 -0.04122617 0.33618325 -0.014677338 -0.33969718 0.05180366 0.13341013 0.12642981 0.14165847 0.106850475 0.07087498 0.0064839423 -0.14484674 0.012100235 -0.13529162 0.11235834 -0.05413948 -0.09693703 0.46627665 -0.15083368 0.091748044 0.03605941 -0.25148314 0.12521496
loosely-connected 0.031761557 0.09406366 -0.3001632 0.3349316 0.05278443 0.17131215 0.029162232 -0.11496973 0.16279826 0.17096016 -0.21225318 0.050382398 0.051757887 -0.20462888 -0.077402495 0.23878959 -0.25393116 0.085797116 0.42614257 -0.11332671 -0.20448226 -0.023209658 -0.29776758 -0.23164466 -0.17144048 -0.14221792 0.098373234 0.3802079 -0.13827893 0.13521521 0.036317706 -0.23780824 -0.052184753 -0.21996614 0.18826959 -0.11650962 -0.18528885 -0.34935737 0.114233926 0.110049956 0.36041844 0.27925348 0.048962288 0.2717297 0.06398282 0.028850231 0.070395954 0.30786884 -0.14025863 0.21887483 0.003135494 0.09142641 -0.11058813 -0.38018435 0.40637976 0.62472814 0.18211934 0.07863912 -0.23685077 -0.37787038 -0.03911443 -0.19701599 0.031282216 -0.10900412 -0.09402287 0.0534824 -0.31840968 -0.2490548 -0.085077584 -0.22103992 0.016839903 0.17017728 0.25530443 0.44920406 -0.16760221 0.09589862 0.037868313 -0.096391365 0.4828605 -0.011332102 -0.36754996 0.021174867 0.2558682 0.045953136 0.21012694 0.12846565 0.16077663 0.06943686 -0.15224206 0.090363964 -0.10307883 0.14768586 -0.033452153 -0.29306144 0.36626172 -0.11899043 0.06332195 0.20985712 -0.17109992 0.058480278
out-of-kilter 0.043482263 -0.0035232678 -0.14910176 0.3033941 -0.0663545 0.10351517 0.017767215 -0.17975396 0.17504007 0.16719389 -0.044849277 0.06445813 -0.074307665 -0.27243838 0.08773645 0.1897684 -0.24015856 0.030785933 0.26945898 -0.08535401 -0.17112052 0.01935954 -0.2321707 -0.14102948 -0.04836926 -0.044023506 0.053549252 0.33122948 -0.045663875 0.037074998 -0.008144785 -0.20959207 -0.033292226 -0.13390344 -0.0009148363 -0.14054357 -0.13691574 -0.25349507 0.040402878 0.06396267 0.28501078 0.31144914 -0.07769057 0.17960057 -0.06737116 -0.070874676 0.092936374 0.2526176 -0.072003804 0.112265244 0.035954945 0.094069205 -0.0021118075 -0.31702554 0.27603275 0.6198428 0.11887713 0.0107713975 -0.29610142 -0.3096407 -0.021787658 -0.21975519 0.08480784 -0.019348558 -0.22377606 -0.06909059 -0.19672564 -0.3344053 -0.10164502 -0.16219237 -0.030224286 0.009916738 0.20486268 0.2609642 -0.15083748 0.037124027 -0.030634679 -0.055069145 0.47519898 -0.09832937 -0.30993825 0.07355061 0.25272232 0.019280385 0.29648924 0.10252351 0.115659356 0.2520813 -0.18110281 0.11799227 -0.10804877 0.19912454 -0.0019941255 -0.22133008 0.3242167 -0.16486326 0.069242746 0.14086008 -0.15629175 -0.009736925
103-minute 0.06970644 -0.21681088 -0.19363499 0.3537531 -0.10502496 0.06659698 0.21320133 0.11748085 -0.058938965 0.281069 -0.19962347 0.015866213 -0.067180514 -0.34742215 -0.10642097 0.44137856 -0.2738913 -0.11629408 0.54582846 -0.47566193 -0.15359516 0.038965162 -0.3302609 -0.061490115 0.07095887 0.016042667 -0.17731182 0.38950998 -0.07865487 0.16591246 -0.2438515 -0.26098675 0.10880231 -0.30691752 -0.11525443 -0.109522015 -0.3015098 -0.28249967 0.19987947 0.23839888 0.54116607 0.30713862 0.13666946 0.46239573 0.1179026 0.035405077 0.26131427 0.2175122 0.007166194 0.0669073 0.06856372 0.1370085 -0.025990754 -0.40501848 0.49989223 0.22845918 0.1954091 0.15560605 -0.07413405 -0.43549615 -0.23316221 -0.23958898 0.02572909 -0.15848996 -0.009612441 -0.057843212 -0.5847589 -0.36424747 -0.4069792 -0.22803068 0.17742527 0.3777495 0.19978362 0.34744 -0.3467424 0.019617107 -0.22837374 -0.21807352 0.44880655 -0.0009343624 -0.3771796 0.10599087 0.42756233 -0.086656064 0.2558763 0.17554179 0.15761575 0.08715324 -0.08944884 0.24431732 -0.053185116 0.36801654 0.016742662 -0.06296916 0.5046337 -0.25774658 0.42818192 0.28017402 -0.24397263 -0.032571502
young-guns 0.050908238 -0.10560035 -0.221733 0.06677994 0.07447164 -0.061135482 -0.012888115 -0.14928913 0.16632628 -0.07416555 -0.040820725 0.15854019 -0.014679134 -0.09016206 -0.01916136 0.016207658 -0.2811147 0.16351333 0.025353938 -0.14036262 -0.16956556 0.029771205 -0.10682828 -0.046935275 -0.19338666 -0.017922224 0.0021423567 0.27466393 0.01114483 -0.02037872 0.06753765 -0.24304682 0.050031006 -0.06864907 0.030870892 -0.113759145 0.082148254 -0.19811484 0.052324217 0.04565482 0.13964498 0.19040465 -0.060121387 0.15575306 -0.08596736 0.03945931 -0.026319413 0.22624853 0.13556491 0.19543079 -0.019623693 -0.0010224693 -0.15985581 -0.30184662 0.2273731 0.7287377 0.05862195 0.14566481 -0.51471806 -0.16722853 -0.010590564 -0.18716422 0.19505718 0.025056154 -0.32070282 0.03809371 -0.12377475 -0.050587356 -0.24144283 -0.0725711 0.01914487 0.13077109 0.14571427 0.23573422 -0.13340704 0.13151616 -0.04550553 -0.03165412 0.44971648 -0.012523562 -0.16473651 -0.0069243647 0.1206105 -0.087391935 0.2670592 -0.017228834 -0.052489318 0.15597793 -0.12883033 0.17251818 0.09810729 0.036680814 0.12980115 -0.19819067 0.123019174 -0.1092401 -0.06078446 0.11961487 -0.34398922 -0.017955879
neo-hitchcockianism 0.044463277 -0.11050608 -0.15577719 0.34028324 0.0030607618 0.030547742 -0.047973674 -0.30365902 0.14803022 0.082160324 -0.26210728 0.11571261 -0.030571476 -0.16695932 0.016730541 0.09975284 -0.26464203 0.10212027 0.2329886 -0.07700106 -0.38874048 -0.081327185 -0.28413206 -0.25914145 -0.23563984 0.056460544 0.12057604 0.2514492 -0.03646205 -0.030895323 0.0527345 -0.20242254 -0.0353773 -0.11427182 -0.049275618 -0.11102025 -0.05763277 -0.37752694 -0.0410585 -0.049226955 0.12521416 0.30984434 0.03787496 0.23590508 -0.12015824 -0.06826496 0.17495283 0.2618466 0.004654506 0.20627862 0.047820807 0.15916061 -0.1705927 -0.2569065 0.30742356 0.6722199 0.04849465 -0.046763934 -0.47564733 -0.29093054 0.05643487 -0.23789012 0.088793874 -0.04355438 -0.13620436 0.068406895 -0.165312 -0.33237624 -0.044509843 -0.1345845 0.0143785365 0.049341246 0.18439154 0.40454128 -0.119287 0.060582593 0.08882529 -0.028336894 0.41561747 0.01303684 -0.42042607 0.07346624 0.16358903 0.056287337 0.28320038 0.05738371 -0.07715131 0.0016676337 -0.09354774 0.07412845 -0.021858007 -0.010747366 0.012450881 -0.026675843 0.3960346 -0.12746756 0.08348826 0.13627169 -0.28802475 0.0891436
guilt-trip 0.05680164 0.0007397756 -0.24051456 0.24833566 0.0058406517 0.08591662 0.090444386 -0.10569926 0.10575539 0.13448635 -0.16967335 0.05798491 -0.041751187 -0.14592731 -0.034006342 0.21678945 -0.21569727 0.053548165 0.33303797 -0.095504284 -0.16019812 -0.0036737313 -0.2842618 -0.15217814 -0.058838263 -0.016091483 0.008513603 0.29908642 -0.07787225 0.067858204 0.0019482952 -0.23234993 0.025803737 -0.1559076 0.107803315 -0.08385768 -0.1341207 -0.28909403 0.14278454 0.07621469 0.31757295 0.2408588 0.028596915 0.20356755 0.0054653212 0.0068134144 0.015355269 0.24137104 -0.064167656 0.20261343 -0.02099806 0.08905366 -0.11244835 -0.2801888 0.31002447 0.47129393 0.118798055 0.08510638 -0.21680683 -0.2696809 -0.044169173 -0.1950648 0.0058335215 -0.088973306 -0.12603019 0.04658361 -0.26638857 -0.26046014 -0.12025876 -0.14962618 -0.0056022406 0.18133357 0.21590993 0.3415809 -0.173056 0.0804319 0.037597477 -0.074652016 0.42613682 -0.016029324 -0.2810676 0.006062612 0.22271845 -0.0043460317 0.25556558 0.06738715 0.102712095 0.09632132 -0.10403357 0.09963016 -0.07124379 0.1524442 0.028827861 -0.1988723 0.30888882 -0.13583164 0.08379723 0.14994898 -0.17335933 0.027038919
sugar-coating 0.08121619 -0.04864369 -0.24692169 0.31763652 0.033034727 0.06701936 0.029644923 -0.10352138 0.13851304 0.12903175 -0.14830822 0.036327776 -0.013395771 -0.19138145 -0.08885636 0.17786422 -0.23988053 0.07189283 0.35632008 -0.16182946 -0.2504694 -0.032426313 -0.24473347 -0.19184002 -0.20085032 -0.10956559 0.07281838 0.32651806 -0.07776332 0.07551408 0.020112596 -0.24652027 0.005293753 -0.18129982 0.070808485 -0.12976012 -0.12091291 -0.3089665 0.07336049 0.039773133 0.28031802 0.28319758 0.032013737 0.24738269 -0.0046216324 0.05411658 0.11265991 0.239276 -0.04510823 0.230446 -0.019963153 0.121527776 -0.15443933 -0.3669119 0.32304952 0.6304114 0.11119132 0.019111373 -0.2951405 -0.32241032 -0.05357497 -0.20357259 0.09474614 -0.073263645 -0.14294937 0.07814784 -0.335927 -0.26190352 -0.13138252 -0.15857983 0.057060078 0.147044 0.18792549 0.40721437 -0.17861238 0.11048938 0.058994018 -0.06302906 0.44498602 0.010628145 -0.3350253 0.057714563 0.24486935 0.018634524 0.270187 0.09313199 0.041021846 0.07713328 -0.085111655 0.16445605 -0.028814066 0.1357974 0.006389126 -0.17808844 0.305785 -0.111736745 0.10459343 0.2412261 -0.1942477 0.035042554
romijn-stamos 0.08344248 -0.111985736 -0.26513407 0.25758976 0.043054562 0.0155581 0.056703538 -0.1323884 0.13625269 0.039948743 -0.12124735 0.038815178 -0.04264467 -0.14928769 -0.113902874 0.12550396 -0.2149732 0.07910859 0.23767678 -0.13562912 -0.25500265 -0.018060364 -0.22877797 -0.14486921 -0.24282928 -0.10031832 0.08102932 0.29734486 -0.028323818 0.09047967 0.022509089 -0.21246529 0.0019255057 -0.12063353 0.08437249 -0.1540245 -0.03525767 -0.2537284 0.10673018 0.055877425 0.24972777 0.25558093 0.0020983592 0.23503982 0.0052955374 0.019618683 0.057631463 0.25012216 -0.016151845 0.28606054 -0.012212056 0.1308854 -0.15010762 -0.4054355 0.26174477 0.633838 0.035613783 0.07748386 -0.39232603 -0.27448493 -0.0130745545 -0.23898141 0.12044591 -0.07205194 -0.19004773 0.06420725 -0.32638615 -0.19655661 -0.1660192 -0.07020265 0.060159113 0.17113754 0.14576365 0.34588304 -0.12531653 0.0768311 0.047182627 -0.0403358 0.4412155 0.020629732 -0.32045534 0.0065988265 0.2107892 -0.050940476 0.32791957 0.05901776 -0.013582768 0.07329584 -0.08167305 0.14934947 0.020602278 0.039973233 0.044446364 -0.13570505 0.26175737 -0.074899554 0.081239544 0.22062114 -0.25707263 -0.026288385
bibbidy-bobbidi-bland 0.10435428 -0.10167006 -0.08389205 0.29732215 0.037864935 0.054206107 -0.009200897 -0.023626871 0.12836322 0.066631526 -0.11784713 0.02363149 -0.09063062 -0.0854737 -0.11807035 0.11923956 -0.1551725 0.014456373 0.2685926 -0.13649544 -0.22874027 0.02667329 -0.16431566 -0.14662644 -0.25159222 -0.048261307 0.05038921 0.27636504 -0.068528146 0.058161974 0.018935217 -0.20447373 0.1071135 -0.10042605 0.024144612 -0.1349423 -0.07164788 -0.2597015 0.0865352 -0.041268513 0.22630233 0.20679592 -0.08179886 0.08509214 -0.08048439 0.05522122 0.20384474 0.25635916 0.020804983 0.2462816 -0.022193413 0.09316891 -0.11466831 -0.40194258 0.15528 0.5153116 -0.013951164 -0.061053798 -0.34428486 -0.32423055 -0.03726124 -0.18917365 0.07097453 -0.053601153 -0.21820912 0.10659243 -0.30802637 -0.27464342 -0.14465436 -0.017842388 0.08366875 0.10788792 0.12644622 0.32168096 -0.13917643 0.013208369 0.16622463 -0.01960094 0.40178737 0.070683345 -0.36224347 0.07308622 0.18683742 0.004908625 0.36483973 0.14080948 -0.0295131 0.07692808 0.011853844 0.2529843 0.012773611 0.048162673 0.042523615 -0.076070964 0.21394959 -0.023660302 0.15472588 0.28103408 -0.121539354 -0.008298442
dead-eye 0.022544656 0.016691774 -0.26045927 0.21848693 0.020882513 0.07382992 0.05992587 -0.064962246 0.09998545 0.15634233 -0.18121564 0.10892985 0.013786018 -0.18598649 -0.009955389 0.22098526 -0.23315026 0.06643071 0.36016387 -0.15394 -0.15841503 -0.017110027 -0.2535795 -0.16606665 -0.04807309 -0.0068759564 -0.008337684 0.3130555 -0.14392716 0.096588984 0.0077244863 -0.22546783 0.03229961 -0.1491532 0.11002003 -0.065096155 -0.1478678 -0.2876408 0.14885217 0.09490052 0.2905648 0.28937274 0.06944328 0.27994812 0.0017883107 0.07392697 0.058603674 0.25521278 -0.024933966 0.21252483 -0.032028653 0.09026283 -0.113409616 -0.28426492 0.33881903 0.5037413 0.15828301 0.08178539 -0.23739381 -0.30198267 -0.006619893 -0.15657395 0.022808723 -0.032773294 -0.12676594 0.055367384 -0.20444378 -0.22924471 -0.15194693 -0.21094157 0.011515114 0.14170918 0.23167509 0.35405016 -0.17993811 0.1051904 0.007825427 -0.08644624 0.45363426 -0.04151731 -0.24872714 0.028347101 0.2188591 -0.0037515387 0.22682597 0.050839968 0.13628301 0.07748589 -0.09530845 0.105148986 -0.08156018 0.18764609 -0.02241122 -0.22681218 0.3510366 -0.18307856 0.11485168 0.17728373 -0.18129817 0.08735658
flower-power 0.053096518 0.011826262 -0.2465887 0.23347287 0.03199782 0.112540334 0.057204306 -0.13976273 0.07884811 0.18255049 -0.21771458 0.04232293 -0.0053676516 -0.22411606 -0.008723186 0.19548559 -0.18527506 0.03650439 0.3168925 -0.120305434 -0.19702053 -0.062425233 -0.20849733 -0.18414834 -0.029181622 -0.06453544 0.040637996 0.2885207 -0.1205954 0.07852602 -0.01965674 -0.15670812 -0.010027222 -0.13644025 0.06889732 -0.044945404 -0.13896382 -0.27555728 0.18197455 0.057751246 0.24132998 0.29843098 0.08054782 0.24880731 0.018462367 0.05301239 0.11751812 0.23118895 -0.08567717 0.18582225 -0.029709391 0.08363399 -0.059029195 -0.26039445 0.35834187 0.45022023 0.09438674 0.018260837 -0.21113014 -0.2307875 -0.013429292 -0.2000958 0.027028054 0.026204765 -0.06694338 -0.016365621 -0.2111151 -0.20204265 -0.07023313 -0.1861341 -0.02279222 0.09189444 0.24698374 0.3488198 -0.15671134 0.12944718 -0.008412864 -0.08056535 0.4153942 -0.064369924 -0.26182738 0.07228717 0.21834654 0.069780424 0.22592291 0.0075694323 0.13027458 0.07545872 -0.11985815 0.030684844 -0.0609543 0.105046734 -0.011102274 -0.17406914 0.3035712 -0.16263182 0.039412796 0.15998416 -0.18736845 0.071524955
unreligious -0.0150912255 0.051318653 0.012427375 0.21643093 -0.11332974 0.22759254 -0.07518332 -0.16978088 0.19264635 0.21537253 -0.21983942 0.07152737 0.03987889 -0.36581272 0.15393022 0.14227208 -0.22235437 0.1003357 0.33661214 -0.06636338 -0.105094306 0.051373787 -0.053437404 -0.17123021 0.0909203 -0.0006154161 -0.020147223 0.20971677 -0.19365123 -0.0955217 0.013218451 -0.30570158 -0.099892475 -0.17274705 -0.14302725 -0.057321575 -0.12058605 -0.25908834 0.014610734 -0.06942433 0.16450116 0.35296667 -0.042612243 0.139461 -0.11848153 0.012576584 0.4111959 0.21020919 -0.076230496 0.030499801 6.1011873e-05 -0.056785308 0.07764768 -0.24052984 0.24059421 0.5070574 0.29233837 -0.1286265 -0.29811373 -0.23530972 0.007580597 -0.11917106 0.15703908 0.011804171 -0.08929214 -0.24096438 0.05325347 -0.32700977 -0.023477107 -0.36401132 0.027299043 -0.1428198 0.15772057 0.2037091 -0.09093735 0.1038045 -0.14399925 -0.070064515 0.32072198 -0.13659859 -0.21216655 0.21341133 0.1611884 0.22316636 0.11295077 -0.030496195 0.15535073 0.22809994 -0.32010835 -0.07859239 -0.1344523 0.13052252 0.010434493 -0.14141095 0.3119902 -0.18732458 -0.0923001 0.001861304 -0.20492825 0.20001084
anti-adult 0.062397607 -0.06174486 -0.24475849 0.23876858 -0.09082506 0.07111147 0.04975663 -0.25305077 0.1200314 0.16424477 -0.16550803 0.004854612 -0.0025155842 -0.3005867 0.08298961 0.22165483 -0.16424482 0.04403197 0.33328563 -0.12494072 -0.2066354 -0.050636142 -0.2265789 -0.2193327 -0.043234386 -0.122006856 0.08234754 0.25309223 -0.06674504 0.025122073 -0.013452847 -0.2176958 -0.117573 -0.0940283 -0.023156598 -0.09644136 -0.1502402 -0.23244375 0.064673364 0.0022353232 0.17169774 0.40876603 -0.0054949075 0.27584738 0.05424609 -0.043561496 0.15752792 0.18642451 -0.10539021 0.15410434 -0.017261162 0.18720204 -0.048907768 -0.27474612 0.35459346 0.5498732 0.20797923 -0.016574338 -0.21153998 -0.2503507 -0.0054100268 -0.17806453 0.020620383 0.07867892 -0.03135094 -0.08326435 -0.17308418 -0.33515167 -0.027135022 -0.25820756 0.015555754 -0.046138197 0.1757229 0.26436698 -0.17382056 0.12280882 -0.053894438 -0.019330285 0.4131478 -0.16431758 -0.2636999 0.08649811 0.29042542 0.12185709 0.13213333 -0.0108505115 0.07038461 0.1684784 -0.16650237 -0.00165914 -0.14014862 0.10539846 -0.05661623 -0.098640986 0.38412952 -0.21539012 -0.05436395 0.082613975 -0.15179974 0.06716517
well-wrought -0.0020849407 0.12210149 -0.21996713 0.178298 0.017360136 0.22035532 0.049537633 -0.06387765 0.01977934 0.23206103 -0.25239262 0.10962523 0.06971066 -0.16060969 0.12399971 0.23439142 -0.20311145 0.044940233 0.34421673 -0.088905275 -0.073525436 -0.016044494 -0.16929808 -0.096025854 0.07761064 -0.09475231 -0.015611898 0.23975544 -0.15350884 -0.017957266 -0.027897526 -0.20418395 -0.006108649 -0.16617918 0.065563485 -0.013569444 -0.1613411 -0.21829903 0.15022992 0.10201343 0.25317872 0.22102542 0.12747401 0.19997954 0.060511656 0.014632739 0.1242619 0.14132604 -0.1275041 0.061894253 -0.031650122 0.03481555 -0.032560028 -0.035756975 0.331823 0.2183725 0.21742725 0.0042561665 -0.0008355379 -0.21135473 -0.029978722 -0.09282519 -0.046110734 0.048247725 0.049082965 0.041927308 -0.0723239 -0.16788013 -0.041468024 -0.29330274 -0.025011905 0.09421684 0.24751052 0.28107032 -0.19333605 0.114612445 -0.0958656 -0.13667974 0.27740175 -0.058704592 -0.17288332 0.030525748 0.1555547 0.13423541 -0.0077092946 0.035487987 0.21551968 0.04038956 -0.17049961 -0.05834642 -0.12833984 0.15755937 -0.10517828 -0.23266317 0.2709845 -0.18858904 0.004412532 0.010792419 -0.0854705 0.09258961
accomodates -0.025754318 -0.002433084 -0.023910508 0.17793486 0.057912808 0.056475718 -0.11318545 -0.056990623 0.29269752 -0.0055494905 -0.035887063 0.10072568 0.049190283 -0.16867307 -0.058124542 0.097257584 -0.21346952 0.18044052 0.254147 -0.012357529 -0.29704306 -0.12809822 -0.108861394 -0.06508769 -0.15156831 -0.025552208 -0.027476732 0.1719063 -0.12586021 -0.042264745 0.0878036 0.038317665 -0.10939381 -0.019258367 0.002075795 -0.053877935 0.019806925 -0.27239415 -0.089112744 -0.010657061 0.10349299 0.24034409 0.022046506 0.08089932 -0.1691075 0.069915816 0.14590995 0.20620453 0.0400158 0.12341904 0.005667357 0.07138102 -0.07117771 -0.1622757 0.11610127 0.5963261 0.14329258 -0.052582234 -0.402404 -0.20717713 0.10347678 -0.17711462 0.24637954 -0.027639009 -0.22483823 0.040070757 -0.05133371 -0.12619202 -0.01993353 -0.06347081 0.13860491 -0.074566245 0.1673134 0.27675962 -7.176399e-05 -0.016567945 0.024263028 -0.07079053 0.2786776 0.036554225 -0.27816078 0.00988901 0.0029892772 0.09518878 0.24637732 -0.03904503 0.07230563 0.10551734 -0.20843405 0.13616835 0.0031625144 0.042665903 -0.03453107 -0.1937165 0.2811439 -0.10949635 0.0874399 0.12201132 -0.27487293 0.17878875
barn-side 0.09326121 -0.0048950315 -0.2035312 0.27001712 -0.037177283 0.10076832 0.060114343 -0.093026295 0.11973782 0.12463677 -0.16670528 0.07363936 -0.015585065 -0.16532959 -0.10658957 0.22597048 -0.21463457 0.02953552 0.39167783 -0.15885016 -0.21929216 -0.026046857 -0.2990464 -0.21695697 -0.10869437 -0.033904895 0.043208826 0.33810383 -0.104064725 0.06935617 0.011601193 -0.23127161 0.04375977 -0.16740933 0.102757886 -0.085198395 -0.14494285 -0.31865123 0.1498112 0.072560325 0.29882377 0.28269964 0.024625428 0.24688274 0.024185784 0.036712084 0.08435054 0.30533195 -0.04951702 0.22825576 -0.047828905 0.1385088 -0.12786058 -0.35577923 0.3446112 0.57843554 0.12636799 0.051605545 -0.2651189 -0.3585561 -0.032471485 -0.17727628 0.00827156 -0.062240593 -0.10781348 0.055785276 -0.349535 -0.3315307 -0.14586875 -0.19473812 0.057073534 0.16191912 0.20810342 0.39385337 -0.19762984 0.10814733 0.047164686 -0.062273648 0.47455528 -0.009720467 -0.37047106 0.04382894 0.28585705 0.034245376 0.2658844 0.08803128 0.07670412 0.04367059 -0.047725502 0.16636251 -0.08546783 0.15820277 0.014439046 -0.16822289 0.363344 -0.16919117 0.10583263 0.20358907 -0.18320528 0.037230678
run-of-the-filth 0.041292973 -0.07230279 -0.3072033 0.2899899 0.022559226 0.04265595 0.041756373 -0.20487514 0.1280377 0.104549006 -0.18812951 0.065263644 -0.045396727 -0.20113426 -0.12742624 0.19417968 -0.18691385 0.069202594 0.24754065 -0.13477692 -0.25074962 -0.037288498 -0.30009887 -0.26036608 -0.158007 -0.09507353 0.05888973 0.27173397 0.012169866 0.111812934 0.019956114 -0.16596836 -0.046429344 -0.14224699 0.124160126 -0.09551467 -0.13782787 -0.3341956 0.057118215 0.07488343 0.26909012 0.28458178 0.0055632144 0.2564057 0.0485579 0.039426524 -0.013413312 0.29495555 -0.043918736 0.17405345 0.06595025 0.12529483 -0.12446186 -0.3804732 0.3488809 0.5566342 0.09029238 0.087917216 -0.2481124 -0.2926053 -0.0045722164 -0.23562779 0.0476469 -0.09828046 -0.11149718 -0.02443346 -0.35442948 -0.21110934 -0.11756285 -0.1241366 0.02976425 0.18731686 0.18994597 0.36366427 -0.1258884 0.062239397 0.01023945 -0.101595625 0.4606066 -0.010238074 -0.3645701 0.06518261 0.24563222 -0.06171342 0.22051288 0.046985164 0.021333342 0.08519235 -0.08750145 0.09223824 -0.09442888 0.071168825 0.053272504 -0.12610981 0.3501001 -0.10298617 0.07982558 0.14798065 -0.26326832 0.015980864
georgian-israeli 0.088779405 -0.111594945 -0.33450264 0.29379064 0.069422156 0.04368924 0.064246915 -0.15202141 0.123802245 0.07949385 -0.15364867 0.053171776 -0.073312946 -0.19324043 -0.08993469 0.16622289 -0.20353305 0.038218133 0.24334428 -0.15988208 -0.2676946 -0.03621206 -0.20143071 -0.1901313 -0.1975312 -0.1482716 0.07037538 0.3093489 -0.01286288 0.13362488 0.00087691844 -0.18051226 0.023534827 -0.120135896 0.09488931 -0.12455884 -0.10084814 -0.2716388 0.123841435 0.10338619 0.26182714 0.2569404 0.023866966 0.2476639 0.015237413 0.04141865 0.046558708 0.25728285 -0.029753337 0.22211204 0.037284095 0.10725122 -0.107356966 -0.41050106 0.31636503 0.56015027 0.013721991 0.05131431 -0.3311376 -0.3035264 0.017146066 -0.25280935 0.07498516 -0.04293848 -0.16980968 0.012337901 -0.3491417 -0.16751112 -0.15623626 -0.06031184 0.0360631 0.18522838 0.19305958 0.36942813 -0.13377498 0.0769369 0.046219658 -0.08277579 0.4633791 0.038071 -0.3592538 0.03765763 0.24363044 -0.044698328 0.32331342 0.06266904 0.040174432 0.07134833 -0.09383938 0.12877277 -0.006121341 0.033218235 0.038852606 -0.14953993 0.27600017 -0.0770318 0.082343146 0.23747432 -0.25542694 -0.035854246
yarn-spinner 0.09130415 -0.10608424 -0.17949286 0.24635896 0.01538457 0.04043571 0.022108633 -0.13706571 0.13937932 0.04493135 -0.10629923 0.059588287 -0.102171384 -0.1525734 -0.07073866 0.119803675 -0.17253031 0.0149311125 0.21234961 -0.12921475 -0.26873305 -0.007941853 -0.18757194 -0.1726433 -0.1774753 -0.04777447 0.057134353 0.2590654 -0.027680952 0.05952777 0.00486576 -0.16595845 0.03758052 -0.101625696 0.019971393 -0.124545045 -0.050076798 -0.26611912 0.11040406 0.038875137 0.20494518 0.25140676 -0.040507548 0.18727796 -0.05468145 0.029619256 0.107891716 0.26991838 0.0016264115 0.22106913 0.010428171 0.11188556 -0.09775434 -0.38916323 0.22966996 0.5841628 -0.003582947 0.015971288 -0.40818182 -0.29964676 0.02871191 -0.23693834 0.09717275 -0.011556663 -0.22700122 0.007903952 -0.28916225 -0.22814122 -0.15977025 -0.045889795 0.05401402 0.11512819 0.13145694 0.31998327 -0.11953037 0.04076619 0.052983362 -0.042231962 0.44233975 0.009301048 -0.36015916 0.054106865 0.21279311 -0.019429054 0.36440608 0.06930437 0.0023363214 0.10092835 -0.04652306 0.1623191 -0.013189502 0.03481765 0.047719926 -0.08224738 0.26175568 -0.087554164 0.0899515 0.2145626 -0.2518282 -0.015123478
cliff-notes 0.09229007 -0.034787357 -0.3189767 0.22679742 0.0013149604 0.0706023 0.04038341 -0.17878711 0.12107806 -0.0019406043 -0.08442066 0.05097866 -0.004893318 -0.09704697 -0.04182002 0.10893428 -0.27853954 0.13585636 0.21775591 -0.12651245 -0.2261405 0.0051572975 -0.2084147 -0.20766944 -0.18637335 -0.17821868 0.083300725 0.30830973 -0.006258537 0.022159154 0.12270658 -0.31919247 -0.09162686 -0.13440499 0.12332167 -0.08331971 -0.097756326 -0.36842355 0.05365126 0.04663672 0.2737261 0.23479556 -0.09382538 0.24076815 -0.02383902 -0.0067870934 0.06257496 0.28148007 -0.04074285 0.24917215 -0.06678563 0.14680284 -0.20086607 -0.3445611 0.35020208 0.77047896 0.08812607 0.07206428 -0.41317073 -0.26161274 -0.1318201 -0.15098946 0.07929087 -0.03884467 -0.19220933 0.033105724 -0.32262415 -0.25838208 -0.11242853 -0.18873525 0.0032881945 0.13106889 0.18114176 0.36826718 -0.22385079 0.12432845 0.034742985 -0.014409201 0.5061358 -0.014102705 -0.33537 0.002514325 0.24124008 0.021317866 0.24430376 0.026255917 0.0365059 0.09264567 -0.18355253 0.1827945 -0.13980915 0.058119517 0.01897803 -0.15134099 0.17313261 -0.09047892 -0.0395329 0.25041553 -0.23021945 0.025290536
ourside -0.09267301 0.098213665 0.14190681 0.090164356 -0.034139812 0.2695117 -0.13504799 0.0346466 0.09587344 0.13967147 -0.14082032 0.103858896 0.045280382 -0.12617233 0.064284004 0.01802535 -0.03143075 0.09266478 0.1635472 -0.07362902 -0.052269995 -0.029023215 -0.02827616 -0.10818209 0.12250081 0.04087501 -0.08126494 0.07532516 -0.11638091 -0.16362774 -0.007587809 -0.057948776 -0.017184205 -0.08445291 -0.07345235 0.019544885 -0.08656797 -0.17461596 -0.017743636 -0.059763752 0.061442994 0.11807221 -0.041086197 -0.065196514 -0.12161019 0.066607 0.26421335 0.08381646 -0.049230747 -0.15055414 -0.06388963 0.030935328 -0.0026757196 0.19214925 0.024785303 -0.096820414 0.17656529 -0.21317963 0.12847632 -0.10918343 -0.07770543 0.063986376 0.02509784 0.041506596 0.06747654 0.0011162199 0.078612 -0.11280812 -0.034144916 -0.276501 -0.009905137 -0.12121259 0.152825 0.021717697 -0.074796975 -0.029343925 -0.043379672 -0.14672579 0.06928083 -0.04745651 -0.07594776 0.12225169 -0.035424918 0.24242844 -0.1508286 -0.019718803 0.15642707 0.077366695 -0.12479697 0.0039918125 -0.16538058 0.06581467 -0.1072963 -0.09577419 0.11330892 -0.17455316 0.026397556 -0.037366793 0.08438218 0.20412476
surfacey 0.032824032 -0.14004444 -0.14808467 0.122641295 0.0015232377 -0.019986525 -0.0093145445 -0.09449346 0.16079457 0.011313915 -0.09946031 0.1244508 -0.08390075 -0.16079581 -0.0037949048 0.089335576 -0.21250893 0.090105854 0.19357835 -0.070118695 -0.25415125 -0.009941511 -0.10858272 -0.1402191 -0.084316246 0.0956549 -0.012344867 0.16669822 -0.08885945 -0.026473641 0.029109646 -0.17322366 0.04502461 -0.01469445 -0.045027908 -0.060367316 -0.0015789988 -0.21675396 0.020179655 -0.0011198893 0.13569519 0.21785296 -0.02080034 0.18120493 -0.18706542 0.10157928 0.09737369 0.14510256 0.07287968 0.1813663 0.041769974 0.0038166977 -0.14642408 -0.2439366 0.12398933 0.46788123 0.084878325 0.02214912 -0.4365103 -0.21186492 0.099335305 -0.22553521 0.1648778 -0.05056431 -0.23456743 0.0043414943 -0.0565475 -0.14892882 -0.13153958 -0.048794523 0.06711609 0.08543851 0.08374106 0.22419828 -0.033464864 0.04637636 0.047809396 -0.075330816 0.3003535 0.06066722 -0.23383135 0.03536782 0.11414519 -0.034709677 0.30661756 -0.018108599 -0.0034429152 0.03668686 -0.1092262 0.12556936 0.030832868 0.038238317 0.10308105 -0.06325041 0.2653913 -0.07882145 0.12192826 0.13963133 -0.28671908 0.116767205
action-thriller\/dark 0.091742955 -0.07272164 -0.14673106 0.25034344 -0.048910517 -0.007864001 0.056576163 -0.14284572 0.16368835 0.039738175 0.017458329 0.010263823 -0.08709824 -0.17816818 -0.05177793 0.13964106 -0.13308537 0.017013982 0.18927966 -0.08463259 -0.20800056 -0.04003142 -0.23713449 -0.1300151 -0.1418054 -0.05905363 0.07505208 0.28511703 0.0046010185 0.074113235 -0.0033078603 -0.099390626 -0.0064751804 -0.0682881 0.017385952 -0.1171598 -0.0878646 -0.2103079 0.042135008 0.026674895 0.21943893 0.27215353 -0.12140281 0.16246668 -0.03654453 -0.04976463 0.019945838 0.22013484 -0.026344588 0.1843293 0.03214842 0.11399949 -0.034685515 -0.3599153 0.1677196 0.56492484 0.04122037 0.007110268 -0.31695172 -0.28076932 -0.008974455 -0.2143915 0.06329593 -0.037819598 -0.23278655 -0.027136479 -0.29503906 -0.26438344 -0.08894949 -0.025385454 0.018618897 0.060155094 0.11865227 0.24212557 -0.11211865 -0.02132326 0.09998974 0.0074264146 0.367844 -0.08016164 -0.32481974 -0.005442951 0.23076536 -0.010918468 0.35359442 0.07371603 0.03882026 0.16435117 -0.09017707 0.17183916 -0.030105643 0.12445334 0.053347465 -0.14609726 0.27649543 -0.114042 0.10301076 0.21313569 -0.17118832 -0.061135218
nickelodeon-esque 0.09596534 -0.121223554 -0.12524611 0.37317377 0.013260175 0.08955818 0.036120053 -0.01987826 0.09714651 0.12595102 -0.1339813 0.04764542 -0.07583267 -0.16055547 -0.13701628 0.16373026 -0.18813924 -0.006883584 0.30749592 -0.15909617 -0.2083522 0.041615676 -0.2389689 -0.17889476 -0.21869707 -0.04931142 0.038774572 0.2982946 -0.03961669 0.08602838 -0.03830142 -0.2364609 0.10606935 -0.14956361 0.007353114 -0.11816875 -0.12240136 -0.3425515 0.06882284 0.012085719 0.2878996 0.22632323 -0.014540758 0.17703488 -0.017643087 0.035126247 0.18253893 0.25964066 -0.027750218 0.20807219 -0.00059410743 0.1107593 -0.1364749 -0.3788575 0.22158822 0.47534016 0.035958007 0.0044219196 -0.2768758 -0.33287603 -0.07765521 -0.21337795 0.016590372 -0.107109 -0.15564875 0.09318119 -0.37925783 -0.305875 -0.15565494 -0.03566817 0.10689388 0.1947049 0.13092482 0.37417132 -0.1470643 0.05309476 0.07043813 -0.07029013 0.4028155 0.04002497 -0.4029943 0.07678111 0.21387908 -0.015185896 0.33102667 0.115014255 -0.023730697 0.058226902 0.0004547313 0.21355444 -0.016587641 0.11892824 0.05312424 -0.060945675 0.27147794 -0.042085227 0.17462748 0.2466529 -0.17662184 -0.004075708
push-the-limits 0.077612445 0.023984484 -0.3246191 0.29842952 0.011371467 0.081193015 0.02149668 -0.17517437 0.12712124 0.074663594 -0.12262871 0.02073326 0.022192366 -0.13625382 -0.021749444 0.16390523 -0.27052724 0.15369603 0.2809984 -0.08962147 -0.24006546 -0.041990288 -0.24811798 -0.2298412 -0.20566416 -0.15157096 0.12802437 0.34190705 -0.033273943 0.0728586 0.095455155 -0.29634994 -0.07985979 -0.21930036 0.13951266 -0.10359581 -0.12885997 -0.3446011 0.046667404 0.0728022 0.2819388 0.270296 -0.024239589 0.24074925 0.011772193 -0.026746657 0.066642314 0.23413536 -0.10537537 0.23749705 0.023053758 0.097736485 -0.16891646 -0.35128427 0.39705575 0.69987935 0.15098953 0.004865326 -0.29613137 -0.28000236 -0.09510437 -0.1396363 0.055266175 -0.07530871 -0.11733544 0.052656665 -0.3205154 -0.29288238 -0.072275564 -0.24490502 -0.015249081 0.1318197 0.21923748 0.4226565 -0.19277892 0.09831569 0.064753145 -0.020773679 0.4566732 -0.029046804 -0.33524132 0.02308837 0.24298586 0.03041565 0.20483322 0.10779758 0.07654086 0.07715788 -0.16137058 0.13253847 -0.12440173 0.12852764 0.00848528 -0.25006214 0.25903046 -0.11501995 0.0053918213 0.23644286 -0.18130374 0.03250418
off-hollywood 0.026676636 -0.016493782 -0.09826176 0.33883858 -0.02531564 0.1650656 -0.056101013 -0.11115323 0.18466233 0.17754644 -0.06278403 0.007978477 -0.0065119043 -0.24729127 0.08616369 0.15324773 -0.18202019 0.048460096 0.28786135 -0.104700625 -0.17675287 0.042967606 -0.14517549 -0.23560667 -0.10845808 -0.0679868 0.08466388 0.34398994 -0.16291642 0.09187043 -0.02580626 -0.23022105 -0.010972705 -0.1272051 -0.0035130698 -0.15113218 -0.145682 -0.2881469 0.057426795 -0.028960854 0.23002009 0.31147313 -0.13515657 0.13314062 -0.06903541 -0.031657234 0.23041019 0.2857604 -0.12096424 0.17015244 0.012150708 0.08921729 0.02196645 -0.3651027 0.2669383 0.5755471 0.10236964 -0.07366136 -0.28584877 -0.24621278 -0.06816019 -0.17485619 0.09843823 0.0020601675 -0.18598506 -0.14741191 -0.16072683 -0.40195662 -0.056685366 -0.15026394 -0.056391843 -0.057200283 0.23281464 0.23250405 -0.06920987 0.07345499 0.03136231 -0.009940486 0.41583115 -0.13765177 -0.30742267 0.14587992 0.24014917 0.07078676 0.29821208 0.08133483 0.10747139 0.2185066 -0.1527318 0.07739153 -0.12753128 0.15084785 -0.013887301 -0.1474017 0.28243098 -0.10800721 -0.0013864562 0.18231295 -0.078100234 0.0731532
spring-break 0.08877298 -0.03895381 -0.19244507 0.26038378 -0.017218852 0.06982201 0.05706502 -0.111904174 0.11689742 0.11457732 -0.18167907 0.04948851 -0.024989188 -0.16255747 -0.1196675 0.20285407 -0.19571686 0.03166528 0.35094115 -0.16096057 -0.2170366 -0.014547466 -0.2822391 -0.20734185 -0.13712545 -0.06471109 0.055567414 0.32249516 -0.08497323 0.06515357 0.0096767 -0.22572537 0.0040903687 -0.13291232 0.08792207 -0.09714831 -0.13029674 -0.31028882 0.12307803 0.02010078 0.28505546 0.2805319 -0.019522727 0.24301419 0.013967462 0.03175465 0.1075772 0.29998943 -0.047381125 0.22763516 -0.046184443 0.13634035 -0.12787342 -0.36342055 0.32182267 0.56926453 0.10970478 0.05023223 -0.2601934 -0.32558706 -0.062436864 -0.20055129 0.03473368 -0.059275378 -0.11393513 0.048333418 -0.34445673 -0.28844225 -0.13448665 -0.15683872 0.048346262 0.13608396 0.18282373 0.36139914 -0.19084632 0.09036448 0.059692107 -0.055802025 0.4490435 -0.01697123 -0.3537941 0.047309887 0.27261704 0.03868064 0.260476 0.057375453 0.054010518 0.07973413 -0.06955711 0.1660735 -0.061601873 0.110943794 0.016270451 -0.12460357 0.31897742 -0.13115998 0.09214754 0.20825738 -0.17501745 0.042741194
well-conceived -0.010540307 0.10754787 -0.27134174 0.30469638 0.029112961 0.22333296 0.005269911 -0.15615577 0.17963699 0.19776112 -0.28680322 0.09124652 0.08717266 -0.2887228 0.039106905 0.21493703 -0.29623318 0.11208789 0.41392007 -0.10895687 -0.13759172 0.010728057 -0.20857997 -0.2646528 -0.066682465 -0.1181071 0.018950276 0.33992854 -0.16438153 0.072166264 0.05722808 -0.30911517 -0.07047271 -0.21091428 0.1036299 -0.07285908 -0.20598708 -0.38417685 0.10543461 0.05185545 0.29749268 0.34054172 0.08499678 0.26804388 0.029929005 0.021236036 0.19695593 0.33239403 -0.13488592 0.16244271 -0.04342992 0.032993436 -0.05227422 -0.30950007 0.44742587 0.63366014 0.22623076 0.036570743 -0.28345788 -0.34167445 -0.02456922 -0.16289562 0.020557106 -0.0450103 -0.06612216 -0.040481377 -0.16240954 -0.25271833 -0.052826345 -0.29830763 0.017440706 0.07361008 0.29970396 0.43590328 -0.18146986 0.18252644 -0.053447448 -0.102194756 0.52404934 -0.075618125 -0.3104642 0.082374096 0.23688078 0.13066712 0.17542586 -0.000928618 0.20251447 0.122937776 -0.26543307 0.015839353 -0.13649711 0.11960673 -0.031414226 -0.26880488 0.3631974 -0.16579098 -0.049480528 0.16106999 -0.2299297 0.13640448
revenge-of-the-nerds 0.099282086 -0.023408167 -0.26901418 0.28995085 0.028182842 0.097641066 0.03370106 -0.13513035 0.07462183 0.08213249 -0.13663307 0.054795217 0.025278047 -0.15523241 -0.107670866 0.12255254 -0.23490044 0.091434054 0.25893947 -0.20630129 -0.2182101 0.005820046 -0.22837223 -0.21943942 -0.20350201 -0.21923123 0.049428523 0.3343959 -0.025892999 0.04698635 0.08815956 -0.28023797 -0.04072497 -0.16028836 0.12524346 -0.13245505 -0.14666146 -0.32925868 0.07263627 0.063056774 0.28209895 0.25570568 -0.054205578 0.2530446 0.03861069 0.019510068 0.110941954 0.29004508 -0.01418565 0.20957772 -0.05694133 0.16736087 -0.1736978 -0.34448683 0.33248806 0.682778 0.06520419 0.025350176 -0.2761159 -0.3083504 -0.11135107 -0.11396745 0.06622051 -0.040917166 -0.15361376 0.064633206 -0.38183728 -0.24099115 -0.16078553 -0.19833943 0.022312324 0.12822618 0.16893598 0.37039593 -0.24502733 0.102360755 0.05898816 -0.050234765 0.49710998 -0.017016947 -0.33221185 0.059536804 0.26181525 0.040789317 0.20610482 0.031191677 0.034340102 0.11212253 -0.1535468 0.16785496 -0.10634498 0.07686394 -0.03716229 -0.19144237 0.19750497 -0.13347237 0.030940812 0.29498684 -0.138036 0.014135851
dominatrixes 0.025574826 0.06296798 -0.28524753 0.11052203 -0.016793571 0.031294905 -0.029416498 -0.1087469 0.18869123 -0.08073811 0.0019734106 0.06734565 0.0622105 0.029995985 0.04156091 0.1168381 -0.3445589 0.274882 0.18504795 -0.016894903 -0.23428376 -0.0431419 -0.19481707 -0.10892379 -0.17801034 -0.07667283 0.086646035 0.2969368 -0.055275686 -0.065657765 0.19010009 -0.3455524 -0.11639444 -0.18280363 0.18118924 -0.087832145 -0.0056014573 -0.26184085 -0.042479146 0.055042412 0.26546833 0.20036082 -0.12919638 0.16045806 -0.124523014 -0.06395461 -0.004326323 0.19918588 -0.035748646 0.21831779 0.039918754 0.03467189 -0.18805158 -0.2565788 0.32553804 0.80867994 0.20370857 0.06307131 -0.45162946 -0.20774807 -0.08161174 -0.09125684 0.16621223 -0.11986065 -0.19323924 0.06067368 -0.16689631 -0.25711146 -0.06076382 -0.27374667 -0.01808203 0.10147205 0.20009279 0.30322218 -0.17968723 0.024146464 0.049236555 -0.0031733327 0.39104125 0.0035831854 -0.25328732 -0.0885656 0.11698159 0.007921454 0.18718928 0.1110209 0.093486734 0.08555146 -0.2609691 0.16595092 -0.13651833 0.1340288 0.03333281 -0.30953065 0.19090734 -0.09661128 -0.012172967 0.16856456 -0.22613731 0.061572284
