182nd -0.401039 -0.463870 -0.230735 -0.373096 1.155365 -0.743637 -0.285159 0.191378 0.745384 0.241823 -0.356501 -0.408714 -0.479614 0.151175 -0.115490 -1.293986 -0.059911 -0.794162 -0.564867 0.179225 0.222943 -0.420891 -0.309482 -0.602499 -0.211848 -0.839876 0.159147 -0.146300 -0.679531 -0.286404 1.145752 0.700145 0.135317 0.070834 0.116369 0.061672 0.200079 1.137072 -0.300599 -0.505642 -0.377142 0.206950 -0.521805 -0.872325 -0.543642 0.164471 0.169705 -0.035632 0.437052 0.073318
12-footer -0.440325 0.042248 -0.224671 0.008775 0.295374 0.033260 -0.456557 0.371534 -0.070033 0.295148 -0.258419 0.007874 -0.115575 0.051208 0.560511 -0.450118 -0.222877 -0.089256 -0.120220 0.356109 -0.012795 -0.242623 -0.418501 -0.200162 -0.094085 -0.115152 0.469482 -0.053737 0.227247 0.075329 0.221261 -0.106649 0.287923 0.515362 0.204131 0.071955 -0.095526 0.289553 0.212805 -0.666206 -0.295597 -0.141369 -0.354098 -0.197191 -0.320282 0.014514 0.421445 -0.075256 -0.337278 0.367279 
mid-week -0.609221 -0.116889 -0.339174 -0.062648 0.249644 0.117725 -0.250839 0.297208 0.030232 0.217538 0.052639 -0.039631 0.246069 0.245265 0.082049 -0.339839 -0.105772 -0.039100 0.154769 0.344903 0.325408 -0.296231 -0.362653 0.019430 -0.091032 0.057048 0.241239 -0.119891 0.097554 0.100171 0.175856 -0.025870 0.416386 -0.039820 0.061198 0.351218 -0.202377 0.352942 -0.294090 -0.674292 -0.088973 -0.429539 -0.239556 -0.016840 -0.193717 -0.301771 0.265677 0.134994 0.000079 0.137003 
t-bonds -0.144353 -0.164977 0.143564 -0.106243 0.214912 0.047808 -0.291150 0.175723 -0.222597 0.269977 -0.177071 -0.009587 0.355457 -0.055668 0.047032 0.032993 -0.103088 -0.112050 0.169684 0.009904 0.374766 0.061040 -0.169443 -0.071128 -0.011703 -0.032070 0.368219 -0.086116 0.335493 -0.051521 0.538720 0.165628 0.480120 -0.010278 0.154634 0.077048 -0.282236 0.059812 -0.134124 -0.380273 -0.054252 -0.302720 0.147891 0.387649 -0.033846 -0.243818 -0.030640 0.124985 -0.068685 0.065852 
dynamic 0.139288 -0.001904 -0.129232 -0.197612 0.509473 0.128204 -0.309085 -0.079049 -0.305741 0.192407 -0.002022 0.319258 -0.081825 -0.226449 0.336256 0.263223 -0.045624 -0.013611 0.110981 0.174716 0.463172 0.230545 -0.014003 -0.160035 -0.033190 -0.772694 0.088643 0.014053 0.124528 0.166239 1.369681 -0.197835 0.272145 -0.238636 0.231947 -0.073383 -0.124152 -0.019841 -0.091782 -0.274395 -0.172208 -0.052353 0.024174 0.057489 0.212409 -0.406407 -0.203196 0.357747 0.132426 0.316014 
16.57 -0.580051 -0.448548 0.477254 0.302015 0.676958 0.331441 -0.067006 -0.350788 -0.579512 0.597033 -0.276012 -0.025178 0.541762 -0.552238 0.225824 0.181347 -0.379089 -0.267857 0.102165 0.536841 0.913960 0.444172 -0.204517 -0.586000 0.461309 0.497825 1.006160 -0.554529 0.455463 -0.238710 -0.570173 0.094444 0.503683 0.326360 0.377631 -0.557551 -0.644453 0.256312 0.026568 -0.414503 -0.098288 -0.439789 0.707262 0.248234 -0.685366 -0.149254 0.119787 -0.117446 0.172595 0.113638 
4-37 -0.608400 -0.556559 0.423035 -0.313445 0.151450 0.204417 0.066100 0.159073 -0.085118 0.068671 -0.041344 0.087236 0.116551 -0.030485 -0.072203 0.262419 0.029687 0.052797 0.074368 -0.092943 0.211204 0.309107 0.243635 0.215357 -0.115491 0.640599 0.603721 0.053879 0.585442 0.059478 -1.181089 0.279603 0.811354 0.175222 0.211734 0.197189 -0.535915 0.156555 0.027078 -0.380428 0.349149 -0.070129 0.258984 0.345087 0.433429 -0.222925 0.300754 -0.294147 -0.227213 0.361068 
independence-seeking -0.638677 -0.218317 -0.229359 -0.099560 0.069990 0.185901 -0.321048 0.443975 0.112173 0.206948 0.131066 0.036299 0.268308 0.186691 -0.072272 -0.310180 -0.079356 -0.019615 0.225003 0.283106 0.306353 -0.105310 -0.220886 0.193002 -0.219525 0.248336 0.481550 -0.080460 0.227223 0.102482 -0.234676 -0.069109 0.566230 -0.204129 0.068137 0.381647 -0.272230 0.389998 -0.196965 -0.624064 0.198092 -0.389190 -0.167122 0.095942 -0.235710 -0.358465 0.177910 0.069738 -0.120629 0.333420 
tug-of-war -0.539596 -0.332204 -0.237978 -0.077915 0.110634 0.120732 -0.075753 0.570421 0.039666 0.258948 0.080848 -0.083565 0.457656 0.319331 -0.226227 -0.327549 -0.131035 -0.074692 0.393628 0.378699 0.086592 -0.305005 -0.457168 0.123182 -0.066131 0.397969 0.384259 -0.003681 0.274297 0.021943 -0.713899 -0.026900 0.614042 0.006515 -0.059174 0.399843 -0.323612 0.370115 -0.244667 -0.491601 0.173226 -0.422327 -0.109131 0.152456 -0.108623 -0.240451 0.208152 0.181840 -0.085308 0.131280 
mansion 0.041507 -0.019930 -0.060693 -0.094081 0.422673 -0.004629 -0.326562 0.003290 -0.152770 0.218643 -0.009119 0.046046 -0.094780 -0.187979 0.212223 0.005458 -0.004289 -0.153032 -0.143918 0.036936 0.346361 0.074219 -0.115577 -0.156098 0.002148 -0.899952 0.210641 0.031292 0.064403 0.004673 1.886522 0.024944 0.151108 -0.049543 0.078111 -0.152920 -0.073107 0.095191 0.064545 -0.286839 -0.108972 -0.026452 0.012112 -0.025589 0.042840 -0.300973 -0.068849 0.218748 0.264644 0.143741 
sharqiyah 0.108401 -0.219959 0.335072 0.054775 0.292964 -0.520864 0.133194 0.258752 -0.157624 0.144643 0.083642 -0.042468 -0.241754 -0.231663 -0.166141 0.283653 0.023726 -0.096228 0.474571 0.752707 -0.329567 0.109517 0.130171 0.058675 -0.384221 -0.368782 0.309451 -0.010506 -0.270739 -0.142756 -0.208514 0.221455 0.203190 0.250135 0.393184 0.161727 -0.068990 0.258838 -0.010308 0.370931 0.026917 0.558751 -0.205505 -0.311924 0.222549 -0.229405 -0.356717 0.041790 -0.118456 0.109665 
corrazin -0.086005 -0.050640 0.008289 0.049080 0.210139 0.025441 -0.158111 0.229833 -0.264164 -0.001380 0.233322 0.258229 -0.225339 -0.245526 0.215764 -0.019234 0.065211 -0.107604 0.058096 0.211383 -0.193670 0.076574 -0.119969 0.102989 -0.144487 -0.376295 0.285503 -0.106281 -0.084154 -0.178105 0.131788 -0.091621 0.248683 0.001389 0.106854 0.018402 -0.064826 0.180862 0.267327 0.160562 0.281310 0.361745 0.124989 -0.218100 0.104917 -0.127358 -0.137860 -0.084038 -0.174468 0.334325 
bodman -0.269489 -0.006572 -0.109225 0.080917 0.185409 0.252190 -0.253507 0.221266 -0.217746 -0.083018 0.142155 0.581767 -0.513620 -0.284492 0.284520 0.081472 0.185049 -0.245728 0.127961 -0.010182 -0.325774 0.228518 0.027277 0.035076 -0.097630 -0.140597 0.266146 -0.047706 -0.087569 -0.149604 -0.310243 -0.247628 0.422765 0.076970 0.320917 0.018957 -0.005738 0.232190 0.380862 0.159282 0.259181 0.541655 -0.074061 -0.193805 0.055494 -0.024139 -0.060325 -0.237928 -0.416296 0.531033 
4-38 -0.634078 -0.614608 0.388369 -0.414815 0.146373 0.206694 0.082806 0.229851 -0.062200 0.015672 -0.054200 0.073777 0.119546 0.038720 -0.186593 0.233089 0.024583 0.089316 0.036083 -0.116367 0.211065 0.306858 0.193583 0.223281 -0.145875 0.640374 0.592888 0.175882 0.623904 0.078514 -1.287403 0.259204 0.923831 0.215189 0.219123 0.269896 -0.539450 0.101737 0.006811 -0.395395 0.368267 -0.084379 0.229106 0.396720 0.520543 -0.315605 0.330021 -0.245520 -0.188977 0.305129 
4-39 -0.595451 -0.571528 0.465397 -0.387311 0.187353 0.134825 -0.077879 0.246966 -0.132751 0.042466 -0.010679 0.026166 0.036930 -0.074651 -0.025868 0.159725 0.068164 -0.015738 -0.126516 -0.025078 0.005081 0.274975 0.202863 0.141972 -0.103031 0.413594 0.619365 0.092282 0.492839 -0.009181 -1.065298 0.252099 0.769413 0.198085 0.189358 0.154512 -0.474062 0.180455 0.194986 -0.359935 0.335024 0.047791 0.205753 0.242067 0.448362 -0.211970 0.257367 -0.301315 -0.204094 0.317527 
motchebon -0.339180 0.177941 -0.233632 -0.021255 0.238239 0.119242 -0.400835 0.103333 -0.200476 -0.098857 -0.020819 0.513200 -0.349466 -0.539608 0.248716 0.161937 0.230933 -0.150367 -0.173947 0.083561 -0.002271 0.199342 -0.026081 -0.002879 -0.132744 -0.419114 0.189541 -0.076100 -0.044213 -0.103440 0.376490 -0.282860 0.309033 -0.073563 0.445929 -0.085718 0.098425 0.049960 0.304567 -0.079844 0.141823 0.340652 -0.201757 -0.188817 -0.021994 -0.004647 -0.009029 -0.260971 -0.280606 0.558896 
gillespie -0.394417 0.004420 -0.282899 0.008172 0.202394 0.358854 -0.448953 0.234745 -0.255810 -0.077076 0.098251 0.798735 -0.676895 -0.293915 0.355603 0.037227 0.254954 -0.333350 0.019218 -0.140899 -0.290792 0.356751 0.058186 0.011203 -0.061925 -0.170689 0.201967 -0.079037 -0.062574 -0.143606 -0.391559 -0.288253 0.413418 -0.163052 0.380034 0.000059 0.000017 0.202992 0.376768 -0.004630 0.226488 0.506762 -0.173655 -0.200531 0.090401 0.054982 -0.023846 -0.273494 -0.427616 0.679833 
1.15 -0.484038 -0.423528 0.690328 0.661617 0.934070 0.326122 -0.155220 -1.228594 -1.100073 0.334634 0.017910 -0.331490 0.983402 -0.786728 0.754255 0.156405 -0.459287 -0.001344 -0.873903 -0.202956 0.889577 -0.197095 -0.520107 -0.693489 0.466606 0.508775 1.220062 -0.077671 0.480187 0.339992 1.128937 -0.059688 0.783416 0.825850 0.091654 -0.700763 -0.653670 -0.035727 0.243137 -0.767079 0.067504 -0.294785 1.013385 0.428245 -0.711618 -0.608877 0.463055 0.165437 0.965445 0.007149 
buddy -0.254777 0.046454 -0.165612 0.044122 0.287127 0.372800 -0.425530 0.122443 -0.315099 -0.063043 0.005844 0.792254 -0.508664 -0.355048 0.494563 0.199997 0.153116 -0.253735 0.051198 -0.250993 -0.200233 0.281271 0.018307 -0.092640 0.178361 -0.384352 0.184633 0.041553 -0.025427 -0.203353 0.275995 -0.343357 0.512359 0.090073 0.320973 -0.207389 -0.025062 0.141946 0.487887 -0.168973 0.071858 0.411041 -0.060569 -0.055174 0.104030 -0.012117 0.073151 -0.284414 -0.338386 0.652880 
zycie -0.499659 -0.103983 0.068615 -0.141162 0.459274 0.292953 -0.129512 0.179203 -0.398546 -0.023340 0.151363 0.502008 0.275494 -0.315464 -0.032584 0.265000 -0.117137 0.156581 0.434433 0.427512 0.274341 0.443804 -0.228979 -0.110764 0.051708 0.117095 0.538940 -0.045971 0.182658 -0.136399 -0.968691 -0.375747 0.675550 -0.053138 0.497625 0.016618 -0.284564 0.111237 0.147068 -0.221398 0.201020 -0.051011 0.361854 -0.022607 0.016308 -0.465184 -0.089791 -0.061340 -0.049721 0.512158 
swan -0.076816 0.021651 0.094437 0.061078 0.459752 0.132444 -0.387980 -0.079470 -0.370932 -0.077678 -0.098828 0.449206 -0.555266 -0.282066 0.407969 0.286261 0.046865 -0.259339 -0.201597 0.015740 -0.060441 0.227068 0.192854 -0.162828 0.055668 -0.835244 0.166812 0.057069 -0.033997 -0.318664 1.106391 -0.177931 0.358971 0.308935 0.392317 -0.160547 0.088574 0.143416 0.385119 -0.037625 -0.096627 0.406286 -0.047401 -0.032918 0.329024 -0.181117 -0.054203 -0.415372 -0.027287 0.302180 
hermann -0.337315 -0.051834 -0.236010 -0.030036 0.275348 0.532150 -0.290766 0.244631 -0.260711 -0.062354 0.320247 0.722738 -0.513033 -0.341902 0.481771 -0.015422 0.284793 -0.347403 0.127691 -0.141953 -0.315912 0.293442 -0.101819 0.012276 0.081057 0.007822 0.250175 -0.281012 -0.023189 -0.100858 -0.684143 -0.276186 0.410882 -0.223269 0.118713 -0.086386 -0.098029 0.285545 0.425098 0.124907 0.448931 0.421580 0.107395 -0.176943 0.072682 -0.001829 -0.024295 -0.048263 -0.550689 0.770473 
sorry -0.105845 -0.012920 -0.031940 -0.101420 0.374345 0.278163 -0.485979 -0.087231 -0.140514 0.061012 -0.038177 0.273313 -0.273365 -0.196157 0.428648 0.112755 0.027178 -0.212153 -0.225680 -0.242530 0.301243 0.141479 0.063635 -0.103670 0.019634 -0.552312 0.233102 0.111432 0.225941 -0.002872 1.454153 -0.136580 0.385651 0.164416 0.187289 -0.140241 -0.065254 0.130368 0.253294 -0.283972 -0.010228 0.089449 -0.001431 0.057999 0.027449 -0.231274 0.078927 -0.143954 -0.005423 0.284931 
12,350 -0.314107 -0.224993 0.388992 -0.056702 -0.011738 0.064259 -0.072427 0.190874 -0.210288 0.109269 0.071274 -0.052770 0.561763 -0.312507 0.529032 0.091332 -0.090790 0.294044 0.153709 -0.382886 0.339398 -0.076826 -0.306303 -0.000054 0.008395 0.819755 0.544895 -0.266409 0.214655 0.098167 -0.573759 0.008767 0.552949 0.089309 -0.041838 0.191257 -0.194973 0.068425 -0.063101 -0.426480 0.300095 -0.343171 0.294579 0.474934 -0.238883 -0.250132 0.243740 -0.097544 -0.684965 0.148049 
4:08.96 -0.278767 -0.172765 -0.044030 -0.021639 0.184468 0.128179 -0.316575 0.170788 -0.227658 0.227657 0.113185 0.243549 -0.062114 -0.193630 0.315283 0.115474 0.075588 -0.100409 0.149157 0.125220 0.035845 0.098130 -0.127635 -0.035026 0.002841 -0.158364 0.264988 -0.085638 0.055017 -0.099790 0.021405 0.062826 0.372447 -0.063297 0.109541 -0.018983 -0.231600 0.179348 0.121965 -0.335171 0.024532 -0.021701 0.022320 0.012686 0.074844 -0.161501 0.010690 0.052730 -0.160595 0.296708 
ramaunaskaite -0.093260 -0.224753 -0.069625 -0.141356 0.327273 0.150200 -0.355494 -0.011283 -0.159157 0.058145 0.021527 0.305835 -0.252941 -0.118570 0.198892 0.196603 -0.005525 -0.102389 -0.046098 0.118462 0.221355 0.093300 0.023110 -0.012798 -0.153578 -0.356071 0.254082 0.125886 0.110301 0.183973 0.551032 -0.229699 0.493771 0.211741 0.293569 -0.026459 -0.076464 0.132311 0.038971 -0.122988 0.032777 0.113203 -0.084757 0.092865 0.055188 -0.243268 -0.107887 0.002445 -0.014426 0.231128 
vinson -0.494277 0.272628 -0.222478 0.028609 0.167905 0.647845 -0.408688 0.150302 -0.144762 -0.120228 0.032514 0.848971 -0.678624 -0.153974 0.459186 -0.168360 0.215783 -0.219366 -0.069882 -0.175336 -0.313055 0.318233 0.219006 0.185237 -0.143304 0.007793 0.240271 -0.126995 0.219252 0.024854 -0.211181 -0.442007 0.440515 0.008760 0.393487 -0.066595 0.038599 0.121646 0.679187 0.031411 0.302930 0.413083 0.011212 -0.190946 -0.044494 0.215909 0.023619 -0.357316 -0.369061 1.029028 
misunderstanding 0.027490 -0.193059 -0.117910 -0.066609 0.256354 0.153275 -0.251504 0.103284 -0.160523 0.330428 0.010682 0.064198 0.024934 -0.235161 0.240656 0.036728 -0.062444 -0.135104 0.186939 0.080506 0.457380 0.116511 -0.141448 -0.127850 -0.015862 -0.496673 0.267471 -0.089713 0.108874 -0.023223 1.093947 0.117783 0.264364 -0.249044 0.055332 -0.017802 -0.263535 0.100571 -0.171986 -0.335223 -0.131251 -0.165853 0.091470 0.038428 -0.028180 -0.269220 -0.113472 0.320637 0.018235 0.069237 
45.5 -0.191692 -0.192248 0.944769 -0.237254 0.710192 1.278088 -0.725948 -1.357864 -0.570725 0.466972 0.264897 -0.373983 0.333996 -0.861852 0.714477 0.291139 -0.362439 0.256844 0.106070 0.493436 0.702156 0.615798 -0.063721 -0.962611 0.053907 0.950936 0.679808 -0.194829 0.165272 0.150845 -0.191109 0.692679 0.762025 0.640159 0.940058 -0.382999 -0.207639 0.341726 0.235613 -0.332014 -0.610817 -0.405571 0.610022 -0.133640 -1.411751 -0.900813 -0.315652 0.603944 0.324743 -0.006415 
eltahawy -0.021320 -0.023477 -0.182957 -0.049765 0.260433 0.107753 -0.208020 0.029396 -0.131311 0.163820 0.001762 0.253211 -0.095372 -0.313358 0.167575 0.088038 0.026391 -0.119407 0.053380 0.143011 0.209654 0.107536 -0.080703 -0.088841 -0.094200 -0.503159 0.164487 -0.005495 0.082319 0.012300 0.918473 -0.046554 0.252200 -0.097457 0.173209 -0.051813 -0.126129 0.017726 0.104890 -0.189318 -0.010458 0.079056 -0.063070 -0.053527 0.025289 -0.223452 -0.021982 0.170844 0.008545 0.344395 
49.36 -0.509019 -0.383804 0.409346 0.030921 0.509462 0.111639 -0.070394 0.056906 -0.544155 0.473512 -0.277848 -0.001263 0.680003 -0.501362 0.129736 0.208444 -0.310994 -0.129825 0.214548 0.549934 0.766750 0.391347 -0.312682 -0.486794 0.325933 0.466500 0.933558 -0.407567 0.509157 -0.279226 -0.877465 0.172488 0.464607 0.097867 0.378035 -0.300736 -0.525232 0.128982 -0.071101 -0.506681 -0.099480 -0.465873 0.575408 0.158266 -0.484077 -0.174421 0.090012 -0.043445 -0.004866 0.206677 
960 0.286623 -0.523700 0.693309 -0.449665 0.359339 0.347169 -0.088216 -0.637840 -0.227839 -0.142713 -0.602677 -0.119290 0.357066 -0.907975 0.481183 -0.378675 -0.639521 0.368529 -0.331372 0.480168 0.462139 -0.223900 0.030093 -0.456171 -0.034353 0.417785 0.288556 -0.462091 -0.069364 -0.047621 -0.188992 -0.143190 0.839020 0.813130 0.563434 -0.238928 0.292844 -0.026312 -0.066790 0.120319 -0.254125 -0.300712 0.611467 0.282135 -1.038421 0.240770 -0.266979 -0.198063 -0.424287 0.132762 
kazanjoglus -0.201184 -0.209721 -0.074236 -0.067757 0.200386 0.214374 -0.233383 0.197352 -0.162799 0.210214 -0.015453 0.126598 0.013456 -0.052308 0.132163 0.000109 -0.045480 -0.134326 0.202035 0.051859 0.290186 0.046954 -0.132108 -0.017223 -0.058263 -0.189108 0.281695 -0.009422 0.208688 -0.124385 0.413998 0.140546 0.503213 -0.058185 0.123963 0.149839 -0.247218 0.129909 -0.149711 -0.340664 -0.047324 -0.177665 0.076049 0.146937 0.096516 -0.283202 -0.025713 0.107917 -0.041143 0.076823 
alpine -0.007960 -0.040182 -0.072574 -0.017429 0.300109 0.134424 -0.303429 0.036066 -0.276430 0.162725 0.084952 0.272231 -0.196450 -0.298248 0.349324 0.084982 0.027781 -0.134427 -0.012457 0.040035 0.122471 0.161903 -0.039996 -0.067427 -0.017598 -0.555038 0.243757 -0.026404 0.055859 -0.113304 0.960155 -0.039128 0.215708 -0.055222 0.151937 -0.126135 -0.063912 0.115121 0.157900 -0.145200 0.022356 0.125737 0.077038 -0.102945 0.028274 -0.177340 -0.102286 0.018142 -0.011220 0.316591 
refrains 0.291961 -0.251803 -0.042547 -0.110730 0.336639 -0.010931 -0.174666 -0.070742 -0.348226 0.320832 -0.051589 0.292784 0.103454 -0.616744 0.438084 0.464981 0.062746 -0.196814 0.312440 -0.205845 0.416558 0.096806 -0.169634 -0.352572 0.300559 -0.535383 0.074422 0.056144 0.018577 -0.080104 1.173808 0.215904 0.368698 -0.209101 0.000009 -0.278197 -0.332235 -0.064497 -0.133700 -0.419964 -0.239310 -0.050719 0.082192 0.112208 0.119742 -0.321064 -0.034343 0.474626 -0.040607 0.138295 
2,684 -0.091548 -0.504417 0.288098 -0.293305 0.230392 0.212152 0.065101 0.172089 -0.155188 0.148313 -0.396172 -0.175316 0.558562 -0.074090 -0.144675 -0.470636 -0.395607 -0.057707 0.260907 0.238496 0.247112 -0.151454 -0.135717 -0.054555 -0.005357 0.728085 0.342626 -0.441886 0.247750 -0.010580 -0.719319 0.282638 0.767428 0.012795 0.235813 0.247338 -0.230221 0.131479 -0.402821 -0.172750 -0.044349 -0.500202 0.355240 0.500770 -0.380607 0.132298 -0.054698 0.216405 -0.229297 0.091668 
andretti 0.003254 -0.079201 -0.091297 0.159113 0.247655 0.053895 -0.281469 0.154997 -0.318094 0.160899 0.157987 0.274049 -0.295206 -0.282826 0.386344 -0.066341 -0.021888 -0.143311 0.068782 0.206351 -0.116523 0.118370 -0.103336 -0.004701 -0.049710 -0.533779 0.308896 -0.122210 -0.123376 -0.215852 0.600537 -0.064320 0.175871 -0.065459 0.121329 -0.054045 -0.066609 0.229716 0.173605 -0.069297 0.062193 0.253805 0.055879 -0.252698 0.001251 -0.120843 -0.129225 -0.045961 -0.077657 0.328063 
telgheder -0.180092 0.106831 -0.173575 -0.030625 0.325078 0.161715 -0.357496 -0.019905 -0.226356 0.048804 0.194526 0.293166 -0.408290 -0.242361 0.531208 0.029744 0.042887 -0.080443 -0.201642 0.132613 0.168749 0.115924 0.036613 -0.013541 -0.130809 -0.683527 0.151282 -0.061437 -0.033527 0.037354 1.034339 -0.142663 0.084881 -0.048218 0.213853 -0.029522 -0.054342 0.119697 0.204688 -0.140360 -0.044899 0.220133 -0.022423 -0.326255 0.031755 -0.185992 -0.015689 -0.083562 -0.008261 0.243305 
maksim 0.118475 -0.119608 0.280913 0.037109 0.401581 -0.402816 -0.029050 0.051738 -0.186579 0.172672 0.086879 0.093888 -0.292365 -0.249120 0.063704 0.253802 0.024614 -0.077188 0.285217 0.470683 -0.148191 0.166796 0.191787 0.021131 -0.328067 -0.368633 0.297593 -0.010773 -0.169719 0.014228 0.357844 0.161532 0.157035 0.223139 0.408290 0.034026 -0.040450 0.190544 0.049656 0.194674 -0.023766 0.452013 -0.187638 -0.244078 0.106625 -0.294269 -0.263194 0.032623 0.003213 0.251711 
dawie -0.159848 -0.076143 -0.191958 0.101109 0.231675 0.119013 -0.238170 0.242070 -0.313764 0.006506 0.209809 0.479672 -0.560368 -0.365705 0.471123 0.006012 0.064668 -0.188224 0.051030 0.242821 -0.272407 0.160209 -0.070964 0.011700 -0.057486 -0.510244 0.257085 -0.096272 -0.225111 -0.189559 -0.039372 -0.159740 0.210765 -0.119334 0.160460 -0.034623 -0.041084 0.190664 0.309496 -0.034473 0.141161 0.436859 -0.043036 -0.456974 0.137077 0.036426 -0.047102 -0.079829 -0.233567 0.492954 
initialling 0.070779 -0.290009 -0.082199 -0.091594 0.212015 0.196968 -0.174054 0.130474 -0.160259 0.334514 -0.013007 0.065872 0.048226 -0.206534 0.156725 0.040543 -0.103881 -0.100624 0.229621 0.122386 0.446436 0.126562 -0.091916 -0.099296 -0.044742 -0.484371 0.294506 0.005705 0.196925 -0.036339 0.964667 0.117880 0.369258 -0.196719 0.043718 0.007754 -0.323739 0.033658 -0.156182 -0.307274 -0.117299 -0.171941 0.158812 0.094660 0.047617 -0.324553 -0.150234 0.349047 0.088357 0.052251 
moravcik -0.099310 0.020377 -0.046741 0.030429 0.383443 0.105517 -0.316397 0.068639 -0.243778 0.061239 0.029532 0.319390 -0.329152 -0.268323 0.319929 0.069652 0.056789 -0.163979 -0.042078 0.076723 0.068226 0.171820 -0.055345 -0.051944 -0.049775 -0.594379 0.268209 -0.042135 0.002787 -0.132518 0.876059 -0.098412 0.308625 0.022637 0.231958 -0.079241 -0.012995 0.149902 0.188222 -0.130276 0.049204 0.212433 0.001641 -0.111272 0.113585 -0.201575 -0.066923 -0.052809 -0.038898 0.386771 
freighter 0.075101 0.173144 -0.207186 -0.124447 0.647706 0.169570 -0.382821 -0.263184 -0.162224 0.085667 -0.055226 0.375900 -0.323692 -0.310522 0.493915 0.100834 0.066800 -0.134269 -0.199445 -0.148817 0.488392 0.231344 0.023741 -0.122574 0.019117 -0.996200 0.014144 -0.039065 0.071243 0.027090 2.103395 -0.062930 0.246526 -0.102586 0.197867 -0.226080 -0.067551 0.042498 0.103843 -0.305465 -0.093775 0.104910 0.067671 -0.053133 0.160554 -0.324914 -0.008446 0.148547 0.144536 0.470448 
woods 0.058394 0.103665 0.176950 -0.089446 0.236318 0.219260 -0.364695 -0.260627 -0.233411 0.096300 -0.132845 0.124542 0.049749 -0.217732 0.378752 0.269283 0.043671 -0.167842 -0.168599 -0.614546 0.542645 0.105640 0.123788 -0.115980 0.091686 -0.452600 0.109806 0.036395 0.295495 -0.027599 2.052269 0.078407 0.297251 0.074564 0.094326 -0.138590 -0.045012 -0.013778 0.037244 -0.163642 -0.032177 -0.054811 0.225524 0.361291 -0.002457 -0.167935 -0.052659 -0.134152 -0.043322 -0.007187 
despairing 0.217660 -0.280486 -0.073184 -0.188062 0.328603 0.298281 -0.132670 0.151769 -0.180715 0.327554 -0.152124 0.114424 0.001874 -0.218737 0.199110 0.083339 -0.150860 -0.177184 0.262417 0.016103 0.569174 0.240322 -0.011327 -0.167885 0.010900 -0.635834 0.305595 -0.002229 0.333232 0.034683 1.337850 0.138987 0.377150 -0.352846 0.072287 0.000697 -0.329777 -0.070490 -0.225137 -0.354614 -0.209230 -0.218421 0.206679 0.182021 0.186892 -0.295515 -0.178070 0.501141 0.114386 0.127676 
299 0.405791 -0.554601 0.754921 -0.395540 0.572428 0.510545 0.041368 -0.801042 -0.111099 -0.088641 -0.940727 -0.140259 0.185015 -0.753787 0.247369 -0.762251 -0.856193 0.186081 -0.330690 0.681343 0.415054 -0.245497 0.246725 -0.441598 -0.071176 0.366591 0.328041 -0.544171 0.034093 -0.040620 0.150321 -0.024312 0.952290 0.972876 0.767181 -0.334931 0.358446 0.068365 -0.106997 0.224425 -0.440743 -0.360448 0.749652 0.247162 -1.212690 0.583197 -0.390752 -0.159373 -0.024246 0.319372 
296 0.436795 -0.616362 0.780801 -0.368452 0.550296 0.531240 0.084718 -0.831205 -0.107751 -0.067347 -0.983807 -0.150162 0.225281 -0.767181 0.229894 -0.747113 -0.866443 0.186961 -0.298343 0.627169 0.439004 -0.244496 0.220873 -0.486761 -0.034312 0.376448 0.340106 -0.538426 0.012636 -0.079682 0.184098 -0.016975 0.999872 0.998893 0.755827 -0.347166 0.353876 0.053610 -0.147558 0.201053 -0.476348 -0.394120 0.819722 0.319117 -1.205832 0.603293 -0.404545 -0.139869 -0.020047 0.254607 
specially 0.256006 -0.549236 0.054177 -0.368707 0.521145 0.360181 -0.387520 -0.040579 -0.335094 0.345145 0.040940 0.201889 -0.150612 -0.266940 0.481109 0.232948 -0.195444 -0.062311 0.158070 -0.046597 0.387528 0.408530 0.312900 -0.157529 0.338838 -0.808134 0.372248 0.161632 0.217726 -0.018772 1.545399 -0.174135 0.515235 -0.204839 0.206391 -0.257920 -0.014093 0.502707 -0.350937 -0.395896 -0.184041 -0.209212 0.311066 0.182679 -0.050134 -0.298233 -0.416086 0.157135 0.158436 0.235600 
110-seat -0.423055 -0.015461 -0.266519 -0.105162 0.018655 -0.005151 -0.369762 0.435402 -0.080791 0.340354 -0.205583 -0.055303 0.090502 0.068266 0.476629 -0.351690 -0.177757 -0.050421 -0.027333 0.278636 0.156936 -0.324910 -0.327905 -0.160126 -0.090959 -0.013325 0.357037 -0.044057 0.228567 0.077655 0.296701 0.094861 0.219807 0.193380 0.071071 0.187651 -0.105776 0.219061 -0.026114 -0.736190 -0.351593 -0.325753 -0.348990 -0.139396 -0.352136 0.003132 0.357731 0.054208 -0.310265 0.211884 
khurshid 0.125400 -0.266615 0.297246 -0.071456 0.312545 -0.481234 -0.036431 0.260579 -0.221740 0.153381 0.029743 0.128825 -0.416684 -0.218809 -0.104269 0.310599 0.015553 -0.084213 0.439248 0.660589 -0.338400 0.253066 0.255761 -0.000078 -0.431487 -0.386756 0.324378 0.082151 -0.260545 -0.024939 -0.203764 0.195889 0.262902 0.131934 0.569376 0.192580 -0.021950 0.214550 -0.057455 0.231831 -0.135591 0.559090 -0.333019 -0.291392 0.274989 -0.266424 -0.410058 0.079370 -0.069490 0.202871 
0050 -0.167809 -0.073775 0.221622 -0.004276 -0.461723 -0.546014 0.462694 0.003980 -0.442570 -0.127026 0.040737 0.207870 0.377292 -0.426610 0.173368 0.672758 -0.311162 0.394484 -0.031238 0.159932 0.610415 -0.220359 -0.002521 0.399624 0.114304 0.735579 0.304332 -0.260790 0.282113 0.153844 -0.568042 -0.058248 0.118570 0.297721 -0.200306 -0.205140 0.079199 -0.407946 -0.021528 0.034818 0.522797 -0.462984 0.035520 0.437295 -0.251495 -0.004694 0.590159 -0.472682 -0.487128 0.408717 
27- -0.536607 -0.017301 0.373006 0.023228 0.234085 -0.954014 -0.207573 1.008736 -0.176998 0.224856 0.153310 -0.360087 -0.362465 0.249219 -0.187914 -0.315954 0.423974 -0.902860 -0.523576 -0.067676 -0.993476 -0.049351 -0.169871 -0.074115 0.080880 -0.556082 0.699270 -0.176388 -0.328078 -0.518696 0.333783 0.471770 -0.341149 -0.292016 -0.321482 -0.055273 0.324773 0.813263 0.599825 0.037775 0.485306 0.531489 -0.351316 -0.405445 0.410751 0.513288 0.087955 -0.381929 -0.040875 0.247440 
20.78 -0.576582 -0.488222 0.500829 0.267122 0.681293 0.344991 -0.070549 -0.311135 -0.609410 0.548321 -0.289759 -0.031773 0.547860 -0.564063 0.211757 0.204254 -0.370410 -0.284287 0.088242 0.476260 0.878520 0.440100 -0.230491 -0.625745 0.502744 0.468500 1.007044 -0.496117 0.443571 -0.271066 -0.553599 0.065250 0.575301 0.326852 0.370121 -0.519082 -0.644503 0.232672 0.030625 -0.449337 -0.107350 -0.414069 0.685531 0.280251 -0.586594 -0.203278 0.154394 -0.117470 0.155979 0.063629 
gorman -0.429368 -0.013432 -0.275888 -0.002803 0.235255 0.430438 -0.341972 0.200399 -0.198005 -0.115452 0.174325 0.819328 -0.574221 -0.248980 0.342767 0.040143 0.216647 -0.237372 0.156619 -0.105979 -0.248640 0.311772 -0.028622 -0.038992 -0.035930 -0.073981 0.191527 -0.042382 -0.098600 -0.070288 -0.635719 -0.405842 0.542696 -0.015057 0.335397 0.018501 -0.101765 0.231856 0.417145 0.048045 0.266495 0.522601 -0.082092 -0.167308 0.045125 -0.087317 0.010685 -0.165466 -0.483338 0.642565 
shrieked -0.260064 -0.665995 0.286115 -0.330037 0.379222 0.189257 -0.675067 0.500595 -0.318226 -0.011604 -0.178346 0.060034 -0.586675 -0.027559 0.182988 -0.026901 -0.192829 -0.451027 -0.385015 -0.113458 0.038512 0.272073 0.135831 -0.272324 0.000525 -0.551006 0.714713 0.303772 0.221478 -0.190384 0.341260 -0.038372 0.755112 0.095685 0.399552 0.188704 -0.005574 0.360585 -0.041177 -0.309403 -0.176707 0.112686 -0.106040 0.185005 0.283942 -0.184314 -0.150261 -0.332849 -0.000542 -0.255939 
currie -0.176507 -0.145531 -0.206600 0.071788 0.150959 0.063553 -0.347923 0.360736 -0.212694 -0.010027 0.170207 0.282769 -0.454337 -0.134126 0.076098 -0.062485 0.082402 -0.259213 -0.046869 0.124439 -0.163015 0.258685 -0.103770 0.142623 -0.169598 -0.582682 0.277182 -0.080069 -0.157496 -0.333828 0.345455 -0.063240 0.236611 -0.153629 0.221178 0.115167 -0.027156 0.217509 0.149627 0.060935 0.211566 0.381577 -0.031843 -0.185574 0.169854 -0.065057 -0.113523 -0.211872 -0.176501 0.179141 
chandana -0.072284 -0.077611 -0.188774 0.549549 0.295562 0.147903 -0.326299 0.317377 -0.410125 0.145974 0.292868 0.435332 -0.612615 -0.196293 0.580699 -0.342432 -0.144180 -0.177188 0.250229 0.297866 -0.609153 0.129574 -0.124529 0.112304 0.009723 -0.627681 0.493513 -0.117503 -0.378165 -0.519187 0.282555 -0.244783 0.248888 0.115730 0.126483 -0.039071 -0.048019 0.549805 0.362831 -0.017410 0.107922 0.576759 0.060513 -0.558513 0.002354 -0.011096 -0.144132 -0.417875 -0.158054 0.457684 
sterile -0.048508 -0.160059 -0.096469 -0.073747 0.243115 0.108948 -0.252898 0.136057 -0.230326 0.166097 0.047177 0.228256 -0.137883 -0.257855 0.257769 0.117927 -0.000089 -0.136722 0.051938 0.078933 0.144866 0.117410 -0.078004 -0.071752 -0.005689 -0.456095 0.245125 0.032607 0.099319 -0.085961 0.657705 -0.031780 0.312055 -0.059830 0.130804 -0.043985 -0.128579 0.103583 0.057697 -0.205959 -0.006162 0.051474 0.023279 -0.031895 0.093110 -0.185064 -0.048560 0.055080 -0.047285 0.218453 
rustu -0.206821 -0.073492 0.036881 0.012813 0.231023 0.213631 -0.285729 0.013391 -0.201244 -0.011414 0.021251 0.294287 -0.339007 -0.109024 0.225799 0.089850 0.049577 -0.182748 -0.133395 -0.095002 -0.006479 0.089906 0.066091 -0.056449 -0.076128 -0.428069 0.258376 0.121974 0.074440 -0.085714 0.719565 -0.088551 0.402539 0.229997 0.221412 0.053293 -0.042758 0.157696 0.238193 -0.101603 0.056738 0.270186 -0.042325 0.010167 0.183207 -0.201080 0.030542 -0.241717 -0.045200 0.166308 
wreck 0.029838 0.001344 -0.021257 -0.068675 0.317838 0.184572 -0.333658 -0.030728 -0.166432 0.157922 -0.072477 0.175600 -0.098701 -0.169423 0.267327 0.264347 0.049177 -0.203588 -0.139756 -0.271564 0.347482 0.151040 0.026568 -0.085298 0.061927 -0.700911 0.175799 0.248970 0.438432 -0.060554 1.700670 -0.013927 0.288635 0.072356 0.085749 -0.106611 -0.133918 -0.012765 0.162382 -0.288712 -0.023909 -0.000880 0.074413 0.150270 0.244763 -0.290951 0.055732 -0.060144 0.149946 0.163847 
9,358 -0.055166 -0.336269 0.278333 -0.075132 -0.023727 0.036214 -0.068646 0.285326 -0.190231 0.273269 -0.082637 -0.111463 0.495934 -0.147971 -0.011123 0.040197 -0.073376 -0.049348 0.276181 -0.118222 0.204570 -0.048578 -0.244749 -0.003380 0.020360 0.266449 0.412578 -0.059653 0.311165 -0.178345 0.026265 0.256859 0.542853 0.038727 -0.072256 0.088868 -0.302552 0.033956 -0.067830 -0.233885 0.167380 -0.285937 0.305689 0.448355 -0.034933 -0.152178 -0.017736 0.122041 -0.226427 -0.017914 
integrity 0.209302 -0.094967 -0.206612 -0.155224 0.316211 0.224173 -0.081608 -0.076256 -0.143604 0.377772 0.106350 0.219811 0.083791 -0.185493 0.244019 0.059335 -0.073194 -0.123482 0.262426 0.052357 0.449435 0.122653 -0.110676 -0.217163 0.067736 -0.551352 0.101364 -0.071120 0.178065 0.149529 1.365412 0.043183 0.112103 -0.320350 -0.118826 -0.131515 -0.238353 0.038376 -0.023197 -0.241234 -0.037658 -0.177360 0.116097 0.079385 0.000698 -0.374066 -0.063799 0.559067 0.138483 0.328262 
mues -0.115012 0.101788 0.095614 -0.044145 0.291367 0.269151 -0.411841 -0.061291 -0.226917 0.047985 -0.094605 0.236724 -0.223626 -0.140474 0.347746 0.119162 0.016157 -0.156227 -0.193869 -0.236579 0.251197 0.171604 0.142164 -0.032126 -0.032848 -0.585404 0.245613 0.089952 0.266477 -0.111662 1.523601 -0.049593 0.345619 0.138006 0.238335 -0.078355 -0.007129 0.058153 0.233446 -0.197173 -0.032915 0.087730 0.116423 0.093396 0.100628 -0.154610 -0.044955 -0.235060 0.033774 0.234759 
fjord -0.123136 -0.136730 0.038171 -0.101937 0.225840 0.187121 -0.411889 0.142232 -0.203136 0.035109 -0.043443 0.170983 -0.208411 -0.241100 0.264108 0.173085 -0.019359 -0.207146 -0.164115 -0.099878 0.204047 0.108845 -0.023404 -0.155434 0.034705 -0.540931 0.325957 0.185449 0.197042 -0.176716 0.973653 -0.110016 0.408093 0.178385 0.211709 -0.001682 -0.034082 0.143865 0.137640 -0.200044 -0.029824 0.106882 -0.026061 0.036453 0.083916 -0.210988 0.017135 -0.266279 -0.102777 -0.004737 
resilient 0.159563 -0.054795 -0.132404 -0.095140 0.354690 0.146387 -0.218735 -0.031790 -0.247517 0.275531 0.013155 0.254988 0.013188 -0.256049 0.349976 0.147615 -0.047037 -0.100583 0.087966 0.009254 0.434207 0.131213 -0.062561 -0.168574 0.086975 -0.672951 0.179869 -0.047349 0.159709 0.115854 1.569462 -0.089776 0.170102 -0.204296 0.040706 -0.173409 -0.159311 0.008194 -0.007463 -0.303416 -0.106269 -0.106156 0.083049 0.091676 0.024774 -0.314603 -0.066040 0.343192 0.110604 0.314464 
gulizade -0.104871 -0.152369 -0.020963 -0.199122 0.261913 0.134995 -0.345095 0.272996 -0.260145 -0.023758 -0.002948 0.302870 -0.212824 -0.191074 0.213214 0.200540 0.016092 -0.109382 -0.020404 0.076402 0.010009 0.159967 -0.016508 -0.042514 -0.125087 -0.417109 0.272358 0.170213 0.196038 -0.038875 0.315105 -0.199608 0.431282 0.015979 0.317236 0.123483 0.000065 0.029684 0.101647 -0.140394 0.011030 0.164267 -0.085801 0.016726 0.267926 -0.209353 -0.101593 -0.109011 -0.147146 0.237290 
ebbw 0.160162 0.059250 0.393849 -0.210356 0.871303 -0.251910 -0.362486 0.324687 -0.130564 -0.196498 -0.064644 0.354719 -1.070801 -0.722733 0.363583 0.060154 0.327086 -0.734795 -0.218071 0.747171 -0.291305 0.393288 0.087283 -0.143661 -0.319921 -0.946825 0.307155 -0.734568 -0.242800 -0.112840 0.304523 0.184881 -0.156831 -0.427239 0.634472 -0.026756 0.362382 0.108742 0.205727 0.343151 0.080597 0.588799 -0.248297 -0.645267 0.419270 0.074259 -0.363190 0.110608 -0.161248 0.787585 
3-78 -0.555992 -0.614598 0.419290 -0.350212 0.270117 0.169875 0.024622 0.192605 -0.014176 0.051418 0.005676 0.055724 0.074407 -0.049559 -0.080535 0.147953 0.054293 0.050578 0.085400 -0.065773 0.151841 0.313548 0.189701 0.165734 -0.165562 0.489930 0.588994 0.096531 0.473900 0.040305 -1.091862 0.274023 0.834690 0.207905 0.226665 0.215033 -0.550726 0.188969 0.052931 -0.342278 0.331308 0.045596 0.245367 0.245422 0.406989 -0.346211 0.217361 -0.205347 -0.185516 0.322419 
13:06.57 -0.277223 -0.066460 -0.060337 0.040870 0.204162 0.147190 -0.236429 0.029244 -0.201634 0.237781 0.055242 0.251746 -0.059934 -0.173641 0.262390 0.077460 0.026787 -0.087182 0.054473 -0.036482 0.236540 0.093035 -0.143679 -0.067304 0.064096 -0.204667 0.324901 -0.063405 0.097312 -0.046887 0.609595 0.035240 0.353585 0.003039 0.079347 -0.122637 -0.149826 0.161607 0.105979 -0.371208 0.037793 -0.128702 0.081990 0.082668 -0.040368 -0.179563 0.095279 0.051537 0.012814 0.317187 
garibaldi -0.048099 -0.163064 -0.026189 0.124523 0.330896 -0.001248 -0.227349 0.161458 -0.323073 0.103631 0.160863 0.384245 -0.469460 -0.231144 0.302099 0.000002 0.010916 -0.177822 0.167996 0.301341 -0.362057 0.173386 0.019954 0.006264 -0.134510 -0.332565 0.309503 -0.071245 -0.171488 -0.153497 -0.058533 -0.080373 0.314475 0.047972 0.278602 0.039209 -0.032631 0.286973 0.179920 0.048544 0.085139 0.428717 -0.106008 -0.237640 0.152052 -0.166820 -0.159968 -0.105067 -0.135516 0.429517 
chaotic -0.100276 0.013270 -0.097316 -0.029771 0.359912 0.142839 -0.327391 -0.005590 -0.248545 0.096264 0.061589 0.319728 -0.227947 -0.195541 0.323871 0.071999 0.035125 -0.139172 -0.030959 0.057522 0.136369 0.133243 -0.029791 -0.076171 -0.044439 -0.590856 0.183181 -0.055491 -0.018100 -0.007811 0.993481 -0.133014 0.290886 -0.043987 0.181206 -0.057105 -0.071670 0.138135 0.143280 -0.165999 0.016785 0.153806 -0.012230 -0.014109 0.109226 -0.234966 -0.067032 0.053454 -0.027052 0.319371 
kumbernuss -0.194291 -0.158781 -0.004747 0.000744 0.261322 0.182184 -0.328629 0.131418 -0.381437 0.096718 0.172067 0.284574 -0.245128 -0.216783 0.297908 0.001846 0.031708 -0.137907 0.022053 0.151296 -0.123295 0.146882 -0.129091 -0.045429 -0.087686 -0.213821 0.295277 -0.136255 -0.016097 -0.107019 -0.077814 0.057306 0.335078 -0.094296 0.242331 0.067721 -0.132981 0.171560 0.112682 -0.103866 0.046531 0.158411 0.074490 -0.073277 0.108918 -0.173580 -0.101094 0.032880 -0.097376 0.247304 
barometer -0.280892 -0.077572 -0.147581 0.058315 0.238878 0.180424 -0.249226 0.346924 -0.175811 0.012947 0.178744 0.326735 -0.353669 -0.159218 0.242970 -0.091528 0.030323 -0.186502 0.019641 0.231171 -0.241107 0.057510 -0.161313 0.074547 -0.106026 -0.348004 0.383976 0.015570 0.009760 -0.149009 -0.110081 -0.258299 0.390425 0.142188 0.148697 0.031060 -0.090285 0.292623 0.338109 0.003937 0.260061 0.347533 -0.022528 -0.244771 0.080591 -0.065553 0.009650 -0.182775 -0.237683 0.375619 
norwest 0.043792 -0.014093 -0.059822 -0.038024 0.330165 0.081327 -0.254781 -0.112278 -0.118714 0.133614 -0.002958 0.133984 0.011651 -0.326061 0.270747 0.256805 0.072337 -0.157665 -0.089992 -0.191572 0.354692 0.020815 -0.075261 -0.106787 0.055794 -0.613695 0.100818 0.137893 0.199731 0.018043 1.574058 -0.070300 0.261087 0.052777 0.027615 -0.163349 -0.145418 0.007629 0.136717 -0.220481 0.025405 0.057114 0.022920 0.069628 0.112116 -0.248590 0.048772 0.019319 0.080455 0.150145 
beck -0.217316 0.082784 0.028652 0.050743 0.416823 -0.072970 -0.336469 0.157090 -0.364462 -0.138657 0.096479 0.366711 -0.537653 -0.428177 0.366162 0.125476 0.120327 -0.202702 -0.110568 0.385201 -0.285591 0.093436 -0.033978 -0.027652 -0.094927 -0.615754 0.236786 -0.140648 -0.218754 -0.320481 0.184088 -0.163334 0.275877 0.120680 0.351246 -0.050970 0.209264 0.278655 0.294355 0.120347 0.156277 0.460833 -0.143311 -0.347751 0.182306 -0.096583 -0.151538 -0.326863 -0.223750 0.476063 
chassis -0.060391 -0.015219 0.031477 -0.116116 0.284840 0.275930 -0.450856 0.053398 -0.240757 0.148186 -0.103614 0.281940 -0.190325 -0.178605 0.356607 0.030167 0.055657 -0.193880 -0.051627 -0.214937 0.246638 0.269495 0.105717 -0.074064 -0.015618 -0.487759 0.216317 -0.070700 0.181144 -0.061956 1.192241 0.012181 0.307104 -0.148674 0.267596 -0.052237 -0.104137 0.058606 0.098063 -0.240406 -0.108289 0.046424 0.127169 0.088976 0.017460 -0.095934 -0.152695 -0.000222 -0.060708 0.260251 
dzhokhar 0.525200 -0.065761 0.654122 -0.055054 0.585214 -0.901401 0.360017 0.038633 -0.229558 -0.040404 0.194131 -0.040571 -0.211217 -0.278449 -0.150255 0.596548 -0.038591 0.050635 0.730781 1.165744 -0.415921 -0.073271 0.355475 0.065241 -0.525830 -0.486544 0.050601 -0.055577 -0.483413 0.105605 -0.195590 0.169632 0.156647 0.381285 0.487429 0.295551 0.109591 0.364182 -0.217887 0.846529 0.054179 0.823274 -0.386472 -0.350078 0.390278 -0.529372 -0.623325 0.169510 -0.168356 0.147432 
103 0.343588 -0.314240 1.094652 -0.298914 0.410972 0.407444 0.187370 -1.034922 -0.039925 -0.022578 -1.140808 -0.221970 0.096720 -0.504076 0.100481 -1.030321 -0.670425 0.125536 -0.659221 0.030894 0.321902 -0.142990 0.503351 -0.570458 -0.199787 0.252966 0.479709 -0.499937 -0.091753 -0.118290 1.496753 0.109081 0.764365 1.024239 0.793260 -0.428318 0.661623 -0.026953 0.145541 0.270559 -0.572030 -0.325527 1.145550 0.389175 -1.252096 0.862917 -0.564312 -0.208334 0.401184 0.215251 
pancreas 0.006914 0.052557 -0.004416 0.062099 0.301060 -0.010512 -0.343721 -0.093354 -0.356740 0.061115 0.090157 0.368161 -0.243821 -0.286142 0.376349 0.092715 0.105218 -0.162567 -0.044364 -0.099470 0.035813 0.090929 -0.008134 -0.003370 -0.040585 -0.439730 0.143746 -0.180713 -0.117922 -0.124607 1.032468 0.080078 0.251310 -0.084864 0.186121 -0.068223 0.036813 0.144794 0.051752 -0.090558 0.055851 0.175740 0.015457 0.042726 0.061225 -0.235303 -0.116008 -0.042656 -0.056027 0.365370 
setttlements 0.178207 -0.030717 0.038029 0.056988 0.175755 0.194512 -0.224405 -0.270203 -0.286383 0.418884 -0.082243 0.105003 0.179794 -0.219174 0.294054 0.120659 -0.033094 -0.264588 0.282582 -0.420929 0.751078 0.116887 0.103205 -0.138953 0.124672 -0.486998 0.141561 -0.301640 0.115944 -0.013971 2.272186 0.434648 0.180880 -0.445521 -0.039610 -0.168035 -0.312365 0.064033 -0.359816 -0.302124 -0.238201 -0.302784 0.348895 0.367326 -0.145748 -0.226262 -0.247840 0.405027 0.160414 0.008311 
nothern -0.426074 0.374829 -0.257400 -0.036471 0.446835 0.407076 -0.620041 -0.031651 -0.248868 -0.244463 -0.183170 0.756064 -0.606765 -0.518997 0.402852 0.101588 0.236417 -0.227514 -0.390439 0.041797 -0.027544 0.368006 0.147825 -0.082181 -0.028544 -0.743312 0.152753 -0.166452 -0.077522 -0.057362 0.967284 -0.587772 0.377560 -0.079413 0.643273 -0.196432 0.281426 0.080554 0.517532 -0.153822 0.082900 0.428737 -0.250581 -0.144491 -0.011576 0.084403 -0.022728 -0.359211 -0.258130 0.883221 
233,600 -0.123453 -0.193689 0.301648 -0.194767 0.155378 -0.011421 -0.221088 0.133877 -0.166553 0.143378 0.022146 -0.077442 0.453971 -0.345516 0.483192 -0.046886 -0.070219 0.191369 0.090417 -0.199164 0.304938 -0.073682 -0.274566 -0.121926 -0.033898 0.327642 0.362862 -0.233925 0.075566 0.101050 0.088565 0.089380 0.456788 0.010488 0.013574 0.116079 -0.209650 0.049337 -0.019465 -0.397514 0.090698 -0.235464 0.197664 0.301251 -0.265416 -0.317929 0.086031 0.164312 -0.472478 0.135193 
3,944 -0.283478 -0.217904 0.090315 -0.104831 0.086393 0.057702 -0.112929 0.291559 -0.146376 0.188581 -0.042567 -0.047740 0.354161 -0.021630 0.044650 -0.145543 -0.068156 -0.047865 0.205209 0.008367 0.222022 -0.075248 -0.201522 0.067191 -0.058900 0.315431 0.323399 -0.212576 0.191526 -0.051123 -0.128612 0.224416 0.476319 -0.094878 0.055890 0.225990 -0.268810 0.120635 -0.168572 -0.318835 0.088319 -0.292935 0.145189 0.270353 -0.096584 -0.129547 0.068137 0.102852 -0.211971 0.082427 
soul 0.042037 -0.003486 0.066819 -0.091840 0.281590 0.131319 -0.309016 -0.067812 -0.169414 0.129458 -0.126621 -0.014968 -0.030760 -0.185825 0.231390 0.252579 0.007431 -0.259499 -0.233762 -0.311496 0.290942 0.020141 0.092935 -0.142642 0.112551 -0.704752 0.130887 0.298344 0.395384 -0.116717 1.932409 0.062696 0.231400 0.233823 0.063401 -0.141724 -0.091314 0.015537 0.217716 -0.192163 -0.098123 0.040663 0.041896 0.111029 0.162802 -0.152190 0.065146 -0.188661 0.167338 -0.071095 
0.96 -1.076452 -0.302746 0.468768 0.870397 1.140938 0.628182 0.021861 -1.467589 -1.434753 0.273482 -0.029341 -0.307516 0.834883 -0.508902 -0.260259 0.281099 -0.494611 -0.463169 -1.170949 0.036400 0.893729 0.258442 -0.541402 -0.672220 0.689988 0.597477 1.484039 -0.533753 0.822090 0.305811 0.776362 -0.099926 0.583328 0.761141 0.422285 -0.999870 -0.430666 0.165016 0.168723 -0.103088 0.426836 -0.506094 1.164503 0.981715 -0.504813 -0.352058 0.312967 -0.252370 1.482668 -0.007671 
ventures -0.015300 -0.106136 0.015980 0.014374 0.050123 0.101926 -0.225113 0.062459 -0.173661 0.227129 -0.021590 0.090012 0.059250 -0.212333 0.176265 0.147730 0.063173 -0.182346 0.117488 -0.240517 0.289814 0.060932 -0.049322 0.022872 0.006724 -0.330526 0.171790 -0.018742 0.138781 -0.171151 1.095478 0.246943 0.325781 -0.080768 0.019078 -0.044490 -0.254504 0.004649 -0.011166 -0.206104 -0.014015 -0.057168 0.188182 0.188178 0.049634 -0.100349 -0.058621 0.066386 -0.055740 -0.020296 
zhirayr 0.286832 -0.080845 0.447042 0.000876 0.451191 -0.872683 0.134337 0.092440 -0.176373 0.228093 -0.017870 0.157843 -0.341071 -0.384462 -0.228899 0.476166 0.074179 -0.018158 0.624981 1.011101 -0.353677 0.325001 0.433656 0.073767 -0.595832 -0.365638 0.236152 -0.080180 -0.395299 0.108487 -0.208811 0.292788 0.026618 0.208562 0.822973 0.101593 -0.035266 0.169844 -0.090012 0.462955 -0.173329 0.787246 -0.454478 -0.449670 0.084103 -0.259511 -0.517253 0.141445 -0.055698 0.381656 
permit 0.056411 0.179421 -0.153388 0.107720 0.280205 0.104279 -0.398862 -0.097131 -0.218174 0.200079 0.140404 0.197087 -0.078167 -0.296959 0.428780 0.011873 -0.034438 0.010181 0.001981 0.219192 0.379956 0.107247 -0.064582 -0.002178 -0.087891 -0.845881 0.204663 -0.157787 -0.092868 -0.028448 1.892749 -0.132182 0.046307 -0.130319 0.121248 -0.173056 -0.033084 0.103691 0.136142 -0.256788 -0.048981 -0.000325 0.065119 -0.180379 -0.247716 -0.339856 -0.143801 0.186706 0.121658 0.377682 
yamada -0.097628 -0.136596 0.042808 0.165150 0.179436 -0.048578 -0.101368 0.275571 -0.347098 0.028886 0.233354 0.135388 -0.226666 -0.319406 0.244257 -0.005526 -0.049065 -0.052627 0.179934 0.507260 -0.309034 0.008141 -0.151042 0.033892 -0.095210 -0.417057 0.365658 -0.096800 -0.230553 -0.341408 -0.091749 -0.087645 0.288309 0.109504 0.112442 0.052548 -0.018926 0.284893 0.210741 0.126779 0.180600 0.338750 0.068722 -0.331863 0.095533 -0.164097 -0.179204 -0.134845 -0.176797 0.231743 
touchdowns -0.039123 -0.103372 0.191601 -0.096287 0.182611 0.178754 -0.289185 -0.048821 -0.222301 0.160155 -0.156473 0.037759 0.020383 -0.108902 0.150042 0.154760 0.065167 -0.223228 -0.119028 -0.428556 0.417673 0.132810 0.107294 -0.044693 0.016413 -0.403639 0.166545 0.042311 0.332990 -0.117988 1.462710 0.294701 0.387035 -0.042216 0.112031 0.019126 -0.222768 -0.053363 -0.049329 -0.225958 -0.083617 -0.099066 0.242909 0.360309 0.209189 -0.188143 -0.073855 -0.035534 0.103895 -0.141743 
advisor 0.184786 0.160375 -0.231549 0.084484 0.452057 -0.150536 -0.272739 0.113649 -0.179753 0.145370 0.036760 0.468147 -0.286359 -0.428961 0.438773 0.071137 0.015765 -0.093612 0.076129 0.218313 0.377859 0.186735 -0.212719 -0.056843 -0.056322 -0.876043 0.246013 -0.297443 -0.181162 -0.066020 1.356824 -0.141988 -0.037386 -0.315212 0.163142 -0.267543 0.047502 0.125014 0.075291 -0.193186 0.017689 0.088618 0.038513 -0.302923 -0.113567 -0.110685 -0.135157 0.188953 -0.012095 0.663363 
infield -0.304077 0.062989 -0.194563 -0.067072 0.229200 0.190115 -0.445235 0.187767 -0.152919 -0.043196 -0.165798 0.340616 -0.301312 -0.574210 0.229627 0.145271 0.200354 -0.164025 -0.283962 0.121697 0.050037 0.227353 -0.030871 -0.009092 -0.049647 -0.632766 0.250063 0.013505 0.095962 -0.184601 0.718515 -0.245540 0.401871 -0.049119 0.432825 -0.118648 0.029840 -0.008909 0.305697 -0.275213 0.040667 0.212770 -0.123379 -0.138017 0.064463 0.050862 0.023199 -0.224940 -0.181053 0.459128 
292-8 -0.326951 -0.631091 0.262352 -0.206189 -0.257963 0.118353 -0.099306 0.722591 -0.256917 0.542825 -0.477655 -0.308944 0.381484 0.302890 -0.173703 -0.348371 -0.207571 -0.311494 0.000084 0.453256 -0.292114 -0.169452 -0.113524 -0.130219 0.032220 0.444468 0.619241 -0.115071 0.602167 0.009223 -0.968132 0.185534 0.522817 -0.044480 -0.194699 0.168995 -0.266121 0.077582 0.123434 -0.477515 -0.033057 -0.523004 -0.004028 0.561470 0.107724 0.396162 0.052283 0.294596 -0.151448 0.216369 
erected 0.207144 -0.298435 -0.113354 -0.364851 0.423886 0.182388 -0.455075 -0.109654 -0.350919 0.274721 0.165280 0.375819 -0.069861 -0.286571 0.475559 0.176015 -0.115625 -0.132711 0.070251 -0.079421 0.537290 0.157024 0.127906 -0.270986 0.126046 -0.699725 0.231535 -0.079284 0.011274 0.239983 1.614131 -0.145459 0.257435 -0.389906 0.098300 -0.227591 0.012993 0.288901 -0.283836 -0.270975 -0.152047 -0.181258 0.054536 0.200494 -0.151580 -0.408438 -0.372538 0.327888 0.085719 0.272218 
smacked -0.315241 -0.612278 0.451122 -0.295661 0.353817 0.304353 -0.777564 0.438338 -0.299524 -0.123800 -0.331402 -0.021650 -0.678996 0.121186 0.122906 -0.006496 -0.223391 -0.559099 -0.634492 -0.457810 0.129850 0.296109 0.264155 -0.338945 0.011697 -0.681980 0.792617 0.491640 0.350709 -0.264757 1.030527 -0.036728 0.817908 0.319199 0.462588 0.225554 0.086236 0.352507 0.063795 -0.293626 -0.237619 0.193198 -0.099520 0.317747 0.328341 -0.160893 -0.083140 -0.624870 0.090943 -0.489978 
unsinkable -0.092033 -0.246828 0.000535 -0.163666 0.423628 0.154187 -0.222983 0.068104 -0.259562 0.073350 0.283589 0.322570 -0.069563 -0.231682 0.083023 0.192789 -0.030253 0.010965 0.186706 0.225467 0.109352 0.278143 -0.025234 0.055032 0.002879 -0.413756 0.294229 0.043600 0.026087 -0.052393 0.255930 -0.240811 0.449732 -0.140516 0.238938 -0.046326 -0.135718 0.254932 0.027949 -0.093520 0.204460 0.051000 0.210199 -0.024226 0.145330 -0.359126 -0.214032 0.029668 0.112006 0.317010 
bre 0.174390 0.240680 0.121537 -0.132222 0.497104 0.042974 -0.507817 -0.265405 -0.322625 -0.007307 -0.218245 0.281924 -0.316418 -0.399818 0.451197 0.285603 0.043949 -0.195465 -0.359682 -0.257360 0.299521 0.254562 0.228447 -0.161185 0.106021 -0.952570 0.052106 0.046553 0.074925 -0.211680 2.420230 -0.026928 0.226608 0.108770 0.352014 -0.303601 0.257857 -0.022669 0.262796 -0.175725 -0.156461 0.133936 -0.029539 0.088752 0.096185 -0.179201 -0.075148 -0.241322 0.105400 0.353726 
forums -0.079044 -0.028361 0.132951 -0.067663 0.314049 0.286193 -0.359631 -0.203559 -0.165610 0.209246 -0.077332 0.109582 0.011336 -0.218880 0.381868 0.089491 0.045320 -0.129319 0.019725 -0.343316 0.475786 0.125378 0.017598 -0.148753 0.021470 -0.284893 0.152692 -0.085978 0.187815 -0.022696 1.338355 0.244272 0.401831 -0.038529 0.162558 -0.035133 -0.197508 0.080606 -0.062447 -0.339028 -0.142084 -0.146983 0.217450 0.227860 -0.054947 -0.274599 -0.080543 0.114138 0.019640 0.064656 
landscape -0.107565 -0.108824 -0.116849 -0.000346 0.211063 0.176748 -0.248235 0.104138 -0.246755 0.133126 0.093212 0.351904 -0.162251 -0.316687 0.306034 0.117389 0.057763 -0.170565 0.094351 0.002814 0.077898 0.134364 -0.121150 -0.110682 0.043593 -0.318359 0.243025 -0.037373 0.016335 -0.111590 0.421084 -0.076193 0.320641 -0.044257 0.129836 -0.078990 -0.133549 0.124389 0.158379 -0.154752 0.061721 0.131717 0.039609 -0.051600 0.009029 -0.162017 -0.008344 0.028087 -0.153400 0.287647 
anguita -0.113846 -0.093058 -0.087921 0.266644 0.038784 0.042858 -0.202011 0.189891 -0.341202 0.087861 0.192085 0.197130 -0.243182 -0.421471 0.363969 0.019466 -0.075721 -0.006693 0.198289 0.312461 -0.238996 0.061309 -0.134463 0.006693 -0.046957 -0.472371 0.355159 -0.035227 -0.293767 -0.422825 0.332894 -0.052722 0.281973 0.090836 0.132716 -0.038006 -0.020289 0.229951 0.258524 -0.069874 0.041153 0.294084 0.047867 -0.341543 -0.032725 -0.106810 -0.112592 -0.192131 -0.181422 0.244738 
saran 0.056529 -0.131733 0.037168 0.111457 0.247115 -0.234056 0.083888 0.216105 -0.236372 0.145737 0.200206 0.383362 -0.326935 -0.344650 0.002105 0.277484 0.091949 -0.111447 0.599785 0.645721 -0.238648 0.241905 0.050481 -0.006683 -0.243944 -0.327570 0.190718 -0.198995 -0.339868 -0.072565 -0.451065 -0.022935 0.153962 -0.088418 0.366839 0.084035 -0.130861 0.205270 -0.002138 0.353387 0.061917 0.531925 -0.138576 -0.312928 0.112966 -0.227050 -0.362991 0.172630 -0.241903 0.334668 
1996-a -0.354536 0.070954 -0.312486 0.201017 -0.258942 -0.011483 -0.428231 0.238583 -0.217084 0.203613 -0.017893 0.023812 -0.617530 -0.417779 1.000476 -0.283488 -0.012349 -0.117086 -0.368117 0.333171 -0.096216 -0.258764 -0.073667 -0.170312 -0.152354 -0.555142 0.275488 -0.251893 -0.403736 -0.233714 0.752132 0.116478 -0.165812 0.218210 0.068932 -0.045942 0.144734 0.240286 0.287186 -0.361632 -0.417702 0.244227 -0.357196 -0.706616 -0.493710 0.324531 0.202175 -0.275162 -0.557651 0.094459 
1,279 -0.125985 -0.377759 0.353222 -0.226126 0.258231 0.172390 0.195274 0.128250 -0.210580 0.156761 -0.358759 -0.138463 0.522759 -0.141823 -0.038553 -0.243802 -0.396762 0.003282 0.321411 0.074718 0.457436 0.024631 -0.018582 -0.000832 -0.009956 0.880023 0.461010 -0.498492 0.380052 0.098902 -0.703837 0.392802 0.693567 -0.130067 0.252403 0.266104 -0.317004 0.055176 -0.439677 -0.224851 0.018444 -0.536580 0.381402 0.552864 -0.229742 0.027992 0.080034 0.192544 -0.272962 0.179379 
france-registered -0.652798 -0.363061 -0.367669 -0.288914 0.234353 0.214566 -0.487279 0.445386 -0.116704 0.195381 0.208283 0.187192 0.200239 0.206711 0.122153 -0.383519 -0.211498 -0.052864 0.225242 0.509484 0.211048 -0.233955 -0.241701 -0.046492 -0.034297 0.267522 0.401872 -0.227794 -0.073202 0.271848 -0.571578 -0.320491 0.542000 -0.279081 0.195460 0.326947 -0.024792 0.630604 -0.427477 -0.614684 -0.036856 -0.492780 -0.362276 0.060811 -0.503401 -0.279338 -0.007185 0.158931 -0.161391 0.287179 
387.70 -0.333497 -0.210178 0.445043 -0.388639 0.072884 -0.134682 -0.000235 0.341545 -0.747689 0.202737 -0.185671 -0.077922 0.789039 -0.497708 0.048469 0.292139 -0.346986 0.221106 0.154131 0.606754 0.520727 0.136355 -0.311787 -0.412355 0.056991 0.422328 0.817869 -0.081055 0.451951 -0.184787 -0.963251 0.202018 0.522316 -0.031295 0.300616 0.050471 -0.229037 -0.153382 -0.059544 -0.438575 -0.091166 -0.479023 0.352786 0.148653 -0.126630 -0.409011 0.039064 0.138603 -0.152310 0.159294 
survive 0.253811 0.106891 0.029816 -0.073076 0.467134 0.071327 -0.416157 -0.064836 -0.282930 0.312067 -0.171435 0.121963 -0.134138 -0.321420 0.511273 0.180010 -0.006374 -0.253739 -0.109469 -0.180774 0.412535 0.224395 0.086688 -0.222975 0.209909 -1.008856 0.143500 -0.000482 0.237163 -0.213032 2.483079 0.149580 0.063010 -0.094871 0.125359 -0.308698 -0.039198 0.057323 0.106728 -0.370481 -0.290478 -0.049549 0.088728 -0.004506 0.055207 -0.196723 -0.057572 0.057498 0.166943 0.248253 
13.35 -0.543418 -0.372927 0.554813 0.306033 0.687456 0.268035 -0.039184 -0.479296 -0.644947 0.586833 -0.259619 -0.037189 0.558625 -0.628595 0.256683 0.292672 -0.394874 -0.198374 0.003908 0.511946 1.004359 0.435628 -0.152020 -0.583640 0.427941 0.529426 1.058859 -0.518527 0.483044 -0.152965 -0.387493 0.088016 0.502489 0.448118 0.420853 -0.633083 -0.591563 0.204860 0.055877 -0.355122 -0.065272 -0.438569 0.713972 0.312323 -0.733945 -0.224715 0.134796 -0.141700 0.209589 0.101160 
17.16 -0.581300 -0.440025 0.437854 0.313617 0.677965 0.321322 -0.091349 -0.384669 -0.549810 0.622771 -0.288201 -0.006169 0.515700 -0.541536 0.223759 0.174609 -0.375543 -0.294594 0.079154 0.552734 0.937926 0.453015 -0.178440 -0.588212 0.451596 0.498174 0.988786 -0.603275 0.453452 -0.210505 -0.544593 0.112822 0.446243 0.321189 0.393678 -0.585549 -0.622269 0.290098 0.004364 -0.384604 -0.103611 -0.447971 0.682010 0.263423 -0.762460 -0.095347 0.099664 -0.134291 0.162215 0.128013 
giovanna -0.291325 -0.064308 -0.145067 0.408322 0.130426 0.138345 0.052677 0.295351 -0.228349 -0.001269 0.338454 0.264518 -0.252602 -0.315769 0.365808 0.011614 -0.039391 -0.027103 0.481813 0.375770 -0.248762 -0.117393 -0.337090 0.105971 0.175025 -0.382754 0.405336 -0.086331 -0.326602 -0.479218 -0.157906 -0.208126 0.494816 0.287369 -0.126586 -0.096369 -0.112426 0.558716 0.248204 0.032646 0.331338 0.295289 0.202212 -0.408514 0.003784 -0.134108 -0.004323 -0.203944 -0.315479 0.367478 
danced -0.181139 0.225227 -0.048707 -0.006433 0.484362 0.220548 -0.569631 -0.315014 -0.253962 0.018299 0.150422 0.505740 -0.542170 -0.278708 0.549906 0.157020 0.107764 -0.117039 -0.265790 0.001342 0.199164 0.212055 0.207854 -0.097279 -0.035654 -0.729618 0.116731 -0.036680 -0.081075 -0.083784 1.434271 -0.277498 0.231234 0.168514 0.350735 -0.220693 0.184068 0.318415 0.298794 -0.069978 0.026865 0.253434 -0.076058 -0.172723 -0.064981 -0.300720 -0.125494 -0.365778 0.026056 0.437106 
resurfaced 0.173106 -0.363620 -0.158824 -0.384738 0.429963 0.194535 -0.517898 -0.005282 -0.387266 0.267873 0.114750 0.336908 -0.137586 -0.368875 0.522180 0.110858 -0.222395 -0.114260 0.081214 0.215528 0.471571 0.137537 0.095650 -0.352017 0.154140 -0.697406 0.303768 -0.116733 -0.112611 0.238982 1.279363 -0.185533 0.304978 -0.399262 0.191876 -0.191975 0.055658 0.354769 -0.311788 -0.383661 -0.273612 -0.227776 -0.108571 0.064847 -0.286321 -0.375629 -0.352023 0.405689 0.027446 0.298229 
5.12 -0.657285 -0.397860 0.625201 0.403200 0.799040 0.421204 -0.158057 -0.683572 -0.947660 0.560286 -0.383866 -0.244495 0.530582 -0.560536 0.455549 0.067465 -0.629085 -0.207898 -0.356977 0.572494 0.756286 0.186793 -0.303056 -0.804805 0.503108 0.529747 1.223903 -0.393137 0.494258 0.009419 -0.166465 -0.049627 0.726713 0.885420 0.413481 -0.699019 -0.605743 0.186045 0.296243 -0.533967 -0.250628 -0.425765 0.659028 0.378550 -0.685632 -0.240642 0.333437 -0.049326 0.403415 0.041884 
recep -0.109740 0.067319 -0.115664 0.189906 0.239232 -0.008596 -0.073462 -0.127663 -0.319903 0.108535 0.129806 0.510326 -0.379430 -0.230575 0.327985 0.057155 0.020883 -0.049572 0.069618 0.318639 -0.024905 0.041812 0.055030 -0.005615 -0.015175 -0.527968 0.117289 -0.160378 -0.208018 -0.077969 0.647996 -0.178582 0.204724 -0.021575 0.106606 -0.112292 0.011334 0.166428 0.197017 -0.093044 0.067967 0.158200 -0.013868 -0.150895 0.137986 -0.211843 -0.025842 -0.025744 0.118329 0.534679 
majorie -0.321898 0.089130 -0.255136 0.037943 0.317984 0.398369 -0.397455 0.013802 -0.207662 -0.136691 0.112015 0.712722 -0.581792 -0.317597 0.387546 0.023629 0.143581 -0.149210 -0.008140 0.026090 -0.187947 0.262778 0.023229 -0.001291 -0.085441 -0.311070 0.172673 -0.080509 -0.126894 -0.069650 0.088901 -0.394764 0.479182 0.060948 0.400293 -0.050073 0.085395 0.179678 0.401875 -0.011166 0.188227 0.409365 -0.106045 -0.153920 0.019199 -0.116318 -0.044487 -0.211450 -0.284171 0.702873 
48-1/4 -0.393497 -0.459479 0.135328 -0.118108 0.078867 0.077657 -0.096587 0.699145 -0.161880 0.425490 -0.291504 -0.087475 0.719628 0.401338 -0.499910 -0.135248 -0.165760 -0.312879 0.435715 0.044875 -0.085706 -0.099630 -0.412701 0.048391 0.170146 0.746526 0.612514 -0.000729 0.700428 -0.048803 -0.936003 0.091323 0.794351 0.025788 -0.064413 0.221456 -0.392371 0.243014 -0.133197 -0.499358 0.261208 -0.567174 0.032972 0.805854 0.118516 0.048771 0.224712 0.148846 -0.173300 0.241530 
inhabited 0.157227 -0.888972 0.018811 -0.519729 0.181966 0.387157 -0.314221 0.401120 -0.583225 0.218324 0.063959 0.259376 -0.185661 -0.200547 0.233137 0.107508 -0.355323 -0.110717 0.053851 0.472527 -0.009921 0.173371 0.216996 -0.251577 0.054448 -0.346226 0.538675 0.190873 0.155722 0.189873 -0.283313 -0.263696 0.680386 -0.273628 0.234786 0.064502 -0.062234 0.152327 -0.220112 -0.236315 -0.230859 -0.128707 -0.078201 0.234768 0.128459 -0.312370 -0.405753 0.360214 0.023640 0.116665 
broad-band -0.522404 -0.145210 -0.208762 -0.067451 0.253914 0.142285 -0.321118 0.395636 -0.010124 0.184884 -0.030176 0.048745 0.236677 0.158085 -0.003000 -0.299455 -0.060732 -0.145097 0.141549 0.214675 0.151185 -0.181718 -0.336843 0.041413 -0.044786 0.141656 0.334436 -0.077360 0.210496 -0.018230 -0.042147 -0.075970 0.548412 0.013498 0.126339 0.265430 -0.179274 0.335543 -0.138295 -0.530306 0.057669 -0.308948 -0.160759 0.112399 -0.178662 -0.194536 0.190542 0.018993 -0.101498 0.242138 
donghai 0.224238 -0.246068 0.035415 -0.149352 0.333931 -0.084360 -0.219460 0.070342 -0.249400 0.313319 -0.059715 -0.115472 0.182622 -0.238845 0.172575 0.236555 -0.173647 -0.045380 0.084447 0.248612 0.517450 0.053037 -0.102017 -0.137424 -0.006192 -0.737780 0.249811 0.071514 0.215236 -0.026494 1.461233 0.105758 0.218050 -0.114045 0.066158 -0.033403 -0.219951 0.027916 -0.235934 -0.339784 -0.211046 -0.214984 0.079134 0.095139 0.156385 -0.347216 -0.135231 0.250854 0.180448 -0.078279 
rozwoju 0.192902 -0.360551 0.444506 0.152712 0.151712 -0.412097 0.426097 0.455183 -0.222834 0.163028 0.296768 -0.424960 0.131762 -0.159179 0.014026 0.146164 -0.123400 -0.015889 0.612095 0.779074 -0.340706 -0.333414 -0.271423 0.132853 -0.083084 -0.290036 0.409428 -0.076180 -0.182396 -0.360171 -0.345975 0.365242 0.344894 0.322046 -0.229484 0.187588 -0.172352 0.450285 -0.115909 0.338226 0.260616 0.201192 0.237473 -0.212751 0.312947 -0.274243 -0.256668 0.216733 -0.159879 -0.153042 
9-4 -0.933800 -0.239625 -0.048404 0.791303 -0.018806 0.350158 -0.429981 0.507645 -0.655230 0.262322 -0.903470 -0.580850 -0.724439 -0.226558 0.176986 -0.468077 -0.086991 -1.557928 -0.957120 0.485915 -0.727467 -0.114106 -0.247663 -0.276503 0.694695 -0.406869 1.000538 -1.186695 0.207510 -1.088812 0.622858 0.602779 -0.125284 0.150589 -0.059725 -0.453681 0.456282 0.622767 0.320689 -0.294995 -0.082683 -0.273765 -0.223524 0.163181 0.181847 1.586192 0.434666 -1.006561 -0.360728 0.264570 
lankford -0.132104 -0.368032 0.246465 -0.209156 0.438450 0.127773 -0.588433 0.330139 -0.309298 -0.018765 -0.209300 0.138474 -0.504709 -0.131392 0.240358 0.058862 -0.127644 -0.374841 -0.301279 -0.092477 0.128346 0.292673 0.103563 -0.237613 -0.014833 -0.673417 0.552513 0.179770 0.162690 -0.177581 0.839648 -0.064346 0.558322 0.066436 0.410915 0.066350 0.020784 0.213340 0.059432 -0.247499 -0.182712 0.169413 -0.063058 0.085605 0.244503 -0.154841 -0.137386 -0.255960 0.017989 -0.039797 
mi -0.240769 0.013894 -0.022370 0.396091 0.010636 -0.351871 0.169574 -0.514406 -0.266795 -0.093960 0.380886 0.539504 -0.492450 -0.221839 0.176610 0.104586 -0.006867 0.231806 0.200830 0.449329 -0.356340 -0.063833 0.194978 0.131930 -0.244746 -0.245011 0.050287 -0.206089 -0.771241 -0.038868 0.270505 -0.154639 0.170344 0.381448 0.115879 -0.203212 0.243865 0.200323 0.435458 0.236849 0.207243 0.382670 -0.076403 -0.196808 -0.004298 -0.367692 -0.123336 -0.233896 0.237067 0.736394 
rulings 0.126552 0.016147 0.053088 -0.059174 0.288415 0.038248 -0.297881 -0.029132 -0.276342 0.254472 -0.004471 0.153392 0.022857 -0.355469 0.473720 0.076416 0.023226 -0.063886 0.095667 -0.063040 0.408989 0.105782 -0.049207 -0.067713 0.000788 -0.531055 0.149863 -0.229494 0.037631 -0.061231 1.427937 0.153084 0.162185 -0.230297 0.074422 -0.155221 -0.161819 -0.008501 -0.027431 -0.261995 -0.115575 -0.100544 0.221735 0.024175 -0.059202 -0.192702 -0.169533 0.256797 -0.035802 0.250785 
magee -0.115365 -0.042897 -0.110695 -0.014087 0.322228 0.162025 -0.304253 0.098261 -0.215624 0.093852 0.057994 0.346282 -0.333863 -0.270462 0.308160 0.078497 0.044639 -0.150945 -0.020134 0.099764 0.064788 0.163892 -0.059011 -0.073159 -0.042378 -0.556672 0.253163 0.013162 0.047948 -0.085580 0.690609 -0.126325 0.308998 0.006877 0.206845 -0.062981 -0.055757 0.126308 0.187826 -0.160061 0.028771 0.169149 -0.027461 -0.115355 0.119441 -0.201605 -0.042419 -0.025790 -0.041226 0.345298 
warn -0.106431 0.232719 0.053405 -0.082288 0.583628 0.317755 -0.497144 -0.230799 -0.215580 -0.056465 -0.031085 0.426663 -0.608082 -0.147046 0.394905 0.162406 0.133888 -0.256659 -0.466235 -0.335761 0.223537 0.290141 0.175545 -0.223928 0.036254 -1.069066 0.191190 0.257975 0.186255 -0.051865 2.214192 -0.228681 0.266839 0.294647 0.323357 -0.242893 0.184545 0.084378 0.464557 -0.098186 -0.045803 0.311966 0.009662 -0.048830 0.202610 -0.340120 -0.050765 -0.259456 0.314666 0.299972 
482.13 -0.306919 -0.238020 0.337489 -0.202673 0.245801 -0.048123 -0.017764 0.259479 -0.609371 0.228538 -0.207741 0.022723 0.512405 -0.417891 0.052111 0.241434 -0.289065 -0.019803 0.160753 0.579969 0.388314 0.222263 -0.170393 -0.304980 0.111778 0.310690 0.694587 -0.222316 0.418812 -0.177612 -0.831291 0.148391 0.422873 -0.064744 0.331365 -0.024785 -0.280364 -0.028041 -0.029138 -0.313407 -0.057837 -0.318158 0.292991 0.118667 -0.088226 -0.170177 0.043627 0.016909 -0.116694 0.252262 
sancakli -0.231409 -0.107153 -0.035837 0.194253 0.273470 0.205159 -0.161836 0.196061 -0.244857 0.003972 0.100772 0.319108 -0.372318 -0.270372 0.389768 -0.031676 0.007148 -0.096321 0.132119 0.265686 -0.206110 0.109753 -0.178537 0.044754 -0.030455 -0.271852 0.369999 -0.179979 -0.112885 -0.249736 -0.151925 -0.147168 0.420800 0.152213 0.208698 0.016255 -0.054311 0.280802 0.213728 -0.084088 0.150984 0.254969 0.106705 -0.212091 0.104341 -0.058909 -0.009229 -0.158001 -0.255451 0.433100 
double-bogeying -0.559882 -0.375763 -0.356889 -0.095491 0.188898 0.259111 -0.069236 0.526727 0.140697 0.365572 0.030890 -0.103160 0.505793 0.400183 -0.251845 -0.499980 -0.210192 -0.044547 0.589667 0.417083 0.347467 -0.261990 -0.477921 0.099772 -0.142568 0.439884 0.373951 -0.130162 0.277727 0.121565 -0.589938 0.058571 0.671332 -0.189102 -0.028672 0.514780 -0.476374 0.371297 -0.487527 -0.662615 0.032584 -0.608825 -0.095640 0.197690 -0.170771 -0.373139 0.171072 0.427813 -0.028631 0.125067 
carmen -0.177651 0.026352 -0.100721 -0.017375 0.245613 0.242719 -0.314332 0.100350 -0.214286 0.024334 0.056226 0.443740 -0.306735 -0.281470 0.334558 0.134785 0.089446 -0.169449 0.002499 -0.041668 0.058344 0.183902 -0.011532 -0.027702 -0.014103 -0.423915 0.238443 -0.003266 0.078221 -0.102610 0.581124 -0.174050 0.341444 0.030669 0.225937 -0.096593 -0.053316 0.114435 0.277088 -0.101368 0.096134 0.221885 0.028082 -0.083520 0.053893 -0.103698 -0.014650 -0.126276 -0.175122 0.414816 
newfoundland -0.335756 0.038003 -0.339203 -0.115371 0.073856 0.171655 -0.430850 0.297852 -0.084136 -0.082603 -0.115174 0.355397 -0.292677 -0.848023 0.143789 0.194866 0.270953 -0.211141 -0.225470 0.283837 0.000478 0.190048 -0.130851 -0.108513 0.001580 -0.628782 0.204062 -0.072374 -0.122009 -0.306367 0.373285 -0.301830 0.332692 -0.178978 0.431918 -0.148352 0.146966 0.037423 0.302419 -0.170292 0.088703 0.230144 -0.259404 -0.261252 -0.106075 0.169457 -0.014443 -0.235945 -0.399035 0.385971 
defer -0.041155 -0.115963 -0.099401 -0.005169 0.283315 0.195312 -0.276768 0.088019 -0.177291 0.160931 0.074709 0.329203 -0.386971 -0.268204 0.404680 0.076882 0.082148 -0.209651 0.012445 -0.005179 0.030148 0.172050 0.039866 -0.059269 0.011614 -0.604490 0.225900 -0.034632 0.023899 -0.041798 0.895971 -0.069563 0.239357 -0.111958 0.096981 -0.102606 -0.109170 0.175021 0.182038 -0.200856 0.015618 0.186965 -0.008939 -0.128194 0.166929 -0.110640 -0.042693 0.045389 -0.059779 0.388087 
rebrov 0.010866 -0.203896 0.257272 0.081007 0.086578 -0.269343 0.181582 0.428615 -0.290133 0.113148 0.240292 -0.189660 0.020148 -0.281773 0.051275 0.052579 -0.077086 -0.043097 0.375997 0.720575 -0.260202 -0.170640 -0.186375 0.070561 -0.121950 -0.324018 0.438864 -0.137808 -0.211084 -0.360308 -0.229701 0.136562 0.262485 0.125318 -0.077257 0.071286 -0.013123 0.356825 0.072704 0.284365 0.275243 0.216664 0.149307 -0.305933 0.088146 -0.135745 -0.283843 0.077230 -0.207066 0.110310 
3,162 -0.022154 -0.332028 0.507942 -0.194684 0.171143 0.123980 -0.009980 -0.026449 -0.246559 0.131852 -0.296822 -0.105144 0.527326 -0.307392 0.243175 -0.172489 -0.256971 0.126844 0.181383 -0.098023 0.407912 -0.026115 -0.054866 -0.044269 -0.017377 0.669543 0.370621 -0.499481 0.168741 0.002275 -0.241344 0.315448 0.645735 0.012358 0.215190 0.125587 -0.184469 0.011855 -0.299812 -0.221841 -0.002746 -0.429173 0.491134 0.547835 -0.353248 0.007083 -0.078921 0.107839 -0.381260 0.122191 
granma -0.149832 -0.108702 -0.121835 0.180682 0.172699 0.054262 -0.155569 0.111888 -0.362905 -0.018912 0.229677 0.339967 -0.315207 -0.446374 0.313455 0.088011 -0.034813 -0.066157 0.140568 0.452377 -0.224908 0.029712 -0.132416 -0.064278 -0.029119 -0.416610 0.259440 -0.115753 -0.330886 -0.287533 -0.089864 -0.197760 0.309694 0.092323 0.168901 -0.023621 0.014489 0.251037 0.224046 0.087014 0.128962 0.350418 -0.051388 -0.302032 0.024026 -0.180938 -0.104491 -0.162041 -0.225065 0.292990 
groenstein -0.172342 -0.041798 -0.078772 0.029717 0.288773 0.247599 -0.331386 0.052157 -0.297694 0.096339 0.087852 0.423837 -0.348447 -0.298881 0.399882 0.101715 0.080812 -0.202150 -0.026174 0.039835 -0.040805 0.204510 -0.013037 -0.067867 0.035904 -0.358572 0.243758 -0.093190 -0.001132 -0.101635 0.378906 -0.182570 0.313495 0.010014 0.209831 -0.146214 -0.059549 0.157252 0.299106 -0.083906 0.091588 0.228314 0.019165 -0.079211 0.037405 -0.059964 -0.027580 -0.091719 -0.175575 0.415550 
household -0.017583 -0.091197 -0.026817 -0.152481 0.354796 0.121367 -0.379872 0.117301 -0.252479 0.147781 -0.092796 0.195447 -0.164519 -0.329908 0.314570 0.136586 -0.026772 -0.192027 -0.091153 0.062092 0.272823 0.191461 0.001033 -0.155822 0.036861 -0.606032 0.289705 0.000822 0.181358 -0.075372 1.089276 -0.056080 0.286064 -0.073408 0.243694 -0.111769 -0.048632 0.094133 0.064200 -0.251354 -0.098595 0.018772 -0.012714 -0.007792 0.035716 -0.156820 -0.072081 -0.005964 -0.034791 0.245756 
36.170 -0.400725 -0.442047 0.414031 -0.199796 0.237953 0.022417 0.026227 0.317011 -0.520662 0.329423 -0.222302 -0.087137 0.587314 -0.328296 -0.132189 0.187441 -0.257554 -0.088389 0.146025 0.433205 0.375400 0.268357 -0.208311 -0.283662 0.157162 0.429614 0.846685 -0.089615 0.554743 -0.207138 -0.980377 0.246882 0.587219 0.084974 0.248504 -0.092779 -0.470604 0.011283 0.047815 -0.358151 0.047240 -0.316633 0.402395 0.237246 -0.067561 -0.178911 0.111676 0.040349 -0.023656 0.159985 
51.9 -0.228386 -0.295573 0.937968 -0.191019 0.657288 1.329436 -0.678014 -1.486433 -0.646274 0.512441 0.290357 -0.433037 0.360179 -0.918663 0.637756 0.340303 -0.351171 0.190918 0.060029 0.531727 0.724328 0.660288 -0.050119 -1.046182 0.131609 1.045064 0.668953 -0.240634 0.169108 0.093679 -0.304593 0.758400 0.745134 0.647759 0.892752 -0.432802 -0.261942 0.317058 0.245192 -0.258309 -0.577218 -0.437666 0.653743 -0.059998 -1.431924 -0.953887 -0.306028 0.624836 0.393987 -0.114429 
51.2 -0.253076 -0.251479 0.899770 -0.231106 0.651730 1.340947 -0.714436 -1.442271 -0.640069 0.487752 0.281405 -0.380050 0.321318 -0.847209 0.556049 0.345086 -0.393099 0.191673 0.074105 0.584887 0.722551 0.684378 -0.033331 -1.033941 0.063494 1.036476 0.698707 -0.214286 0.185897 0.121907 -0.422642 0.732436 0.744302 0.682896 0.989790 -0.407423 -0.198483 0.374937 0.220667 -0.173999 -0.583720 -0.409721 0.610120 -0.054317 -1.482433 -0.910870 -0.370765 0.563606 0.362060 -0.120107 
indifferent 0.270909 -0.435906 -0.021144 -0.254852 0.347809 0.276808 0.064451 -0.101949 -0.307964 0.512202 -0.033687 0.210755 0.181335 -0.230260 0.386727 0.103855 -0.091373 -0.050595 0.232241 -0.105137 0.364274 0.045194 0.000086 -0.246277 0.172449 -0.408720 0.216384 0.216418 0.400801 0.337345 1.105174 0.166869 0.464261 -0.242597 -0.215442 -0.248484 -0.547340 -0.162173 0.009099 -0.588542 -0.210182 -0.219589 0.279961 0.163235 0.244387 -0.375423 0.006332 0.871130 0.397658 0.461349 
20,553.16 -0.484128 -0.146137 -0.191969 -0.052454 0.158554 0.149312 -0.250694 0.322342 -0.101108 0.253607 -0.000047 0.072009 0.115192 0.100833 0.071412 -0.227490 -0.063897 -0.111219 0.120499 0.181312 0.166649 -0.101319 -0.307721 -0.051019 -0.034350 0.030946 0.375311 -0.036938 0.182458 -0.010735 0.068504 0.051573 0.434826 0.032106 0.095284 0.161090 -0.188378 0.257549 -0.064728 -0.497816 -0.038636 -0.274132 -0.088520 0.044592 -0.145850 -0.193123 0.167165 0.100767 -0.026716 0.191940 
bund 0.054809 -0.096832 0.048063 -0.213213 0.323368 -0.042554 -0.371395 0.206865 -0.320773 -0.057018 -0.098880 0.164495 -0.238581 -0.349789 0.240057 0.189123 -0.051247 -0.195848 -0.235385 0.031193 0.127248 0.138819 -0.011310 -0.113973 -0.013598 -0.647596 0.223891 0.121650 0.111365 -0.185027 0.929576 -0.108762 0.298420 0.093426 0.283319 -0.051122 0.071679 -0.007006 0.147590 -0.014827 -0.024602 0.217978 -0.080147 -0.041886 0.127313 -0.113472 -0.057293 -0.206576 -0.138644 0.080134 
chilly -0.317129 0.076351 -0.132256 -0.023005 0.261537 0.461566 -0.451157 0.103007 -0.216899 -0.140590 0.013565 0.642658 -0.541096 -0.235193 0.374677 0.105558 0.169979 -0.260944 -0.142394 -0.261168 -0.142207 0.279130 0.086494 -0.029548 0.001533 -0.339942 0.228757 0.058317 0.100887 -0.133512 0.380047 -0.342189 0.491664 0.111888 0.363174 -0.028281 0.068417 0.150424 0.436060 -0.060311 0.167350 0.392156 -0.071816 -0.018344 0.140353 -0.049861 0.042820 -0.381936 -0.313430 0.518767 
64.73-point -0.561150 -0.307137 -0.085941 -0.127669 0.148955 0.021591 -0.126011 0.562334 -0.163906 0.421376 -0.236748 -0.168554 0.541357 0.118219 0.035839 -0.221655 -0.234936 -0.069949 0.259006 0.428415 0.253565 -0.157804 -0.507706 -0.208894 0.038587 0.414201 0.622202 0.000605 0.523513 -0.022750 -0.728167 0.178786 0.504263 0.196084 0.089615 0.229379 -0.405596 0.196963 -0.151547 -0.757737 -0.172847 -0.498358 -0.061947 0.097737 -0.201433 -0.184178 0.350526 0.165049 -0.154959 0.149756 
shakil 0.287701 -0.204525 0.266769 0.032938 0.418256 -0.618298 0.082895 0.141584 -0.116999 0.249056 0.045543 0.196424 -0.473172 -0.262657 -0.118748 0.371329 0.085714 -0.074712 0.632711 0.759033 -0.363990 0.344996 0.347952 0.099253 -0.515041 -0.406471 0.192378 -0.021707 -0.332635 0.043508 -0.123530 0.263626 0.090827 0.132624 0.652311 0.134816 -0.085741 0.189485 -0.100700 0.355895 -0.149850 0.700150 -0.373702 -0.395284 0.221650 -0.251459 -0.464329 0.164138 -0.062492 0.340109 
methanol -0.002406 -0.005760 -0.054288 -0.008656 0.306400 0.087289 -0.322821 0.022699 -0.295687 0.147431 0.011647 0.252041 -0.090652 -0.301837 0.350651 0.170613 -0.012191 -0.120163 -0.017740 0.008049 0.244227 0.130910 -0.054647 -0.095935 0.026479 -0.558431 0.240075 -0.042470 0.113888 -0.002587 1.160706 -0.120846 0.216972 -0.093834 0.167338 -0.122946 -0.085125 0.071027 0.078207 -0.208233 -0.042716 0.051607 0.041517 0.013227 0.032196 -0.177073 -0.065329 0.028253 -0.011306 0.283332 
19-game -0.565488 -0.046108 -0.341564 0.065072 -0.003788 0.100157 -0.303474 0.369346 -0.120351 0.222105 -0.071338 0.008093 -0.210599 0.021524 0.485781 -0.357519 -0.114891 -0.118349 -0.090944 0.368755 -0.022644 -0.268194 -0.315168 -0.098910 -0.169124 -0.011519 0.380285 -0.165472 0.071938 0.030096 -0.098004 0.089048 0.143313 0.233408 0.140854 0.234579 -0.054079 0.243857 0.022450 -0.541323 -0.271353 -0.138403 -0.365037 -0.275219 -0.254938 0.036036 0.347429 -0.084753 -0.330713 0.179169 
symposium 0.148508 0.146780 0.227832 -0.172694 0.438855 -0.080512 -0.094040 -0.172991 -0.198768 0.180152 0.048353 0.263205 0.114178 -0.475351 0.396713 0.481673 0.052777 0.138235 0.097368 -0.103058 0.627470 0.227850 0.075193 -0.064654 -0.078103 -0.350360 0.312730 0.022790 0.251363 0.132287 1.353350 0.049630 0.241240 0.042474 0.251326 -0.195053 -0.067992 -0.103281 0.042166 -0.244549 0.030859 -0.091354 0.175331 0.122176 0.012880 -0.500935 -0.014448 0.132337 0.002838 0.376511 
annemari -0.331005 0.035561 -0.408187 0.094541 0.123764 0.067426 -0.398672 0.156816 -0.051432 0.236346 0.263956 0.654064 -0.277206 -0.427570 0.496037 -0.046426 0.177567 -0.152753 0.558310 0.268955 -0.179934 -0.003318 -0.262575 -0.265488 0.128238 -0.109426 -0.000388 -0.233842 -0.538902 -0.075294 -0.415444 -0.180593 0.118584 -0.182758 0.185158 -0.142420 -0.087790 0.487028 0.227352 -0.283462 -0.109121 0.175135 -0.294781 -0.554105 -0.576585 0.000811 -0.045264 0.174257 -0.362714 0.567425 
post-games -0.682320 -0.168930 -0.336043 0.066120 -0.124375 0.265068 -0.143398 0.372955 0.049112 0.310726 0.065863 0.025175 0.224794 0.402407 -0.023730 -0.367150 0.045050 -0.128707 0.365419 -0.021387 0.311641 -0.208808 -0.224208 0.252169 -0.225936 0.505781 0.227138 -0.249142 0.158223 0.081799 -0.256530 0.272776 0.465250 -0.289535 0.012856 0.513822 -0.359757 0.255482 -0.466987 -0.551395 -0.013727 -0.443268 -0.080030 0.207541 -0.165225 -0.132870 0.139195 0.169261 -0.145358 0.010553 
mueller -0.308549 -0.037728 -0.167513 -0.025157 0.371849 0.142071 -0.390929 0.326397 -0.200438 -0.012202 0.198832 0.480079 -0.446059 -0.220576 0.376014 -0.039041 0.128127 -0.225927 -0.071002 0.152228 -0.243447 0.079188 -0.151017 0.134962 -0.056181 -0.352602 0.348694 -0.039721 0.014392 -0.128653 -0.135650 -0.263624 0.464838 0.055194 0.188808 -0.033745 -0.047864 0.323638 0.304061 -0.131346 0.311691 0.283389 -0.061841 -0.187668 0.147042 -0.075633 0.040813 -0.195596 -0.268557 0.553817 
eurodollar 0.233035 -0.201288 -0.122655 -0.202621 0.490146 0.118801 -0.206779 -0.102837 -0.252021 0.235852 0.122825 0.226040 0.041174 -0.119183 0.171600 0.065366 -0.035522 -0.057318 0.061398 0.032782 0.419728 0.191112 -0.097191 -0.105642 -0.093162 -0.783586 0.083931 -0.030878 0.076478 0.267118 1.543780 -0.068940 0.256473 -0.336352 0.043618 -0.064721 -0.319493 -0.108028 -0.065955 -0.206549 -0.065016 0.006621 0.171692 0.190860 0.259031 -0.530865 -0.200734 0.602986 0.308015 0.232089 
mediating 0.040038 -0.209960 -0.069855 -0.077767 0.366148 0.247991 -0.219395 0.009678 -0.154979 0.320950 -0.046108 0.147199 -0.035628 -0.267131 0.240615 0.039012 -0.126131 -0.125854 0.254280 0.131725 0.568437 0.197600 -0.036026 -0.156839 -0.030684 -0.493466 0.333378 -0.140755 0.147755 0.003935 1.116426 0.096151 0.387225 -0.269084 0.122579 -0.025815 -0.255861 0.116080 -0.225132 -0.343286 -0.128890 -0.219188 0.135907 0.123142 -0.008327 -0.366323 -0.179252 0.353427 0.064268 0.196031 
lad 0.364426 0.117847 0.192231 -0.203942 0.551736 0.041557 -0.395863 -0.039124 -0.233042 0.017282 -0.188264 0.138373 -0.427550 -0.472145 0.343095 0.199199 -0.009131 -0.343379 -0.294172 0.008730 0.331653 0.296947 0.276372 -0.184277 -0.006306 -1.204346 0.223675 -0.013255 0.165095 -0.123579 2.410091 -0.054819 0.033587 -0.047704 0.340832 -0.215462 0.200231 0.064977 0.129294 0.086088 -0.101534 0.279725 0.008324 -0.171980 0.103521 -0.106616 -0.272586 -0.113604 0.080721 0.225005 
3:40.036 -0.730251 -0.343769 -0.149394 -0.124275 0.111198 0.184731 -0.151434 0.547052 -0.067624 0.311021 -0.005825 -0.013667 0.441003 0.286142 -0.116734 -0.253997 -0.116945 -0.063213 0.308846 0.293988 0.177782 -0.133106 -0.396347 0.024389 -0.040947 0.540583 0.525334 -0.028348 0.399830 0.038373 -0.980740 0.071758 0.645260 0.002798 0.066205 0.358430 -0.414152 0.297463 -0.192468 -0.671513 0.060524 -0.461773 -0.058761 0.200336 -0.092749 -0.241424 0.287374 0.119462 -0.120620 0.186982 
lynagh -0.204093 0.004011 0.053156 -0.012508 0.467986 0.030955 -0.284943 0.128814 -0.297602 -0.149029 -0.005481 0.334451 -0.434410 -0.348171 0.270590 0.152857 0.036668 -0.102466 -0.011772 0.445226 -0.136251 0.187155 0.040265 -0.034706 -0.163744 -0.559582 0.285581 -0.104059 -0.139668 -0.166979 0.178525 -0.273149 0.425225 0.109494 0.457947 0.055259 0.150014 0.216751 0.179527 0.047254 0.083930 0.382297 -0.119971 -0.197144 0.238795 -0.187389 -0.197944 -0.224103 -0.204718 0.476565 
indemnity 0.316209 -0.357027 -0.149924 -0.263870 0.331143 0.345344 0.105956 -0.182223 -0.252168 0.600088 0.004697 0.210568 0.311397 -0.181215 0.345873 0.065111 -0.146158 -0.042263 0.349389 -0.022821 0.500787 0.012084 -0.093735 -0.342115 0.214837 -0.335581 0.115369 0.128406 0.416085 0.389595 1.171656 0.155237 0.349726 -0.326233 -0.293726 -0.233968 -0.520032 -0.146969 -0.064616 -0.571653 -0.227004 -0.398871 0.254584 0.221294 0.093381 -0.445657 0.014984 1.004598 0.406437 0.435416 
waterfront -0.066608 -0.137124 -0.144061 0.105406 -0.103194 -0.086734 -0.149406 0.195026 -0.112002 0.299363 0.291625 0.028870 0.040548 -0.343952 0.142698 0.030810 0.047877 -0.108108 0.114238 0.182768 0.087044 -0.134100 -0.278433 0.044786 -0.025527 -0.250435 0.264981 -0.030837 -0.094525 -0.274096 0.430685 0.118968 0.113821 0.077680 -0.147445 -0.144112 -0.174276 0.241219 0.154995 -0.013954 0.213034 0.037624 0.053566 -0.218306 -0.263034 -0.075866 0.018122 -0.053240 -0.153958 -0.024917 
djorkaeff -0.429917 0.058559 -0.231260 -0.158103 0.628051 0.324254 -0.606989 0.181091 -0.300998 -0.221315 -0.065141 0.750691 -0.723487 -0.563242 0.481716 0.147795 0.269377 -0.298848 -0.299740 0.180542 -0.222122 0.368681 -0.025387 -0.041979 0.053907 -0.613529 0.237758 -0.172408 -0.030521 -0.199071 -0.024905 -0.445885 0.614735 -0.110268 0.597341 -0.086551 0.191538 0.208739 0.286604 -0.280118 0.163005 0.319090 -0.216022 -0.093050 0.327314 -0.060855 0.012316 -0.296295 -0.369613 0.832403 
wahono -0.043900 -0.074104 -0.059344 0.078571 0.397488 0.102485 -0.292261 0.049442 -0.328111 0.057857 0.098195 0.424857 -0.405857 -0.269348 0.368288 0.052377 -0.009251 -0.141567 0.073767 0.227283 -0.104347 0.196262 0.014375 -0.032803 -0.066999 -0.467419 0.253971 -0.092471 -0.070609 -0.153145 0.390072 -0.178408 0.323313 0.002224 0.276309 -0.011524 -0.004177 0.221923 0.145212 -0.038640 0.060605 0.289463 -0.028279 -0.150477 0.151463 -0.221704 -0.134141 -0.138512 -0.091244 0.446045 
2-105 -0.516768 -0.164778 0.448649 -0.041307 0.196388 0.012067 0.080557 0.046852 -0.201843 0.094932 -0.080144 0.082884 0.035480 -0.254385 0.159593 0.342962 0.060923 0.054185 -0.031794 -0.054317 0.287578 0.229666 0.124213 0.111197 -0.120668 0.557439 0.681237 -0.157740 0.405490 0.025441 -0.590519 0.245827 0.541939 0.234653 0.304012 0.073703 -0.163032 0.078916 0.031226 -0.318477 0.258940 -0.161531 0.179056 0.301253 0.234663 -0.175446 0.275218 -0.346860 -0.244086 0.358029 
vera 0.000700 -0.482136 -0.150808 0.369851 -0.057900 0.090006 -0.075392 0.489668 -0.341204 0.390511 0.377318 0.125395 -0.128585 -0.122688 0.312062 -0.304615 -0.146157 -0.223362 0.471901 0.066240 -0.586002 -0.084559 -0.303236 0.078976 0.149969 -0.114757 0.511556 0.113060 -0.028776 -0.502120 -0.348997 0.143546 0.452732 0.016392 -0.319890 0.071715 -0.395296 0.528154 0.141519 -0.094601 0.245386 0.249839 0.239402 -0.199400 0.094218 -0.122555 -0.034797 -0.088005 -0.150717 0.085915 
guerilla -0.177410 -0.111954 -0.171579 0.314491 0.219918 0.194072 -0.285025 0.097647 -0.313299 -0.027209 0.246704 0.330559 -0.361749 -0.414250 0.464097 0.006133 -0.051090 0.039919 0.172359 0.277216 -0.282968 0.113036 -0.174431 0.066380 0.011822 -0.404402 0.313469 -0.006739 -0.271375 -0.438655 0.163420 -0.214538 0.416479 0.224273 0.225038 0.002659 -0.010927 0.256222 0.263778 -0.160606 0.084091 0.290111 0.038802 -0.365453 0.034681 -0.233436 -0.018179 -0.346692 -0.164358 0.334479 
splendid -0.285015 -0.223865 0.046312 -0.239200 0.240171 0.200889 -0.671266 0.111451 -0.301351 -0.139771 0.147919 0.313311 -0.557337 -0.198819 0.356011 0.040688 -0.081867 -0.248643 -0.344893 0.018537 0.011697 0.083137 0.195587 -0.228516 -0.071989 -0.540023 0.430686 0.038352 -0.277517 -0.048444 0.676456 -0.332225 0.420098 0.150687 0.410040 0.050592 0.339128 0.533102 0.070651 0.014890 -0.009679 0.291046 -0.301696 -0.035073 -0.180663 -0.164778 -0.234073 -0.489203 -0.281782 -0.036222 
capitalise 0.144069 -0.207643 -0.018646 -0.115012 0.244832 0.292005 -0.077296 0.073072 -0.163923 0.391136 -0.195064 0.210524 0.052906 -0.359996 0.316765 0.277068 -0.066112 -0.238876 0.372505 -0.215532 0.643922 0.185641 -0.015733 -0.277784 0.297905 -0.360669 0.270303 -0.033672 0.398359 -0.264629 1.259620 0.322930 0.347691 -0.252964 -0.011912 -0.130643 -0.185489 0.075376 -0.267263 -0.508241 -0.227012 -0.421397 0.177771 0.206444 0.067800 -0.251897 0.023197 0.188783 -0.023205 0.200403 
11/01/96 -0.531790 -0.363037 0.005715 -0.108721 0.145490 0.451093 -0.277983 0.150793 -0.155659 0.369498 -0.057265 0.013232 0.299427 0.030249 0.281169 -0.135879 -0.196931 0.033862 0.226818 0.206625 0.241136 -0.064013 -0.339437 -0.176556 0.014991 0.612016 0.407152 -0.067106 0.376742 0.053712 -0.963074 0.153433 0.665625 0.231729 0.196538 0.172220 -0.381351 0.189672 -0.080298 -0.618236 -0.188454 -0.479510 0.114929 0.223492 -0.297018 -0.138085 0.215633 0.127409 -0.205551 0.070855 
62.65 -0.497278 -0.300009 0.488419 -0.131884 0.390484 -0.005816 -0.053247 0.165349 -0.683189 0.339960 -0.295521 -0.023839 0.730743 -0.524356 0.068594 0.299200 -0.335191 0.005954 0.120813 0.582656 0.691371 0.328336 -0.322311 -0.490720 0.236679 0.442413 0.972582 -0.222128 0.515788 -0.261333 -0.924801 0.145303 0.567364 0.141465 0.417724 -0.206366 -0.400045 -0.025384 -0.002475 -0.514621 -0.100760 -0.451688 0.490444 0.185477 -0.311528 -0.298915 0.108329 -0.015925 -0.016465 0.198380 
goodbye -0.308831 -0.049389 -0.286253 -0.044346 0.232279 0.135782 -0.197568 0.053109 -0.197930 -0.072159 0.213918 0.522267 -0.365607 -0.397890 0.183560 0.080018 0.103721 -0.026282 0.061372 0.396453 -0.091703 0.083518 -0.118330 0.007760 -0.181825 -0.291281 0.171943 -0.067256 -0.186362 -0.037878 -0.363955 -0.245239 0.401852 -0.010044 0.265163 0.024931 -0.005833 0.171824 0.193462 -0.013100 0.232163 0.270864 -0.139586 -0.248630 0.073267 -0.224897 -0.049076 -0.031534 -0.200340 0.528448 
record-tying -0.635514 -0.116096 -0.478065 -0.030977 0.231178 0.315339 -0.235070 0.148062 0.084239 0.256908 0.181360 0.104659 0.133985 0.106130 0.222340 -0.413161 -0.101983 0.022475 0.279169 0.402260 0.583618 -0.205038 -0.295465 0.006612 -0.152869 0.068176 0.219627 -0.311936 -0.057513 0.157378 0.162669 -0.013973 0.386984 -0.296019 0.073864 0.344031 -0.271769 0.388035 -0.417014 -0.684891 -0.114625 -0.478669 -0.145263 -0.157276 -0.396019 -0.403092 0.159083 0.288491 -0.005625 0.214429 
repatriated 0.005937 -0.435666 -0.181455 -0.375398 0.272603 0.097135 -0.616023 0.087533 -0.466018 0.288053 0.225784 0.283267 -0.187922 -0.464857 0.688145 0.107220 -0.224195 -0.075195 0.035372 0.313870 0.409204 0.077444 0.064101 -0.411931 0.135060 -0.608056 0.379751 -0.167217 -0.319090 0.221171 0.865580 -0.164527 0.194374 -0.447716 0.229209 -0.158616 0.093814 0.451095 -0.365732 -0.456867 -0.401784 -0.204922 -0.215480 -0.140743 -0.467340 -0.299837 -0.358659 0.305068 -0.109582 0.137504 
succession 0.183340 -0.131106 -0.189293 -0.105259 0.284388 0.165619 -0.122690 0.008947 -0.229247 0.364289 0.015459 0.203913 0.038264 -0.273248 0.287759 0.139773 -0.094973 -0.195829 0.215609 0.105060 0.451206 0.034792 -0.140739 -0.285052 0.134576 -0.555049 0.200347 -0.077004 0.209686 0.109302 1.358637 -0.007078 0.073743 -0.207130 -0.066949 -0.190826 -0.144663 0.039039 -0.066398 -0.270790 -0.133471 -0.213435 -0.008458 0.044010 -0.042723 -0.286382 -0.033880 0.417849 0.081924 0.290722 
restriction 0.357021 -0.286640 -0.061550 -0.196480 0.344776 0.220781 0.060198 -0.108639 -0.319584 0.510288 -0.047957 0.205021 0.157338 -0.374598 0.398944 0.187883 -0.099291 -0.159975 0.277072 0.003956 0.464501 0.007312 -0.122963 -0.391267 0.260591 -0.455475 0.174130 0.054054 0.377895 0.199814 1.245129 0.159616 0.206084 -0.216877 -0.226497 -0.318563 -0.369110 -0.132643 -0.013298 -0.427736 -0.212997 -0.284929 0.175955 0.074175 0.111775 -0.333790 0.025239 0.744964 0.256310 0.399882 
chantyr -0.277193 -0.016664 -0.202023 -0.060216 0.223148 0.369051 -0.393150 0.138122 -0.210814 -0.042594 0.110550 0.608373 -0.432450 -0.308805 0.358642 0.082271 0.168527 -0.196964 -0.025570 -0.041939 -0.123981 0.236759 -0.012874 -0.010996 -0.022006 -0.192351 0.205078 -0.037977 0.068166 -0.073252 -0.086191 -0.278154 0.444361 -0.033990 0.289200 -0.008853 -0.011727 0.155219 0.307250 -0.071884 0.204727 0.270950 -0.066353 -0.068723 0.061654 -0.101600 -0.001024 -0.184784 -0.322807 0.543082 
fal -0.041294 -0.036857 -0.045315 0.040596 0.197551 0.042716 -0.252674 -0.027009 -0.192770 0.146274 0.052758 0.254649 -0.217069 -0.229665 0.281931 0.185088 0.064831 -0.111775 0.031037 -0.012655 0.072742 0.088827 -0.005095 -0.074237 -0.020344 -0.560300 0.166143 0.095875 0.020868 -0.108398 1.074129 -0.020144 0.229483 0.116018 0.131685 -0.105778 -0.035667 0.108220 0.179868 -0.157773 -0.035383 0.150107 -0.014375 -0.059250 0.081497 -0.205098 -0.050514 -0.056350 0.032351 0.239863 
parrett -0.171892 0.057671 -0.291756 0.103602 0.189056 0.052678 -0.237410 0.057576 -0.131887 0.052146 0.258982 0.468076 -0.361509 -0.423150 0.354429 0.013438 0.099661 -0.082297 0.070808 0.245001 0.012791 -0.003621 -0.232405 -0.012016 -0.088458 -0.454752 0.207785 -0.145199 -0.288211 -0.116799 0.321530 -0.238273 0.212826 0.009035 0.075467 -0.157011 0.012137 0.271496 0.249679 -0.017403 0.235288 0.254959 -0.063610 -0.352438 -0.125593 -0.090448 -0.019171 -0.049967 -0.239381 0.479967 
20.54 -0.600023 -0.489837 0.546278 0.300474 0.694530 0.366089 -0.067762 -0.349205 -0.608235 0.542638 -0.265988 -0.032772 0.539804 -0.560330 0.213118 0.219046 -0.365376 -0.287994 0.069804 0.439887 0.877093 0.443549 -0.212237 -0.614838 0.511003 0.492086 1.030866 -0.483792 0.436660 -0.277510 -0.543715 0.045896 0.598350 0.382964 0.371394 -0.542490 -0.656380 0.248460 0.073333 -0.429329 -0.076566 -0.389795 0.715267 0.292895 -0.594548 -0.208498 0.166456 -0.166540 0.174567 0.038343 
airbags -0.036290 -0.093289 0.074232 -0.013976 0.122996 0.088377 -0.285647 0.074112 -0.330385 0.186958 0.013750 0.140072 -0.004976 -0.303424 0.293016 0.127804 0.011065 -0.110242 -0.015874 -0.043490 0.223501 0.105754 -0.037856 -0.041238 -0.005608 -0.373536 0.276236 -0.077707 0.114037 -0.157015 0.880737 0.146064 0.267892 -0.086868 0.129141 -0.065141 -0.144050 0.018639 0.045672 -0.195349 -0.034871 -0.027709 0.180982 0.079944 -0.003062 -0.144021 -0.100910 0.022336 -0.037603 0.091860 
359-yard -0.542405 -0.208428 -0.323001 -0.128249 0.008704 0.085314 -0.253479 0.594659 0.052675 0.272711 -0.054002 -0.005392 0.208926 0.302680 0.082004 -0.413952 -0.113516 -0.041090 0.207120 0.287917 0.029154 -0.333212 -0.422748 0.012025 -0.173255 0.269742 0.311094 0.079957 0.257279 0.086736 -0.519989 -0.018780 0.508028 0.131391 0.031037 0.426314 -0.257065 0.261347 -0.123075 -0.624247 -0.091853 -0.311741 -0.311178 0.013793 -0.173991 -0.159012 0.306927 0.135748 -0.252312 0.135504 
experimentally 0.181936 -0.301882 -0.080494 -0.249747 0.590517 0.259600 -0.297849 -0.277047 -0.219079 0.431527 0.018328 0.234302 0.054597 -0.286323 0.525201 0.115755 -0.139607 -0.004866 0.225517 -0.073549 0.640737 0.215967 0.127838 -0.184640 0.305962 -0.689522 0.230353 -0.005861 0.141752 0.132751 1.880029 -0.031893 0.452000 -0.246180 0.053999 -0.341402 -0.167681 0.404687 -0.337659 -0.597500 -0.195965 -0.350880 0.292813 0.142704 -0.191683 -0.390278 -0.220847 0.435429 0.267531 0.460046 
intoxicated -0.223090 -0.458544 -0.121621 -0.364878 0.222376 0.198262 -0.621692 0.250395 -0.363578 0.179621 0.165619 0.249517 -0.054080 -0.152580 0.338803 -0.047233 -0.263638 -0.094335 0.030085 0.360916 0.264803 0.013353 0.053455 -0.221679 0.030078 -0.236928 0.482509 -0.122001 -0.111564 0.206177 0.246949 -0.315177 0.457339 -0.278477 0.284501 0.057792 0.129331 0.527140 -0.342306 -0.371062 -0.149671 -0.279509 -0.237162 0.128157 -0.425893 -0.280067 -0.319311 0.076969 -0.146397 0.155325 
quarterbacks -0.107841 -0.263255 -0.054503 0.015237 0.015497 0.209017 -0.109959 0.098248 -0.130270 0.390716 -0.015015 -0.002528 0.145781 -0.076119 0.028476 0.050032 -0.059761 -0.157019 0.276434 -0.050598 0.493763 0.038389 -0.111880 -0.037153 -0.049613 -0.095301 0.300340 -0.033877 0.289303 -0.087388 0.657480 0.361072 0.388327 -0.136096 -0.020204 0.083948 -0.379870 0.068910 -0.243392 -0.288795 -0.060275 -0.304829 0.194975 0.247258 -0.024116 -0.244215 -0.057738 0.241317 0.058014 -0.122107 
13:08.05 -0.130022 -0.090429 -0.037661 -0.016224 0.213961 0.077701 -0.239816 0.093541 -0.238053 0.206129 0.070483 0.223666 -0.067859 -0.244642 0.270755 0.125826 0.024961 -0.124141 0.050623 0.053988 0.141733 0.093445 -0.082256 -0.041429 0.031557 -0.305212 0.271468 -0.049861 0.084226 -0.068442 0.605942 0.028886 0.281749 -0.043542 0.090281 -0.114599 -0.154240 0.109862 0.144315 -0.253122 0.038282 -0.011894 0.044303 0.007446 0.019603 -0.141714 0.034256 0.056120 -0.038915 0.294471 
fit -0.180983 0.144548 -0.028587 0.009081 0.325751 0.398339 -0.534462 -0.262804 -0.160862 0.050270 -0.063231 0.208392 -0.136364 -0.189596 0.584024 0.329987 0.137547 -0.214453 -0.431259 -0.618493 0.342357 0.042101 0.028389 -0.201408 0.262341 -0.766964 0.053337 0.374723 0.436070 -0.118105 2.185177 -0.182150 0.247924 0.376532 0.069664 -0.248304 -0.026845 0.057198 0.399919 -0.412813 -0.110454 0.054054 0.106964 0.066457 0.099791 -0.133279 0.220759 -0.425270 0.133658 0.040911 
avocado 0.174246 -0.143248 -0.076422 0.513019 0.294721 0.010835 -0.351758 0.177326 -0.545250 0.258074 0.396112 0.381245 -0.619464 -0.158714 0.597476 -0.524442 -0.136305 -0.284122 0.063999 0.150505 -0.730729 0.048721 -0.099053 0.090125 -0.030632 -0.449449 0.445023 -0.161679 -0.297516 -0.528963 0.390535 0.014572 0.120931 -0.004471 -0.045310 -0.018311 -0.008135 0.540957 0.328991 0.121332 0.217487 0.553811 0.104512 -0.480206 -0.004355 -0.128946 -0.178240 -0.350478 0.027235 0.430408 
four-over -0.588878 -0.025376 -0.301363 -0.072192 0.397510 0.218375 -0.273872 0.235019 -0.023290 0.112297 0.100544 0.145220 0.069705 0.153964 0.139464 -0.283164 -0.124991 0.010835 0.193168 0.385621 0.250515 -0.122670 -0.296500 0.035248 -0.115225 -0.027619 0.270069 -0.096012 0.107794 0.073670 -0.007533 -0.170694 0.458229 0.041629 0.239206 0.282065 -0.176206 0.360538 -0.138731 -0.522779 -0.042020 -0.267338 -0.138381 -0.136863 -0.132516 -0.334839 0.180959 0.011943 -0.001832 0.296292 
espinoza -0.048189 -0.239585 0.014485 0.258061 -0.050657 0.026976 -0.053510 0.423974 -0.399086 0.146348 0.167524 -0.003803 -0.126930 -0.449480 0.252066 -0.081800 -0.163262 -0.128647 0.145587 0.437838 -0.325181 -0.059538 -0.221857 -0.001854 0.015463 -0.422300 0.535464 -0.051708 -0.133372 -0.592773 -0.000059 0.045649 0.296362 0.048209 -0.046236 -0.022861 -0.010295 0.289152 0.232873 0.038643 0.164140 0.211841 0.165947 -0.310016 0.003781 0.009037 -0.124384 -0.221337 -0.205650 0.131558 
16.2 -0.289815 -0.252169 1.055858 -0.006855 0.743309 1.666743 -0.789358 -1.716153 -0.586782 0.580255 0.343644 -0.459172 0.124752 -0.811869 0.864820 0.197681 -0.394615 0.105558 -0.039332 0.352894 0.732134 0.626998 0.064694 -1.043634 0.178814 0.978588 0.756387 -0.163602 0.139884 0.187032 0.267590 0.680200 0.869382 0.876541 0.850552 -0.580133 -0.359343 0.451269 0.486995 -0.347727 -0.649036 -0.355497 0.731952 -0.144185 -1.559446 -0.914173 -0.216651 0.612418 0.577767 -0.135432 
fade 0.084374 0.094060 -0.026129 0.032907 0.344590 0.228341 -0.489701 -0.263197 -0.212635 0.273819 -0.064208 0.257034 -0.192796 -0.300688 0.597280 0.264819 0.078959 -0.145237 -0.142202 -0.309756 0.478959 0.155278 0.024906 -0.238736 0.193600 -1.016770 0.123782 0.121452 0.133326 -0.191903 2.503047 -0.020863 0.196673 0.119256 0.067637 -0.357773 -0.004199 0.112489 0.176390 -0.436144 -0.227409 -0.033291 0.144630 0.033905 -0.006898 -0.275098 -0.057324 -0.040220 0.165647 0.210152 
feiersinger -0.296420 -0.051405 -0.182513 -0.026203 0.268232 0.094056 -0.192505 0.262238 -0.105052 -0.072274 0.421863 0.151602 -0.465679 -0.295771 0.466619 -0.130384 0.129880 -0.096825 -0.058575 0.398714 -0.272760 -0.083957 -0.179938 0.134007 -0.168924 -0.375956 0.219050 -0.129694 -0.213290 -0.161325 -0.261169 -0.043350 0.233848 0.051861 0.037071 0.123993 -0.003790 0.407665 0.224313 0.064659 0.312962 0.343077 -0.043255 -0.555673 0.075308 -0.133030 -0.006716 -0.119188 -0.311797 0.307827 
fim 0.019827 0.098747 0.069906 0.010762 0.348088 0.003991 -0.244392 -0.170397 -0.295563 0.074688 0.046323 0.346807 -0.277974 -0.318828 0.448069 0.313117 0.068785 -0.052896 -0.070429 -0.035550 0.144965 0.133779 0.089247 -0.088895 0.039638 -0.726019 0.149816 0.064099 0.001804 -0.139936 1.459198 -0.017356 0.206895 0.187770 0.190712 -0.243454 0.049690 0.045743 0.288572 -0.192809 -0.064311 0.136099 0.078883 -0.061531 0.162458 -0.276591 -0.022695 -0.085160 0.119898 0.380733 
travellers -0.005865 -0.056095 0.059967 -0.098291 0.245442 0.059326 -0.412026 0.026560 -0.270705 0.106402 0.039760 0.152361 -0.074774 -0.201634 0.246166 0.017861 0.059176 -0.134609 -0.108693 -0.039365 0.266208 0.137080 0.013418 0.015831 -0.113638 -0.540811 0.173331 -0.145573 0.027012 -0.055378 1.191253 0.081003 0.268731 -0.207576 0.171385 0.024053 -0.135548 0.032222 -0.004342 -0.154980 -0.000245 0.025920 0.130101 0.114410 0.057366 -0.267390 -0.187762 0.098811 0.017680 0.101959 
215-yard -0.570270 -0.200092 -0.311738 -0.120903 0.030098 0.085066 -0.309355 0.616428 0.076831 0.282062 -0.053069 -0.020700 0.110397 0.333512 0.175182 -0.453484 -0.135601 -0.038190 0.160137 0.245033 -0.004174 -0.334446 -0.436815 -0.060923 -0.190384 0.204352 0.350850 0.177258 0.270169 0.106845 -0.435317 -0.055946 0.462533 0.293476 0.074505 0.422300 -0.252758 0.270102 -0.039611 -0.641137 -0.193603 -0.238706 -0.361166 -0.080209 -0.226393 -0.189190 0.347320 0.068917 -0.252272 0.050496 
incaviglia -0.454561 -0.119411 -0.245869 0.116366 -0.188527 0.147901 -0.220160 0.355633 -0.208395 0.185665 0.018266 -0.107795 0.275914 -0.451876 0.071619 -0.144651 -0.180390 -0.021180 -0.031001 0.479663 0.140421 -0.137254 -0.331300 -0.103947 -0.023009 -0.371873 0.444990 -0.100475 -0.100207 -0.386632 0.297613 -0.031155 0.261766 -0.103849 0.058312 -0.005862 -0.097757 0.129994 0.164264 -0.362616 -0.037162 -0.154587 0.024351 -0.192197 -0.352708 0.079347 0.059526 -0.109949 -0.155441 0.000050 
welterweight 0.014387 -0.188082 -0.098106 -0.008709 0.051820 0.026322 -0.135841 0.192385 -0.138402 0.336655 0.144208 0.010098 0.084072 -0.213867 0.186917 0.040819 -0.021617 -0.144192 0.117026 0.079833 0.209850 -0.057635 -0.196046 -0.036391 0.035873 -0.352378 0.263346 0.036290 0.135113 -0.122872 0.792738 0.140582 0.153315 -0.017742 -0.131361 -0.097349 -0.245237 0.133620 0.071055 -0.190850 0.054186 -0.079858 0.095518 -0.079546 -0.097013 -0.137251 0.033180 0.138270 -0.000905 0.017606 
posad -0.141728 -0.013647 -0.038588 0.103474 -0.204638 -0.109719 -0.145195 0.357703 -0.452737 -0.025195 0.132228 -0.016433 -0.129470 -0.616604 0.223414 0.069699 -0.116715 -0.046906 -0.094420 0.540789 -0.266209 -0.146012 -0.199244 -0.106562 -0.059790 -0.760891 0.416996 -0.015079 -0.358069 -0.556915 0.518060 0.010007 0.185167 0.039404 0.021025 -0.091657 0.196561 0.140878 0.393679 0.033611 0.068232 0.260080 -0.031555 -0.380719 -0.006958 0.011928 -0.104951 -0.184421 -0.232871 0.122868 
16.41 -0.583711 -0.421364 0.481071 0.245817 0.605333 0.281409 -0.099744 -0.295426 -0.638971 0.560543 -0.277951 -0.021883 0.542703 -0.564849 0.220194 0.198487 -0.376966 -0.233950 0.053082 0.562417 0.844972 0.419491 -0.208297 -0.596636 0.435798 0.460951 1.013888 -0.504704 0.435489 -0.239411 -0.587863 0.087646 0.508352 0.310670 0.388521 -0.533303 -0.582576 0.222495 0.057741 -0.425268 -0.113662 -0.427929 0.658877 0.240277 -0.649182 -0.157279 0.105239 -0.108868 0.157354 0.126055 
tolunay -0.220597 -0.140240 -0.085930 0.069183 0.175127 0.094506 -0.288473 0.099317 -0.222227 0.146680 0.146772 0.210305 -0.067703 -0.200943 0.235459 0.157049 0.055507 -0.092322 0.035773 0.133864 0.028445 0.009956 -0.164625 -0.011599 -0.054537 -0.275022 0.246796 0.051965 0.047075 -0.071059 0.275328 -0.059325 0.370318 0.088054 0.120360 0.001529 -0.189331 0.138511 0.152622 -0.215505 0.069343 0.093334 -0.018364 -0.009686 0.074956 -0.217912 0.025120 -0.026173 -0.055550 0.165295 
4-23 -0.565785 -0.486880 0.397820 -0.255418 0.143175 0.212613 0.034810 0.130584 -0.137233 0.060730 -0.056881 0.104662 0.065607 -0.087627 0.001469 0.298174 0.031777 -0.000026 0.061436 -0.035498 0.189211 0.312571 0.269111 0.220964 -0.095326 0.581179 0.564314 -0.054559 0.547991 0.013981 -1.079349 0.265136 0.712470 0.128435 0.224216 0.161997 -0.473899 0.152254 0.033512 -0.323002 0.333268 -0.056277 0.237438 0.314467 0.423703 -0.126272 0.271233 -0.346542 -0.291638 0.389297 
1.4767 -0.463597 -0.358454 0.258269 -0.094099 0.029158 -0.047662 -0.097985 0.406289 -0.567419 0.450361 -0.282715 -0.144520 0.700162 -0.446143 0.131604 0.226387 -0.246987 -0.065024 0.157268 0.487327 0.506030 0.124967 -0.458882 -0.457109 0.207151 0.413888 0.857676 -0.125538 0.466440 -0.362154 -0.934664 0.345315 0.460363 0.112315 0.180794 -0.100335 -0.403014 -0.018462 -0.033192 -0.602436 -0.174131 -0.462398 0.300291 0.129859 -0.312902 -0.130107 0.180620 0.052225 -0.232571 0.010466 
17/32 -0.495612 -0.172617 -0.086429 0.046207 0.021008 0.085952 -0.097258 0.312395 -0.235043 0.348635 -0.141214 0.016921 0.225430 -0.086448 0.213933 -0.069645 -0.110090 -0.177381 0.094011 0.205987 0.294601 -0.046801 -0.265481 -0.067072 0.101188 0.364332 0.502666 -0.293441 0.339286 -0.104006 -0.346259 0.248626 0.272022 -0.013829 0.048395 0.033044 -0.234502 0.165256 -0.100545 -0.514252 -0.029472 -0.413903 0.037176 0.106335 -0.251189 0.095391 0.315696 -0.033911 -0.237541 0.241750 
naumchik -0.194584 -0.065856 0.154166 -0.058493 0.551790 -0.042477 -0.253182 0.207256 -0.315886 -0.182400 0.088180 0.191034 -0.393580 -0.331626 0.285387 0.094635 0.060637 -0.103618 -0.067138 0.551373 -0.271610 0.118247 -0.048726 0.012748 -0.184856 -0.482900 0.305388 -0.188651 -0.139383 -0.176167 -0.224217 -0.175836 0.396732 0.038681 0.355276 0.123718 0.158311 0.292941 0.164929 0.106124 0.226136 0.376812 -0.072936 -0.249606 0.357747 -0.173068 -0.218745 -0.179629 -0.228855 0.504097 
zavgayev -0.331510 -0.286817 0.114059 0.088256 -0.297296 -0.236516 0.323666 0.576850 -0.027493 0.151398 0.365397 -0.445750 0.610810 -0.036506 -0.000421 -0.232051 -0.050008 0.154297 0.359796 0.410035 -0.140150 -0.584113 -0.608540 0.284810 -0.116931 0.292361 0.450545 -0.001724 -0.023115 -0.390062 -0.486852 0.360989 0.359672 0.145276 -0.509099 0.267970 -0.266556 0.137940 0.120977 -0.347952 0.394121 -0.315913 0.338753 -0.240423 -0.066838 -0.163839 0.282376 0.256257 -0.076103 0.032604 
nyerere 0.000649 -0.072713 -0.043891 -0.097153 0.306627 0.129893 -0.329876 0.081226 -0.258833 0.150021 0.012033 0.230095 -0.172041 -0.324752 0.308319 0.152742 -0.003931 -0.138223 -0.002707 0.106527 0.207494 0.192666 -0.019697 -0.129874 -0.009271 -0.562892 0.253593 0.007273 0.126807 -0.105955 0.922856 -0.053293 0.248665 -0.060511 0.214937 -0.072819 -0.051747 0.089939 0.083840 -0.172722 -0.047919 0.066055 0.013979 -0.066799 0.050853 -0.223914 -0.109723 0.001704 -0.042355 0.241037 
whacking 0.072278 -0.099531 -0.022139 -0.189933 0.461685 0.480820 -0.509748 -0.011811 -0.184786 0.223630 -0.292101 0.220641 -0.320413 -0.101481 0.305780 0.225300 -0.011677 -0.271757 -0.110643 -0.340430 0.590663 0.447841 0.179396 -0.184223 0.043784 -0.941864 0.226813 0.217623 0.550220 -0.096157 2.074034 0.017685 0.439547 -0.139290 0.296641 -0.016774 -0.171928 -0.045238 -0.070299 -0.435331 -0.275544 -0.102753 0.125241 0.274275 0.387131 -0.306362 -0.133979 0.040260 0.170511 0.085385 
blushes 0.006968 -0.115665 0.018072 -0.095781 0.248995 0.108471 -0.294397 0.072138 -0.221053 0.115121 -0.034805 0.162481 -0.112926 -0.266623 0.270229 0.242665 0.037254 -0.133886 -0.005809 -0.133955 0.232754 0.147199 -0.066014 -0.116971 -0.000018 -0.520654 0.193719 0.138507 0.176534 -0.149141 1.020817 0.058168 0.338268 0.045942 0.162292 -0.024230 -0.126173 -0.010211 0.077213 -0.227789 -0.083188 0.061375 0.054708 0.063748 0.190627 -0.251637 -0.022122 -0.012154 -0.042025 0.060019 
lucy -0.078656 0.024290 -0.040178 -0.078690 0.310091 0.236448 -0.401417 -0.016352 -0.211478 0.093427 -0.069998 0.241653 -0.211258 -0.174724 0.333033 0.181354 0.037596 -0.208164 -0.192694 -0.221505 0.218215 0.139552 0.053979 -0.099073 0.049172 -0.623870 0.191281 0.177915 0.296226 -0.082338 1.418953 -0.078719 0.307837 0.144531 0.185698 -0.111180 -0.039246 0.083039 0.210379 -0.220410 -0.038881 0.099203 0.013985 0.065069 0.124498 -0.151091 0.028287 -0.182867 0.018673 0.190074 
